solver_type L2R_LR
nr_class 2
label 1 -1
nr_feature 45035
bias -1
w
3.93776211631057 
4.473546274276792 
3.17428767609224 
1.939810220967268 
2.902296019410328 
3.713894602191975 
5.936089041080473 
0.4707025954003352 
0.477275753960468 
3.574213019474412 
1.34480320925768 
0.5804669704790989 
3.235655878713863 
-2.213630990387055 
2.988918981629747 
1.010156127554911 
-1.213254996830302 
3.329569004699841 
1.142389574308006 
3.645604451828291 
2.269849883897008 
-1.642578373673061 
2.79020326778712 
0.5541342391749005 
2.171525756067332 
2.8945646696512 
4.905580954658051 
-0.1345302349686137 
2.059933629878448 
3.319134609174948 
3.117708279498167 
3.316371385284761 
3.076423881521416 
2.626258885555104 
4.666224620562526 
-3.131439216236276 
2.04335595957779 
-1.059093072820911 
-1.90090145057047 
2.894255080148625 
4.594685463259496 
3.593680875964049 
1.070311967156967 
-2.26835270295377 
1.328627555442867 
1.082934965520462 
2.638600749569872 
3.389795601672101 
4.184664131802312 
-0.226986348584801 
3.960156879678218 
1.645124302707031 
5.417150776285134 
1.029460805386186 
0.1320855399609306 
3.377900339244845 
0.06755986588719823 
-4.918232586201954 
0.7637482093460991 
2.519585285045402 
1.026117654579891 
1.533649095020081 
1.90555891714615 
2.031794481552754 
4.075289726617047 
1.167966912312336 
2.938256253351156 
3.739571097793401 
5.302244375789203 
4.559897767382063 
1.367447734048646 
0.9558250538432553 
1.479750974316721 
3.159971524482887 
1.592370006964766 
3.426944055936243 
1.427645307453134 
2.381089467401807 
1.361190966075396 
3.841251593039895 
1.908995110471324 
-1.822297076969515 
1.711499805476382 
3.425613878102508 
-0.3007809120899016 
1.252556324779643 
1.451175230050416 
0.139061648328409 
2.096000179749763 
1.474517401730833 
2.773376052803853 
-0.5604086624841917 
2.969617364082624 
-2.338246108666846 
1.282702274836142 
3.658545801726547 
-0.01148298453347221 
0.4759050686840799 
0.6822414214650473 
2.262169650542438 
4.685701990951853 
1.958227141263308 
1.363547383395791 
3.575074051418295 
-1.004042265213671 
2.336501394517449 
5.156350890697627 
2.612875682060142 
0.2934654063285784 
-1.247591125883343 
7.129817912549944 
0.5509518254128387 
3.491268199936243 
1.567790615601694 
6.071477287565879 
-0.6789585703926218 
-0.7738467700159433 
1.405838016307221 
-0.3073360675056754 
0.4535621568034595 
1.125192873715735 
0.6547616115216647 
4.622374860682025 
1.757855922334471 
0.9517603010608184 
2.465810354481412 
0.7412139383626209 
-1.13807862044609 
-0.3828452742808817 
1.144558068217482 
1.180430565276634 
3.856799355350763 
1.467989588506237 
0.4391996838145145 
-0.9621549262220054 
-0.8495170406960051 
-1.044739958651687 
1.972192910364724 
3.849506302326527 
-2.471754209976652 
1.629445204743891 
0.5478159657218464 
1.612005908064901 
4.462117999240604 
1.302071779224449 
0.5788586626213099 
-0.4719863591229944 
2.928898997982354 
1.096648015580292 
-0.8874670260097363 
2.567080067317596 
2.650460880463145 
1.597653016394152 
0.5473961707765779 
5.710793131015246 
-1.315997843897764 
5.008804007088184 
-0.2597098860989487 
0.5149782520022255 
-1.07283426607382 
4.41861957274682 
4.361827984407371 
-0.1045117302801136 
-1.477057169233774 
-0.8552487892068819 
-0.9535198611032674 
1.835133534648713 
-0.06368500692288957 
-11.48888921538784 
3.260058942670518 
1.84200792128317 
2.378416903884535 
3.062470479925052 
2.970833506280993 
-0.220728893531959 
2.303604399461501 
2.557000468568425 
-1.173970879191569 
2.477568944916921 
1.571464828127196 
0.7329018415170941 
3.821658944596661 
3.858874152243284 
2.280326695558244 
2.767288362866585 
-0.5606040266758252 
0.8629176837484051 
1.395313778129017 
0.6999048485174315 
4.701680837666635 
1.120502739818409 
-0.1959781999982927 
2.286030888861352 
2.207820430471937 
6.563203910931504 
1.902963272598565 
1.379688113254304 
-0.6169943410658526 
1.128222844172709 
-1.652358383322982 
3.646844526967113 
2.217958502226986 
-4.862233463042579 
1.571784689870979 
1.790073712810317 
3.344100636538343 
0.8693507971816651 
1.995061076696045 
1.785766288381589 
2.381022800187663 
2.471430583634015 
1.822671814455717 
3.371705324405583 
-3.00805716368854 
2.621591602139849 
3.414539583679483 
2.508531372928132 
2.511481656208086 
2.083183264990979 
-0.8897492215221731 
5.876107344718354 
-0.03675983519436921 
2.079107272608145 
-0.2964427319237425 
3.183609275651721 
1.818695230295172 
1.858737794215507 
-2.030887487475858 
2.081076957268071 
0.8297839317331021 
2.91617831240446 
3.516516551469592 
-0.003492386528385481 
1.598331661823512 
3.226617518642662 
1.679360321890712 
3.153890836545724 
0.553211547139045 
1.421934013882558 
0.1110197071873502 
-0.7775028650668289 
0.5406563410868029 
2.037715846904975 
-0.694241007313372 
-0.47505261775854 
-0.2790166753676276 
-0.1369719156592047 
0.4709724893570551 
1.232389078636883 
1.120958627320041 
1.362366968909519 
1.08240226054774 
-0.852439497165732 
1.183682776571227 
0.8296336235573699 
2.290282175740373 
4.370749476130163 
-1.023679837776845 
1.223933787618461 
1.138178063828306 
3.288051182880323 
2.874857552317582 
-0.04896468085455991 
-3.763379743285683 
3.438585397304176 
0.816963194322009 
-0.6056507318366848 
3.367285455106065 
-0.5581940742952652 
1.823954909558267 
2.358112221386545 
2.20663579971175 
0.4892374111400593 
0.09299674969252343 
-0.8619985322728481 
1.536607651337056 
2.6963443737195 
1.423264181318087 
1.621568519415445 
0.09944728955725428 
0.852308852995817 
0.2804421967111875 
1.514139372313933 
-2.516910731845267 
1.386872852763724 
2.191315651252237 
3.444753551975956 
1.682231479687648 
2.199139311810448 
0.7314983516014016 
1.68889269681332 
3.485983942663631 
-1.894844580733203 
3.13145248163439 
4.382391779569895 
0.5390957036154155 
0.7482250687856649 
3.309471567174191 
4.333448781010096 
-0.635410172470865 
0.533721335049848 
0.7209262772736479 
0.3554813044043154 
-0.07104136520781505 
-0.4181441376229651 
1.813789625859559 
4.793973983857414 
1.188782607441705 
-6.960132832388132 
1.438297360851105 
0.1382160302994846 
7.616323647632135 
2.276081343519778 
0.5368695914860649 
1.804365395841477 
2.352033717432537 
3.532587132559526 
0.8820268048246096 
1.541755174261897 
1.132293502375063 
-0.965421098088471 
3.134754663361672 
1.382365328203972 
0.3743247415695865 
1.207129661053924 
4.076262180076068 
1.392817032851989 
-0.9220045586853737 
1.158943423283445 
-0.165745448667852 
2.349386649199511 
-3.658633962448257 
-0.9047590567156508 
-0.6943080063565252 
0.7301813937861482 
-0.3953511102868699 
1.044567692931933 
-0.4185792242334603 
0.4205571138107699 
0.8752566562780867 
0.6157748767098886 
0.7080838230532034 
1.015194684269428 
1.435363160504207 
3.116682667068711 
3.311983696130252 
-1.869749284250946 
1.797010247914212 
-0.9504722568200712 
0.5038731901567657 
1.990637280673515 
1.513876063015687 
-5.891101478127966 
1.216426785654731 
0.9375494936040947 
0.1512859376273553 
0.8058345831412513 
1.105559231709775 
1.098106177344249 
1.806401212596976 
4.611442004299586 
1.163329868481632 
1.854951243694233 
2.662001246132034 
5.185994326176011 
0.5761291635761532 
1.658084275686792 
4.388001889320228 
4.969669746261305 
2.353454005624892 
0.5113955000328181 
-0.8929189306273256 
0.1151292668174399 
1.462892878841863 
0.4341532478905057 
-0.516300688248481 
3.89762806975196 
2.863307756077802 
2.591764870969564 
2.004343683308431 
3.039176864091459 
4.074885273139467 
3.120305715257216 
-1.974076595247967 
2.544612631467261 
1.748239308831806 
1.667579724958525 
4.953581979979879 
1.985244636678637 
1.390760177780704 
1.447681051536588 
0.5786532952130952 
0.6535961040604807 
0.8688641726309583 
0.09555812423192277 
0.4911029013723398 
-1.239640537391996 
3.116295879448432 
-0.7750639283405452 
2.18231235658118 
0.8400912222342906 
-0.2139563259891986 
-0.3125830913993698 
1.27486504599677 
-0.2135450477215886 
1.196474430141333 
-2.147156764899893 
-0.824663657185015 
1.505780764185918 
0.473071348286649 
1.380884775945014 
1.215852895105729 
0.5320198343848459 
-0.9262345351749146 
2.688170192550241 
2.122741863078555 
0.9145371652636219 
-0.3802753871713458 
-1.868388062172894 
-1.240673990850762 
0.6896081254761367 
-3.234078805034926 
1.233074492810189 
-2.028822709533399 
4.963419202440937 
1.553294366069428 
0.794039875753496 
2.255590024240262 
0.4543727219490764 
0.5853145261581478 
2.679473597070503 
1.682277833800827 
-0.04500481904631217 
3.945879108632628 
-1.989321067675426 
1.185055016590177 
2.240237329144366 
3.233047512409006 
3.374207637225473 
0.8654621767651175 
2.219596267225241 
1.437551864745339 
2.471668862456703 
3.64460433400526 
-0.9643750093440338 
1.969266045371912 
1.935839084015603 
-1.866311089007003 
2.880451682186647 
3.16037449063928 
1.466768313066042 
-2.439850867177355 
3.625890478731534 
2.657263694379287 
1.414108708532693 
0.7995256071773724 
2.013971403979819 
0.9502600083374886 
1.237573407013371 
-1.93315097822283 
0.5372257999934648 
-0.3205442652279056 
-0.7879611836280332 
5.101304294492698 
1.914043967471392 
0.2496636829827222 
0.7522053584189666 
2.151226569390114 
0.9886721224208685 
0.6034034782054408 
0.425782398025244 
-1.397159833224845 
3.031295033023428 
2.679716503308438 
-0.03436347294273907 
0.4800188025631693 
1.126205906534222 
0.7415309951385956 
0.7957845221446452 
2.478787291429151 
0.05013582260563509 
2.848029891313789 
-0.4501627001859866 
2.074706594681967 
4.021957242595581 
5.302607387534932 
-1.405036144767605 
-1.804717275497003 
4.853899003565108 
1.312026510864371 
-0.2618812583999905 
2.004328817791882 
-2.131925542900172 
0.2058407173830414 
3.451198239830285 
1.053840268859275 
-2.582430943490214 
0.9518074605428788 
0.7450931261337601 
1.699964788460988 
4.516556594256196 
2.145120855650001 
2.540509402727118 
0.5329085003789079 
3.261935124359133 
0.6501381189362475 
2.504315601492146 
-0.4387876262464201 
1.11864607461463 
0.5503495135023774 
0.6075096867841447 
2.17256274639553 
0.6733626853472997 
1.78871527063032 
2.184073089752254 
2.242456596519706 
2.654522244797058 
1.699082344915169 
2.345379834784406 
3.979738404720311 
0.4100333806620928 
2.48839145732649 
0.2606368818632211 
0.9965524880426008 
0.07893863201099262 
0.7597210585634462 
1.44755362408578 
0.5681025417915819 
-0.04695342587053525 
-1.437620673920909 
1.716515098735035 
0.9251194865264973 
1.135171783464922 
4.513266078955481 
-0.2037815163141343 
1.420905178290321 
1.314185193490899 
1.078349521321872 
-0.9577576025130442 
0.3160020850521962 
-0.2440828070245748 
1.038630061973241 
1.415759221457229 
2.812780530605742 
0.9853781977068762 
-1.794829628955818 
1.891304229927823 
1.27535374887018 
1.257146555561375 
2.137278899073589 
1.68452175839616 
-0.24082517960677 
1.448784813981721 
0.9325037242999444 
-1.456678928235844 
-3.086009301279268 
-0.5614212746245463 
1.681278828465505 
-2.57586486373877 
1.053270351955655 
-3.054791886503831 
0.6789246902822379 
0.03700702711404914 
3.15967682633201 
0.01122318857039252 
0.8123484806215876 
-2.350766919693412 
-4.10453750799257 
2.177088726443471 
2.808919366265728 
1.425403052415547 
2.438056939452831 
2.067890369664799 
1.31427539463095 
-0.02304612642938172 
1.685554255606083 
-1.279832611507855 
1.903329536732497 
2.665124165437178 
0.9192025558479042 
-0.6230124088032112 
0.5990712989649817 
4.114000703561098 
2.27769847335436 
0.5098269261667605 
1.03966201718881 
1.764331375587109 
0.3463456627049328 
1.713441327892125 
0.7075153621244656 
1.03805170461417 
1.979973896144923 
2.004292520562164 
-0.3723769108538378 
2.661408585401407 
1.175485081208175 
1.034918938242162 
0.4320101912352508 
4.720566756178888 
1.876343905369298 
0.8608867101217856 
2.030373156530798 
1.735377440668131 
1.084854261473571 
0.9953014031946387 
3.875934513679816 
3.478141801844806 
1.19374979338635 
6.181627246232263 
0.9794939815846748 
-1.60814725019513 
3.021905638414754 
1.964291572883767 
1.739933142672364 
2.596655063850776 
5.225749481439368 
2.524092405715527 
2.329823416268065 
1.277170056145043 
2.61625395053301 
0.5954013664081567 
1.417756073444605 
-0.3795238488935253 
0.4916818386952516 
-1.061110750100416 
0.3474878267753994 
2.876114939087586 
0.9679632521080134 
-0.2744181935671644 
1.841254516235008 
2.400967915648714 
2.035780879581429 
4.022573942435439 
0.9926955467626232 
0.6387513225839396 
2.016012346326823 
2.586194684955159 
1.399218060434631 
0.8162578683306663 
1.094968082756108 
0.5106761881799136 
1.028916198993254 
-1.149922454447461 
-0.1765735790504151 
-1.598008499083835 
0.2610415036010692 
1.90851347224232 
-0.9776492474938013 
0.25942646846822 
-0.2120660857348486 
0.1039549569399049 
1.187056929410518 
1.724881314091178 
2.17836963306138 
-2.693885709873496 
2.171246722747832 
1.268732041901001 
2.178675091766643 
2.196037705720053 
3.11781801845784 
1.779752851613836 
0.5938175298133873 
2.719325448563024 
2.258212868272891 
0.9443145136833208 
2.543118604213061 
1.39747418151229 
-0.2564879393347072 
-0.9155650655034161 
2.853890455802439 
1.708513405207832 
1.668533431024399 
4.202944059922539 
0.3282740372287515 
3.087108683138867 
-6.381574129277301 
0.8556939236013443 
3.946790485258031 
1.996272125998718 
-0.5825360224315566 
0.8320768841365939 
-2.369156687212147 
2.765642477838099 
1.540157215219791 
0.5653117923876939 
-3.887121357555149 
3.777175811286432 
-0.3399866040379743 
0.5736519930598007 
2.505898566851498 
1.757026261257675 
0.09855621459181774 
1.983218652978411 
0.4996951792105853 
-1.096552788730151 
0.8224816397378159 
1.891938338280401 
-1.821788074193628 
-2.575046522930322 
-1.418536544355823 
0.9834250760164354 
1.550646386154056 
-0.6815712021427556 
-1.750047817532273 
2.115820822388296 
3.217638615813837 
1.255366606429196 
2.914026020181519 
2.486471986391136 
4.977560745243593 
1.588527454958446 
3.686329325173649 
2.356433758903753 
0.9211580998297072 
2.006838493286809 
1.180377287588269 
3.330814928948977 
4.183764704440325 
0.8566482768879998 
-0.2278183550423223 
0.9102999865573466 
-1.51481439859008 
2.981854742804935 
1.408571402210917 
0.9292487778691406 
1.346496908802279 
3.268247645331467 
1.413247413392309 
3.471675696202284 
5.957246990012604 
2.407008973077935 
1.447800357466551 
1.410027663631171 
-0.640193409111093 
1.403595047412832 
1.450023790947309 
1.676366612391084 
2.579661337339982 
1.03789062437317 
1.694729642001976 
0.8846730552923969 
1.873126761031187 
-0.3119320352446905 
1.251873434231282 
-0.01639159058255343 
-0.323676807032821 
2.552233705087684 
-0.3874894269368273 
3.245516821543375 
1.073929135722187 
2.02212205606729 
1.704243207167429 
2.915445308956507 
0.8893909307629434 
2.980049934406045 
0.8125768567890788 
0.1895003131852251 
-0.09427842413528172 
1.397618600464117 
0.7291100379937464 
0.5912199115775914 
-1.363712287977326 
0.6711656615947509 
2.697549777166435 
-0.8681890198801946 
2.307002471853695 
0.6392894429779922 
1.4968591467335 
-0.3039865474242349 
1.58414840839876 
0.06381768733929194 
-1.671617211056499 
1.068038405782585 
1.616226301642615 
1.130882184004761 
1.045288987340355 
0.9581224845699858 
1.27156128615247 
1.61412955105351 
0.5450537362036771 
-0.7579296002979036 
0.5702538016380738 
-0.03214346449741788 
-0.7585163555737905 
0.3035328075187895 
3.015476912581426 
1.821801908822734 
0.4073722740763898 
-0.2599662104770117 
-0.1546373927132994 
0.453659838368169 
-6.009664873190729 
-1.82171542979278 
1.711676298839309 
-2.722850300269589 
0.99123024171438 
1.133179095780005 
1.64643697371089 
0.7657634586920461 
-4.906582588316251 
-0.278851139911909 
2.783339630476102 
-1.825115837736548 
1.403927083104803 
0.2684901546580273 
0.106854434080299 
-0.8408163500971532 
1.487258931027067 
1.716611954968165 
0.7590607762422381 
3.464573621917481 
1.061600679138386 
0.2729593829400428 
-0.2719188088374399 
0.9549320660083935 
-1.967126264216327 
-7.546359604275494 
0.6238380255468393 
5.421471700555734 
0.7737784969879505 
4.27575391708559 
0.2120341633346649 
-3.046464811678239 
1.809011073723475 
2.808026278610126 
2.652965878327471 
-2.193347554861516 
1.309416272073832 
1.119360758943975 
0.5946408177645331 
-2.102988710107752 
0.8180006898302049 
2.200072275920027 
3.73197689754178 
-0.01133335641883801 
0.8772037092946501 
1.230728693636164 
0.5667410014926537 
-0.1375211969817519 
4.908630520741604 
-2.373808062488903 
-0.4029585381278515 
2.603484094401218 
0.2465728767088979 
1.633864919380414 
2.756526232688954 
0.5597620894652061 
2.611373712899006 
0.04955826733897571 
1.557174212910973 
2.727224612418025 
-1.033161370787205 
2.14668168945559 
0.9229151299974958 
0.9297666077429639 
2.353464098312843 
1.795052285164223 
1.61471339813354 
-1.502716313945718 
3.060383818664281 
1.336855950251461 
0.5378442365905889 
1.386902613925949 
1.753689400582463 
-0.2634924618616539 
3.362450320511531 
2.022358126139407 
1.723202757352087 
3.186416181242631 
0.1965236033312314 
2.44844197831952 
4.949856979656666 
2.653626101150091 
-1.27979798263969 
0.5714074676744326 
1.340639358355886 
-1.481079757154643 
1.891383737673378 
1.547327977953663 
1.538079638695516 
3.302479760664108 
2.796966685326997 
2.069425088519937 
1.149655254965098 
0.4194207776652501 
0.5551198518181117 
0.6759297718000949 
3.3664104545172 
1.166897962702582 
0.8837907163470806 
1.418583554484714 
0.2670597277729968 
2.393025607119142 
0.3144210608232374 
1.362599750338685 
1.764501560142361 
-0.1880842779324428 
1.762886888202206 
3.087680655170687 
0.2242991476470289 
1.053230161700878 
1.75185502803465 
0.9510475056899205 
3.628185680536514 
1.872163403786825 
0.2961268129538585 
0.2100297964292765 
-0.01541010712003645 
0.4540686171496103 
0.7401313586324132 
4.668408904825204 
0.6361362759735978 
1.243461929252665 
0.6411141132240763 
0.7985354892011653 
-1.323363982991732 
2.874001427151166 
1.537616967999808 
-0.9905975256919048 
0.8343949350932274 
-1.992815094432449 
0.464900856417274 
2.187592778411185 
3.853947034396185 
-2.195203580042686 
1.538432045604757 
-3.634642069781845 
1.854753933217252 
4.267644424471352 
2.417943056259542 
0.9561378779884749 
-2.128009333504947 
1.156856422665097 
1.442385269716376 
3.796921037020702 
3.728141751855507 
-2.246099215964859 
2.250083713606663 
0.5307153770810348 
2.231742457169565 
-0.4568804527064428 
-1.790870137470598 
1.392291556867022 
1.381303431230908 
1.011161594657024 
1.875440739460455 
2.043228599844034 
1.726778646886404 
1.951081719753645 
1.169733941682539 
-1.38829910967046 
0.4268976849444093 
0.03373142032056756 
-0.689151383880623 
1.509342998553466 
-0.9147314154886409 
-1.406198712236376 
1.394843464685236 
4.13776508369553 
0.8950545644518845 
1.699933211031542 
0.5607910489916542 
-0.4038109379996448 
-3.476365178083268 
0.09291037670275508 
-0.166454663766884 
1.419297382837764 
-1.12622496409216 
1.064439479964194 
-4.112975010354107 
3.294373189373498 
0.4041324294351273 
0.440049466360363 
1.610099628955676 
2.47001916249097 
2.643404226770881 
-1.465681942725779 
6.551622513244229 
0.5810235735858875 
-0.6148336657651965 
0.7693930895433954 
0.4146201880908432 
1.135486751563863 
2.571408708516702 
-1.296198452252753 
0.8138203584093936 
2.435852533204991 
1.984482506637729 
1.001129409693167 
-0.9609661216002525 
1.112990248265713 
1.566583398149741 
-0.7359282152681667 
0.02259746619172259 
1.835354334079286 
1.307052877104148 
-0.5219410215516731 
1.274668277605381 
1.175643284907151 
2.2521957304739 
-0.7866962588628791 
4.576438239904059 
1.719283564336511 
1.432624946733356 
1.339569022829767 
2.548071975620811 
-1.990861607394537 
1.127021488814755 
2.248467018971179 
1.428760480945664 
1.108017082675173 
1.913259348775229 
0.3672097810287671 
0.3376996421664432 
0.5809202725166611 
1.433123732401267 
0.6499088459244022 
-1.447222135466615 
1.724536800624918 
-2.553097950468461 
-0.2081328266769176 
2.364513377818031 
-0.7450375943918601 
1.149041516250043 
1.064494538488091 
1.337220271241518 
2.026568824624569 
-0.002708801078814363 
0.4775335197107444 
1.668343896923938 
-2.243203155252968 
0.7207609510150067 
2.098677707676984 
0.1259000867707276 
4.055875982665069 
2.459062601414434 
1.371477800437312 
2.324881163377309 
2.93069790214016 
1.187732278643854 
3.39052561475271 
1.20366041063377 
1.279138587144423 
2.239306723836249 
2.201280545227847 
-0.279859039166537 
-0.186036393313271 
-0.468982731486342 
-1.369524618667926 
1.240873054752565 
-2.083160016198604 
-0.0001573241870228108 
2.996564549799702 
3.117488175851229 
0.9742245591652534 
1.952927923341576 
0.619365900850588 
0.4940526602239734 
-0.5463747533402705 
5.592736429523055 
0.242197661122951 
2.753226217861031 
2.623310868620859 
1.877396668747739 
-0.5208746996895948 
2.636079997804282 
4.554305851979479 
0.8897703600659754 
-1.051385648886079 
1.164059790649354 
1.490609680848929 
3.789253810743269 
-0.03821585732342375 
1.823557264119089 
1.418941734991345 
2.574970956815705 
2.160841338839936 
0.9808479075776537 
0.4570770453515918 
3.850401200546552 
1.802843788368326 
0.7644676415699194 
1.285408355556253 
0.9213765192615737 
1.744367678368429 
0.2515319800438544 
1.42456089769678 
2.33545431401458 
-1.872198335179337 
0.4008516484215516 
1.613202841398673 
3.097415165491064 
5.372929292066064 
2.082840108203519 
1.979813167287712 
1.364672956552454 
0.2985047055042118 
3.551206126078156 
1.397434144718202 
-0.7299118337896765 
3.264448591735728 
-0.1414471383673523 
2.828915844981065 
0.3760844439732511 
1.331377023392923 
-0.7421427643954625 
1.103087457485642 
0.9748725138653964 
3.105404431216025 
0.7302202929614539 
2.154173098886059 
1.978503588008141 
1.098492897804897 
0.9721662914091435 
-2.447455053845786 
-1.014260559669285 
-1.555995415805631 
0.6340017668989663 
1.460619641535447 
0.1608165230478732 
2.559373956198518 
1.384626413315124 
1.887078195949053 
1.933163884243985 
2.29994144885314 
0.5502998332587529 
1.335698929353196 
2.025792753322689 
-3.070743118296458 
0.8584139671766611 
1.647588403838495 
0.9297807341905898 
2.952722292709046 
0.4253160833377168 
2.140603254723686 
1.482864463476549 
-0.3995537410732002 
0.2111329474187031 
3.779847275995531 
0.6780423094946921 
1.301106394315351 
3.791049977248327 
0.4569884007449304 
1.067125193207564 
2.156176556612192 
3.470720852937895 
2.331180427061316 
0.5116476166725309 
3.890922888688081 
0.9667609136370829 
-1.84792877811279 
0.2895182081756541 
3.925119169764671 
0.8074139806868542 
-0.3490807964518618 
-1.634143428318385 
-0.1972713868467439 
1.606339219215748 
2.412873117519004 
4.061993513375646 
-2.059603787507533 
-0.4770918554612139 
1.20007861876966 
1.553177720442796 
0.6692505584131505 
0.5932680455578339 
0.6115804676032408 
1.077778447619787 
1.922932856393333 
0.1191792495840273 
0.9487965191892608 
1.450623467143083 
0.7574814352629223 
0.7760274350414982 
-1.856000332734005 
1.083660866867667 
0.6558726568872641 
-1.377777663889362 
0.7458391752586795 
1.49040961052493 
-0.5722862509970835 
-0.8119151691481132 
-0.3584458208303678 
-5.392367135502798 
1.037110844124898 
0.8472380087582629 
-11.63469434683607 
2.570267700834652 
1.202028189913576 
1.804712859816461 
0.3814252623649455 
0.5390584873112346 
1.294806754304225 
1.956036244139983 
1.631802219718623 
0.3253804407868873 
1.287592760933292 
-0.6852404321894831 
-0.002243838369878529 
1.194124243143166 
-0.09536011584734665 
1.550554697390192 
0.2442364089349557 
0.3847152679530446 
3.447004095791872 
-0.04699307608171994 
1.176085739267025 
0.9116278072021022 
-0.8593508499818548 
0.6460160901432542 
3.422808847820211 
1.520164307109543 
1.190884829061339 
0.5019705218346585 
0.7124503690816851 
1.221956843759544 
0.7537376168946988 
2.055029973913223 
1.399108042486858 
0.9674677788258667 
-0.2445204180398482 
1.224398529833325 
-0.3928832588791655 
1.351690026545122 
1.282802161662287 
3.425911588536443 
2.412083575022811 
1.37216655982126 
-1.965065570622525 
1.436603797616278 
1.826339229934228 
-2.826492535706838 
0.8739911030782674 
0.5723721670578601 
0.5222083553635481 
1.405317761649249 
1.588300060552418 
0.5366302457689733 
-0.7034149424974453 
0.3427951441264999 
0.9804290372318936 
2.441188929638992 
0.9876115489507301 
-3.523816573174783 
0.7205135983324067 
0.9431164443868121 
1.353351854194182 
2.450232611821319 
-0.201183891259375 
2.164670308721048 
2.15541529438036 
1.184471247282824 
1.130004436889823 
2.03080349287437 
-1.021464415394466 
1.682134189702918 
2.302909431768899 
-1.484416315172393 
2.064888439804943 
0.9279581568627403 
1.47044601714772 
-0.4042177902084425 
1.22028866329078 
0.9880931783472969 
4.342136269918623 
-3.002834109263772 
3.760479117214141 
-1.019654504773833 
1.574325307642473 
0.7972798477241951 
1.313807693373838 
1.029898784524852 
1.559277386919934 
2.597739984139879 
3.250313953188993 
-2.038382332903754 
0.2938461000814673 
-0.2024969563180322 
0.231717863726413 
3.019853579627646 
0.670693014623602 
0.3115528434470614 
1.466466534388914 
-1.916448683510275 
-2.89907779757629 
1.122843565978088 
1.829211360828979 
0.5955289230875149 
0.8909608333508452 
0.1162024525460938 
1.321901139610686 
1.431214787342676 
3.623548292111846 
1.994279485612866 
-0.02644525110238861 
2.93207202046386 
2.707264835748664 
1.500274449529149 
0.7519878510263494 
-0.9198744071389179 
1.988683947541997 
1.507901566937806 
2.040509677818761 
4.035971082733384 
0.1478134592042591 
-0.05612024016552494 
0.2149785113711617 
1.130582276443224 
3.104800878852188 
4.206032903005722 
0.6349190941955357 
1.238566565593056 
1.457249456879204 
0.7941376218596408 
1.83374627471465 
1.524581058850951 
-1.200535255546662 
0.7957382953266605 
4.04584086926317 
0.7053717005200594 
1.694708952113126 
0.3513186202776073 
-1.781073988097576 
-2.451179402505268 
3.521508861311101 
-0.1625373118490785 
-2.512605083106299 
2.81382163939013 
2.19774850291303 
-3.780425093346444 
1.066915703595714 
1.297382518099341 
-1.208026975076576 
1.394029477910858 
-2.166501529174731 
0.3178589234015746 
1.299059703574245 
0.7658272874945284 
-2.965153617726156 
1.188747797123038 
0.9838355132343599 
1.680517915596842 
1.679723932504511 
0.5385333039654632 
0.1618064939522761 
1.336976858653903 
0.81006372854211 
1.058675289747559 
0.4819324089115857 
0.9287052852578217 
1.153452733350617 
2.34059092071839 
0.9400127417341277 
1.460122970279878 
0.8303276069587184 
0.4006552979222813 
3.163885735579024 
1.695697171049636 
0.4669363409838007 
3.148417981433721 
1.820549488208119 
0.3786011206049094 
-1.324249178434941 
-1.698857157500271 
1.049876374495104 
0.06956726279658752 
0.8384775455882684 
2.111593855651461 
1.27406331390378 
-1.949225858030063 
0.8073053635337892 
2.215939962836849 
1.918340152414861 
-0.1067434351651636 
2.648683824803321 
-0.2406137729381832 
-0.3868386701638576 
1.275615016351208 
-1.241969859911132 
-0.7764152142085136 
1.119700847373878 
-1.301070672273982 
1.307568545439721 
0.6401710202596509 
0.4829765486546129 
-0.4976384161263028 
-4.154590109031586 
-1.533296701351257 
4.10820698283217 
1.977595204200411 
3.129954285248631 
0.2506675303887469 
0.3232981792864614 
3.736505722033243 
1.921104669776269 
-2.056455933389493 
-0.5871127006510435 
2.845594350776699 
1.571646666021098 
1.587668206894425 
0.8093868117920207 
0.5834284650414006 
0.9996182888784095 
-0.6940646019048574 
3.116353001614064 
-0.3439933715962533 
2.76873200276489 
1.199819544030324 
0.9242047084336824 
1.377725305645453 
1.871407562240112 
1.536335863317692 
0.1749641246845114 
2.431296336626621 
1.368617788314516 
0.4547082503538496 
-3.491368522454878 
-1.720339837496599 
-1.213991366674841 
-1.854064812258277 
-3.176851480963971 
1.773242229056597 
0.2479459221660542 
-2.237796796114583 
-0.757963780353927 
-0.595414549920642 
1.68416516804781 
0.3685820222763833 
-4.491855737865408 
-2.737659675518907 
2.81811616744515 
-1.104385445369688 
1.714842779819937 
3.329684134110262 
0.01189633368430432 
-0.4957034606511468 
0.798607930096079 
1.45236922504343 
-0.2022108576912356 
1.742545909010254 
1.543184280886361 
1.879817115821742 
1.860721061261553 
-2.392507266583356 
1.454639893806182 
-4.668608139700003 
1.298774341705916 
-2.617380227786148 
1.82926034211468 
1.354946945650504 
0.2282011032928103 
-3.370434470359671 
0.762104767578881 
1.272965587263074 
0.6911452804453904 
0.5628168905592988 
3.387016164962961 
-1.721379644968355 
0.4284974752853052 
-1.704319315444854 
-4.022637771430752 
2.26952711125339 
-1.351419443568567 
1.537113599649121 
1.906423741302673 
1.320403016522988 
1.145903589694723 
1.996236973701772 
0.8493649434189932 
-0.781084400844686 
1.623353750192327 
1.32002359106027 
0.6751745553861288 
1.171449470820827 
1.305418069490076 
1.379060384536782 
-1.11395886443046 
1.190674356316973 
1.32745818885798 
1.829687307109097 
2.089849945793703 
2.119446852219164 
1.452131426885745 
-0.1530718559469259 
1.505201674973123 
1.242842212104242 
0.02045096809070222 
-2.770087842761031 
1.226152950593707 
3.887456394496219 
-5.284099836368857 
-5.048258832838159 
2.80364689314442 
1.110288388054291 
2.706488880631456 
3.467453294381331 
2.638818417312189 
0.7307063360614706 
0.8832406570079313 
1.217409591960727 
1.679122998138216 
4.675520916212358 
1.45893785101222 
1.065789826640856 
-1.239458464950064 
2.002650533790562 
4.429390070993549 
5.319957542160112 
1.052028319901489 
2.36775098282625 
0.5297315133405335 
1.478598853454328 
-0.5634646497544987 
-1.464499029233994 
0.9630695053658125 
2.14985904583502 
-0.3610170718875457 
-3.152015570455211 
-0.3729867420102829 
-1.257537556996981 
1.515284876327612 
-0.541899284042261 
1.04563237567013 
1.337616358723343 
-1.184432312706842 
-1.674533024466491 
-1.593371191651354 
2.050296321624034 
2.029470507150795 
1.522539783919242 
3.878940751540122 
2.194760805278024 
2.242065321953076 
-1.558730623388292 
2.097336922234237 
4.901894752882897 
1.92160417590308 
1.173024266428545 
2.797157314334044 
0.4661026925373573 
-1.934710201548684 
-3.169085199659459 
1.557984688830121 
1.130173627485281 
0.6618001356726031 
1.057194689456377 
-0.1247693667793495 
-0.9044665879951322 
1.405238397491255 
0.6926359272358099 
0.1207919703819242 
0.3940650209600363 
0.6713020198355149 
-0.5158221392602395 
1.040243155114603 
2.744471804018191 
0.9080382335769669 
-2.249394182757925 
0.9168166028253966 
3.40755116305767 
-1.351928371305252 
1.253432269334418 
0.01462852519126112 
4.559375479057877 
0.09754335693230577 
1.424587164575246 
-0.01617544104383406 
0.7492169456703917 
-5.806402481005338 
0.870102760601507 
1.563545642730803 
0.5860467304896034 
-2.534912902039266 
-0.3156991460319475 
2.086802172196912 
0.7234419171413156 
2.710017402095733 
0.4308580297125851 
0.7589406328858498 
0.5099877072435455 
-0.2633379561785928 
0.3936313461453832 
2.780591910024294 
-0.8859884886227314 
0.8911315299922289 
-1.653977578965507 
1.586251236018064 
-0.8581928847877838 
0.9603512184937563 
1.124571349427629 
0.7809108170917397 
1.220452100615891 
0.5688438352237545 
-2.034926787274569 
-0.9366392171331753 
3.149267641013587 
0.2919274388368138 
-1.815198880873767 
0.6964677902611662 
3.305591769432159 
-0.8641447525897964 
-0.2345950000331465 
1.795937553186085 
-0.06125584790138699 
-0.8886337397396135 
1.429658920014668 
4.02516653663515 
0.7611071954376406 
-0.7971111155812736 
-3.04260083637621 
-1.706603600383009 
1.534663811912629 
0.6089331553703523 
1.410331185005872 
2.601428836222907 
0.5395836201532821 
-3.11080349231955 
-0.1539812237050471 
2.222115889775341 
4.734239738733606 
4.020591141634275 
2.848359076386256 
0.7545641282400115 
1.766456796726378 
1.000233652694409 
1.069612922151448 
0.4080646832025414 
0.6227738153702955 
0.9012993096724309 
1.481528154699801 
-2.077939863834001 
-0.8422939239758661 
0.7078438090299024 
-0.1616823980240216 
-0.7398153377843121 
2.753093862495382 
1.728866593453778 
0.7429515203925379 
0.1163931655376611 
7.606944685255249 
4.049720320341518 
2.329497530137051 
0.8487116022039746 
2.739449091226546 
0.5631186429987139 
0.1458440867845083 
1.511446735444099 
-3.24792267346013 
1.596967311149825 
-0.4845281505545916 
1.451867763910106 
1.184133184701914 
3.947986358135043 
2.126541226436883 
-1.084383475252767 
2.139387152512833 
0.5401235849713882 
1.382996654409291 
0.1178571442236034 
2.592180635298518 
1.055713258933489 
-1.898999381177188 
0.523562860181855 
-1.015942323499117 
-2.948808088288065 
3.17954522042148 
0.4796852086097233 
0.1958210211428263 
0.996040086670801 
1.109442307599901 
1.964058869514722 
0.4454555760275258 
1.554117161759862 
0.1971766927843754 
0.5613805241524763 
0.9125830326806316 
-3.460385687137997 
-1.169184647875285 
1.026638689711477 
-1.185539514499665 
0.005977684367968084 
0.9291977484607125 
1.632266010629178 
0.4606060906291449 
-2.094590814686292 
4.0548348790083 
-0.4957041027493932 
1.204978354952381 
-1.808940105854486 
0.5277959746387706 
0.5865709129465632 
0.1121336108731437 
1.207412189623225 
1.186052587223199 
1.045242851770895 
2.406325288516242 
-0.1542757716141924 
-0.2711648888421219 
-0.6194253111607624 
1.120319349535975 
1.277200733192306 
2.943820814876557 
1.976797765873329 
-0.8606996043782138 
-0.5094322565566105 
-0.8703236676009684 
1.994811957234889 
1.532278089045991 
1.874209403213589 
1.41510789641004 
1.282764687895436 
1.491286194009287 
1.336323396167364 
2.248127975998965 
1.606507322457181 
1.001084619451859 
-0.3955745426950336 
0.3194449998535786 
1.361947145203456 
4.310181034475272 
0.7987416427335845 
0.9454817116677307 
0.8114477041985986 
2.740563248844795 
-3.509208093997116 
1.675562419769293 
-0.6076487672958835 
0.1951925678925065 
1.517300623137973 
-1.762062650099888 
1.445396024680552 
-2.478443567657951 
0.2007403146822468 
0.5540530898473459 
-1.002040107103018 
0.6915272604368891 
0.8908051733629296 
2.486282517421241 
1.521361328522613 
1.033326997515001 
0.1864269980986213 
1.861743410469852 
1.131190316429205 
2.037658449165374 
0.9524144920603248 
0.8309543192335046 
1.340205850914973 
-3.562359412622716 
0.2241987576730356 
-1.541651119188435 
1.687623388219219 
-0.9300686554205535 
2.600361501785343 
1.171659604711589 
-1.215297494738741 
0.7733402865464062 
4.903358973276736 
-0.1869575796652878 
0.004078849480140236 
0.1253001766825684 
0.9254828595094204 
0.5601862824916009 
-2.297350458887004 
1.45065546376786 
0.4554334013276921 
2.490210081785303 
1.127036138084086 
0.5254044850230785 
2.758894137410262 
1.136199421926643 
1.865980132164087 
-1.614306354047436 
-1.174967676805631 
3.83585882122329 
2.310851061513489 
3.711671327205906 
-0.4743268797243964 
-0.5883274160149473 
1.757328529007754 
1.400945199571188 
2.796078016324318 
0.326936807159164 
0.8356917348772056 
0.7479162604570031 
-2.392426072919065 
-1.819616408451384 
-2.485844676394652 
-0.6804705839504085 
1.59608137508097 
-2.457106110949864 
1.696558563709319 
0.8250423350230042 
2.015244474039997 
0.6118739603986073 
0.3993152502123358 
0.6649874143286493 
-2.276699792526975 
1.216746435343731 
-2.513926577291876 
1.121539943107497 
0.1710039721273117 
1.809351482363079 
-1.07683622060527 
1.241765475615237 
1.687636069700116 
0.7424781115914618 
-0.8129663978737599 
-0.9552490001531991 
3.020555119686363 
1.510662951798524 
-1.266484193663691 
1.166483354893957 
0.4626373581569363 
0.2990649721519332 
3.365273636814996 
3.39924354009111 
1.091313615350413 
1.381266804857336 
0.08226485102710018 
1.525373988700188 
0.828950002824825 
2.181368495802031 
4.463722647199059 
2.06830043794783 
0.4290021237020158 
1.215955635870316 
-0.3523245345585552 
0.6394724985146664 
0.251460953383905 
-0.08898431575646334 
0.2633964940226922 
0.5671855155070751 
0.5629654311100489 
0.8419416140235048 
-0.423052064876279 
3.626260168859269 
0.1556076001196109 
2.239043868691802 
0.6137442043753737 
1.031059383752937 
1.645793428084309 
-1.572649372324377 
-2.267519343194501 
1.203855914393295 
1.250366084434847 
2.352345940603491 
0.5377980448282697 
-0.9125627305478226 
1.435353196427401 
1.048160400702825 
1.381154051429021 
1.24073978834436 
0.7550534060793295 
1.894460900761621 
-1.429441668453118 
1.208741443170489 
0.5577594528340523 
0.8896889888992805 
1.17197442486425 
1.016552492383933 
1.891537178685155 
0.08271486494998048 
2.450211371313899 
2.737007335073478 
1.390531803758479 
0.3017681462534382 
0.8663287382531475 
0.4079184905862052 
1.264366303218273 
1.961383495973239 
0.6863577134913038 
1.346830167720731 
0.8947834591851015 
-3.612115613250118 
-1.521200911456446 
-2.614180105895707 
0.6352397479340797 
3.090461377249052 
0.7184439804877162 
-0.7402585955046912 
0.8119455828308987 
1.236455670103008 
0.1629875521339466 
0.7408937565521302 
-1.388482385599421 
1.149621971284331 
0.9628114306713993 
0.7117983307437372 
1.715579038713297 
0.5641243131010156 
0.4489874535176099 
1.27120051621421 
-1.782502387735733 
1.178485707802787 
4.317072072742297 
-0.9393331998342461 
1.985236390978051 
0.9371749106803676 
3.307060020406595 
-1.376359269323459 
-1.484634470288087 
1.956213622371744 
3.380768225454054 
0.2139572601864866 
-0.7227196567730561 
1.230983064877911 
0.8603667762754191 
1.4442667664862 
-1.170829216190029 
2.253037120815653 
0.6158185431584162 
-0.94646337350822 
0.3483801756501805 
-1.336446226457385 
1.137463118357146 
1.184341440683015 
0.8428408513978453 
1.318845854727025 
0.584995997302225 
1.488709370808503 
1.086232849324239 
0.5641739813362527 
-1.975071531625694 
1.499064982442109 
1.212913344733629 
0.3581018974181954 
0.4725025966925559 
0.7234273239776493 
1.064020997395279 
1.132504169322695 
1.091997280230901 
-0.9136384535574337 
-1.302246398536932 
1.088614821193773 
1.491297648233436 
-0.4513513794600702 
0.5724251181285266 
-1.431579808270653 
-2.202339910193563 
0.5070703975087342 
1.334137037276258 
3.300754717462135 
1.715924027559197 
-2.072071435150695 
1.79122523224883 
0.3467586352495774 
0.7492630202936427 
2.132995430880193 
-4.583974996925818 
-1.078475050138566 
2.433673408429792 
-0.18313280127495 
0.6519117760838798 
0.8012252901074897 
0.0266668086733917 
1.406882171479984 
0.3468635935955823 
-0.6612701258549873 
1.542988589997233 
0.8211553491904628 
1.783105541709476 
-0.08262495867896556 
0.6097950245875219 
0.1011737994042349 
1.349339780899865 
1.932076811566365 
-0.8842069324424134 
2.914163319382005 
0.7047693793635734 
1.316238598793667 
0.3642025282495345 
-3.472828692064315 
0.3525294503912271 
0.6353172504667444 
1.8170279717022 
-2.622519272652008 
2.401090671317391 
1.52852210924205 
0.1132337703579102 
0.09499799327316667 
2.081785602529871 
1.372558270822338 
1.784082429359624 
-4.515990992931448 
2.45935541987012 
0.823148400821594 
1.605278352000016 
-1.762299391310912 
1.009941375481856 
1.251538352675089 
-0.3497337439574299 
-0.5786658497136787 
-0.5439766306264607 
2.147320006680042 
0.896819167359314 
-0.3789803546437686 
1.953134918596944 
1.029877021137037 
0.421542871179484 
1.21348909308144 
0.3079111601757694 
0.5172903595363838 
-1.666883425510116 
1.662064921435534 
1.066881818389986 
0.3835512077369975 
0.4931278860909409 
-0.9387524475258737 
1.652252123358037 
2.620218488613782 
0.7415119388070944 
1.032515322226661 
-1.879989139850741 
-0.8654964888067457 
1.701979254389337 
0.9576989646643367 
-0.5109678297453361 
-1.460393241120475 
2.833915399849037 
1.588814730548506 
2.524226137534603 
0.6060981259966783 
-0.6578212010115908 
2.483282609159584 
0.6733299157818377 
0.4986077011131336 
0.3373313850792372 
0.1947598305533836 
1.625952027437281 
1.020094770320708 
-0.4731883212104387 
1.713064489362889 
2.098636590144772 
2.232425650048596 
-1.357903011764383 
-2.721498780730377 
-0.5406044170945116 
1.108709339795507 
0.5103164239789446 
-3.408606946609485 
-0.6851406059119011 
0.5403724928622303 
-0.3967163036395706 
0.844562524043272 
1.98020355157618 
2.816213495495532 
2.957866457014493 
2.066265300927149 
0.4740356544203392 
-1.02965411145361 
0.441783252313293 
1.321884799191754 
9.392177665798711 
-1.830472147926182 
-8.130668377625835 
-1.630014372935598 
1.021715628625221 
2.940720426086726 
-1.244690208310424 
-2.573721646070419 
1.145918613454813 
1.076900097996942 
1.447166673145703 
2.22254551766106 
1.046083634516885 
1.314441021215704 
0.6610810569844953 
0.7334025775500069 
-1.591516284792517 
2.13486903503187 
0.4565004353272876 
2.518852742102599 
0.4385205959866305 
-1.480446102755768 
0.07252029837124049 
1.052961595542554 
4.59784367183803 
0.2245626341896708 
0.9171622636911437 
0.8394530307561224 
1.56619510309585 
0.7738844878034969 
0.9298766429594939 
-3.745975872231508 
-0.2469660570369873 
-0.5118110532297737 
1.995717764265315 
1.702497510828235 
-0.8158516931710296 
0.02986888334973505 
0.8881411286976169 
-1.394245595819569 
-2.018769360850611 
0.6605641837906308 
1.735094775407788 
2.988278989952422 
2.39555149441447 
1.922304292653433 
0.5879471137646436 
0.9333226593564083 
-1.281762298889697 
-1.840953736009268 
0.6285452596603386 
0.6893854542351953 
2.578362487514057 
1.139976884875382 
0.9850811362065625 
-1.818669937911418 
0.9359647923419331 
4.55615271330178 
-0.9759476648475306 
2.191199549448635 
-1.673310519587533 
0.3832060830247642 
-2.137625904392523 
0.6359499696922405 
-0.2882738101007729 
0.2983012826459843 
0.58141969081484 
0.5911663641118468 
-3.292133709755807 
-0.9181516979381578 
1.407910958626872 
1.428960472927868 
0.425770325894399 
1.876984534624919 
-0.957393646580709 
1.0435366316001 
1.272381347036268 
0.5906446089302478 
2.208991111512333 
-2.111034070414797 
-2.802260787543009 
1.278367412435479 
0.2323244756558755 
0.9648313997514831 
1.528576287378348 
3.294107676114763 
0.478791560769094 
1.252222800289369 
0.6217194588506426 
1.421710969371494 
0.294795404492836 
1.848332428276657 
1.879473475675027 
1.236180166832236 
-0.5725879959572203 
1.175501766982449 
2.130129683865826 
-1.535930770363511 
-0.222299148164471 
2.947435170746859 
0.8673263987920313 
3.846848260692093 
1.374468080187858 
1.254460453558388 
2.836782113815182 
0.6812425644849555 
0.7001756226095691 
1.27928098465859 
0.2490068118867197 
0.5077989594994665 
0.6808647367985347 
3.096304967818884 
0.3458216137150619 
0.6800172521884235 
0.3629822274958316 
0.9008860486203605 
2.62976478382421 
2.061637279634425 
1.515911037069444 
-0.6798984515944486 
1.086132112711071 
-0.7267375251075036 
1.407442061363949 
-0.9148755897412159 
1.188002003318332 
1.322238259550453 
-1.841880482228936 
-1.928874545380365 
-8.923600279112156 
-1.122424263287519 
2.780155514563396 
0.04942258421056386 
0.6670097142699594 
0.7415671058513802 
3.276381117491582 
0.5325150783226605 
1.623035073585181 
1.090052890422629 
1.461323168158562 
0.446076306657077 
0.7805105066224272 
1.118379668747221 
2.090215659849838 
0.7080408014673751 
0.1014218414831996 
0.6411953162981943 
0.5680754352218417 
1.985888726585162 
0.725988072625274 
0.2702240982031521 
1.670186039941891 
-1.035490597004075 
1.143487089763787 
-1.200808167152374 
2.246152160842962 
1.472202244039301 
2.154118803202106 
-1.048928605125392 
-0.8751468418336829 
-1.544122947567807 
1.225046950351182 
-1.092479273302796 
0.998011004653268 
-4.613328755718159 
3.37980656541375 
0.7739161916944443 
3.257613455673922 
3.085292016293313 
0.2375618569775272 
1.429358866658946 
-1.585517649809935 
1.646280004825794 
2.472435802770785 
0.9867021549197725 
-1.307913405553045 
-1.225770704194102 
0.9857503563423766 
-3.01149810567091 
-1.363812970605179 
0.5956216453427289 
-1.016264517875625 
-3.946910339884602 
-0.5200488125546541 
1.346430293901489 
0.9928342646243178 
2.134345390268373 
-6.055517764675474 
0.9765305792368714 
1.205736960669413 
3.275608938362404 
-0.7268327374450134 
0.3737711843335514 
-0.4270123375502594 
1.88926315797151 
0.2638402215851199 
1.356095621344461 
2.696159069355673 
0.7249074602967176 
0.6224213722157128 
0.6914326064891438 
0.8499614910983111 
0.3457552213250006 
1.779356206696749 
1.128412277753984 
0.2303269921822487 
0.4091525189977859 
1.611180354983324 
0.3255359801618437 
2.615590850092176 
0.8695877140485213 
-0.09321929754697483 
0.7694048790003607 
-1.934542640250573 
2.178218587794973 
0.9446543822677881 
0.8549773832122559 
0.7749380970751456 
1.471903239708571 
1.370388064820807 
0.326535888982144 
-1.275668358336518 
2.820959177771907 
2.385609360568956 
2.282752730507121 
0.5602983131899808 
0.2561416840934513 
1.212758043613299 
-3.322566690943393 
1.234375769667162 
2.272788181794115 
0.2681133241891389 
1.537099634128801 
2.147763144801538 
1.631020963215542 
-1.03375978723823 
0.3847773873135838 
-1.703124097857598 
1.938618891395717 
-1.545788042700498 
-0.2567653371817757 
0.92625977274309 
2.718233906469323 
-3.815819433720776 
-2.185171396354636 
1.223111945367824 
0.7002351223029087 
0.7789039818461346 
-1.606602096888322 
2.182282679993889 
1.858826941858537 
-1.496154765437689 
0.7157929470663833 
-0.1686002991650981 
-0.5976148481147386 
1.2319990934531 
1.527989667253138 
1.03470053981233 
1.031465604162288 
0.3441478770350053 
-1.618042237134701 
-0.978498427637066 
-0.9883602204475573 
2.230256601515744 
-0.621908178675139 
0.8703778364588868 
1.020199146050156 
-3.444020433643774 
2.333952873265992 
1.408270005315188 
1.500211078963432 
-1.613921623244443 
-0.9019876455725067 
0.7703852535370649 
2.069228227722796 
-2.686066127561487 
2.257542061686163 
-0.816008569658616 
3.723258940431156 
-1.051557884692465 
-1.114331575453999 
-0.8431600974843854 
1.783723228940889 
-1.043428087854892 
1.079695230777553 
0.3608995167278268 
-0.1290473979772964 
1.782502752105896 
0.1273536679605093 
-2.141866185701595 
-1.119482330958135 
-1.082498312599296 
0.6351454790858624 
-1.076428902373469 
0.3357494696688653 
4.386186825356626 
3.879481483319264 
-0.02387059895786512 
0.7925934904633491 
1.110493114149699 
0.4762422577104088 
1.69123951992684 
1.81923202726319 
-0.2621760912835764 
1.464826207883507 
1.760662409953072 
1.544002317217831 
3.647798857757429 
-0.2797560896304241 
0.259352356931675 
1.43464131620618 
0.911012047169653 
-5.943739134632716 
1.722986959256412 
0.6261860368593921 
1.335849114177862 
-1.132849026202962 
-3.811347219226217 
-0.8546103092751992 
0.7033069608424414 
0.2647890978790526 
1.531993052956272 
0.4583384413366015 
1.001740469633494 
4.363529266233014 
2.553758140823034 
1.978338636166943 
-0.007474207635511057 
1.63602838866142 
6.395795469054335 
1.030908250687944 
-1.445541141971073 
1.313750232419265 
1.320310422569348 
2.956504238773195 
-0.6779237864100127 
1.435859781927842 
0.9464138949812425 
1.346557311111117 
1.3510440798717 
1.097995722254139 
-0.9794835963836257 
3.874294739441887 
2.252687264634331 
1.798538596985664 
0.5365004388435212 
0.8549877664325155 
1.11703554160476 
1.46615836558563 
1.972762165874047 
-2.805441223249586 
-0.3184009530431031 
1.571081048873891 
1.534565066659812 
1.357237242319969 
3.940078619694062 
1.953424426295405 
0.0213948567111657 
1.122145118187141 
1.639188718827734 
0.553253883444318 
-1.884453233536931 
-0.2478708125325863 
-0.4044010618823964 
1.408493724899149 
0.435509245684414 
0.137734135027291 
2.596148948968326 
0.4904696712456428 
6.460621617917198 
-1.329906564161063 
2.289201677225999 
-3.33523423904674 
-6.44911682743238 
2.049420535627304 
0.1081025615276479 
-1.391930972088489 
0.4194985530078487 
0.6814451078145309 
0.7290027076794217 
0.8374233454983091 
0.150485422690708 
0.380839306414881 
1.098391599968734 
1.674221275502386 
0.7154115273747118 
-0.4548553453692123 
1.941659614652682 
-2.327757617606107 
0.516262015706253 
0.8084724179534803 
0.1396276814150229 
-0.4509535625332595 
-0.02340940928385669 
-1.154239807040027 
-3.287576172202669 
-2.229379619526717 
-1.052499944117664 
0.3607298653773065 
-0.7134413600841869 
0.2837558677753431 
-1.089501231057275 
-1.799780428282042 
0.9461379427227222 
0.9316760523180578 
0.1449754999710911 
1.566221768139949 
1.181597848139598 
-1.916713229533414 
0.8325200949470044 
1.203448458895907 
-2.57826582272478 
0.3354754627877961 
-5.90512297212555 
1.116214243227261 
-1.614225907254382 
-1.121851081250065 
0.369675222572692 
0.5153633397753501 
1.726804026440089 
-1.98469629480997 
0.9508931272260611 
2.624708025346572 
-2.03586514616191 
0.8875448654446997 
0.5905371885687131 
1.18855742211524 
0.01652632443588236 
0.8758412623558124 
2.359867381626576 
2.006666312663547 
1.855424618975102 
1.288417615700571 
0.3460163164556088 
2.049040676457122 
-0.9033880027756894 
-0.590019520278614 
-0.4484067056599678 
0.8516368404007416 
-0.4612469924768492 
1.273548653498649 
2.956516688121393 
3.570757188234078 
2.065444535067037 
0.7177288425784653 
1.068361449505541 
1.686683941279139 
2.391776413650562 
0.517433730323009 
-0.2662169546289596 
1.317230793577487 
0.4227259324010442 
1.13278202773467 
3.35881310494942 
0.4293687674097309 
0.5300524154364197 
1.075479248936375 
0.3661849222246004 
-0.9326059281367102 
-1.582158370228218 
-4.938508707948557 
1.523587915914611 
2.122558472690661 
0.7085620305978368 
-0.3114303757843344 
0.8509802098113585 
2.191372754180942 
1.278882078002663 
-1.40306414402441 
1.035823209021604 
1.146515724979075 
0.9632949359296044 
0.8038289737213198 
3.238010134872767 
0.228948841646323 
0.01467404616919961 
0.704827182288329 
1.719204869135367 
0.8159178687247766 
2.658812114759035 
3.440866261511932 
0.5750566266393254 
0.8512202190649392 
-1.452931883197175 
0.2437633302529531 
1.220257832472307 
0.5037547746351372 
-2.623702128701022 
1.625127130335272 
1.07706565364117 
-4.257260167722117 
1.025559743379168 
0.3850624869860705 
1.059608009516434 
1.540193336644442 
0.9474486998794395 
2.656234228704839 
1.904805661807326 
-1.532532446446093 
0.7089651773161471 
0.7973318253174467 
0.06619589859188703 
2.968842787195412 
1.844663978972068 
-1.434005531659181 
0.02768813651253565 
0.8224556993424429 
2.987424728397825 
-2.041663524304684 
0.8386957615805254 
-1.6812336621535 
0.5623724163905643 
-4.796271412118483 
2.828327026162063 
-2.406795497859259 
-0.9805489250528715 
0.829177271692834 
-1.832841233179534 
0.5588218851116271 
3.067822978037912 
0.4550527427023046 
5.607964542339534 
-0.9854263297787158 
1.579538105279189 
2.521339271076319 
1.807735093230603 
-5.24712633580458 
1.016227464457385 
-0.1405056422300907 
2.461578193842969 
2.134326319923055 
5.326250061007192 
-0.1778341100745898 
2.055923149102679 
-1.730569793121052 
-2.460305749865288 
1.152409720233477 
1.059308503754717 
0.7090633703170833 
-0.636886967048355 
1.435894817142106 
0.6892550504150542 
-1.84754423589305 
-0.3381078092890289 
-1.010885164192622 
-0.3295059581970529 
2.360408738497813 
2.419870309569557 
-0.5142724419170974 
2.935508076208359 
1.293250521759687 
-3.177870727277653 
1.956597617373316 
1.015968098082012 
0.9056467375392327 
-3.213681061043396 
-1.413753853164185 
-0.7586783538439664 
0.9558835771360383 
4.713458400876631 
3.33863903172337 
0.8979110953541365 
-0.347145002444573 
1.264477663735184 
-0.5002875055008253 
0.5134680243635901 
1.159024261757643 
0.5866818013087117 
-3.192842419457217 
1.734003821015805 
0.6948090711220782 
-0.6528925033055659 
0.89406490169366 
1.412035965594636 
0.8388316094098356 
-0.4591763179451035 
1.697961620629727 
1.037097193747419 
-1.336444921152353 
-1.595542254180164 
1.541410501538655 
1.230464995696774 
-0.4390625204384495 
-1.664444210314544 
-2.193995417001206 
3.226374670701412 
1.290858459672719 
-2.242315200788984 
0.7018798774850846 
0.7183800282304029 
1.068925942659571 
1.540189566681969 
3.553272784453791 
-1.01208188397959 
-2.076398883113419 
0.6110580933280781 
-0.7314474707245061 
0.4342592833577927 
0.8835158459482558 
1.404965144187137 
0.03267126711221004 
0.4330140395739583 
0.2109685116047368 
-3.880111747957452 
-0.2152086353744921 
0.7041205355785642 
-3.488186959884708 
-0.4849643241547904 
1.214974564756156 
-0.5023448031533293 
-1.351127747452523 
1.819467474603784 
1.31645214741687 
1.305833889656586 
0.862615285378583 
1.505110518763487 
3.353477708068983 
-0.6847451928469127 
0.5367606244072771 
-2.536714699808494 
0.03174945994237391 
0.5523468283786512 
1.26994893338395 
2.026553496927372 
0.2599047173338293 
-0.6201630233407212 
2.918421849780221 
-5.609454392273198 
1.402299556392967 
0.00137345810126005 
0.5375644313044119 
-0.9366759292342426 
-0.8823381949119042 
-0.6892373559811582 
1.893040168997886 
1.303994336803427 
-0.7540242327034068 
0.520404643781362 
-1.115994566883306 
3.074535342269239 
-1.738897359511098 
-2.350121455702807 
1.230925027936286 
0.5658769179831483 
0.9774756615796655 
1.055469240387972 
3.065612542503716 
-2.581197458094862 
-2.023891629617271 
4.164577708709054 
-2.489305231511437 
1.622904521383459 
0.7840052511602439 
-1.39238611028542 
-1.524067940864234 
-1.255506004484626 
1.045611029031764 
1.992983636244873 
0.6518117060173977 
0.3331719094942509 
0.6805981762797028 
0.9323233410760884 
0.171501985710184 
-2.297514353717244 
1.246852077797125 
1.281460128259576 
1.215295925232075 
3.8216221452117 
-5.304348677862134 
0.8319836473403869 
1.041428221633104 
1.929535463443548 
2.154494121613876 
4.914535221693676 
-0.1338527422698074 
1.059734961308582 
-0.8879275189598745 
0.5796105425765837 
2.544586025028532 
2.691031236916251 
2.186413462135137 
0.9699706596125528 
0.3077036706731187 
1.636253207856238 
0.4698494177262973 
0.3491143897635683 
0.6217380411195256 
0.2120917221329451 
-2.997901122026637 
-0.2585238837640092 
1.022677931688945 
1.536756740940232 
-1.746573339871362 
-3.193413907470179 
1.772398380084558 
-2.406803187630665 
1.967556612692493 
-1.138509023461709 
-1.522332956901261 
0.8948094990538596 
0.9305526894071386 
1.616219435979523 
-2.296482662795025 
-1.174365568993668 
1.231307689242733 
1.48994358393602 
-0.07199293868849568 
0.6871139672064944 
-1.454273455503719 
1.078667483577655 
-0.9350153638981744 
1.805691465502755 
-2.452590644837459 
0.8090587738015258 
0.8601319705335024 
-2.233885792113949 
0.9135833727950908 
1.717776181390953 
2.573260091618991 
1.541730376668991 
-0.6814250821740341 
2.586880647306992 
-0.6942278681847217 
0.587338710309444 
0.7825770756582754 
-2.403004246654107 
0.3239579772847587 
1.614323957225337 
0.5706932993325202 
-1.743212997636125 
-1.415299270718772 
0.9637276733840117 
0.5167700035574605 
-0.6563897106498958 
-0.8076793731345131 
-1.948265366312939 
-2.472520727518714 
1.127604079953119 
1.349373022794438 
1.969236712762991 
2.005940822470162 
-1.987268975461156 
-2.590196537264584 
1.358763554101228 
1.839109180127735 
2.571458385960802 
1.279555920451848 
-1.687746395633198 
1.188129933353025 
1.310209427581476 
-2.811663026597704 
0.7819757105249795 
-1.133384091324061 
-1.036202922438286 
0.5134210301593765 
-3.324322433919525 
-2.847033043258251 
-0.5802664286027989 
0.7295428092622324 
1.133899409059817 
-1.946539359424231 
0.480069848353904 
1.291774795878813 
0.9285142176797809 
-1.169933427857315 
1.379821629638073 
2.181383075671327 
0.5263042592327589 
1.584961192416294 
3.169556314825921 
-4.163904141989139 
3.237770430065559 
-3.869969758539832 
0.5525732591784399 
-0.564830199445972 
0.6521016964384034 
-2.414241838344573 
0.5412128555486223 
-0.9166908401370415 
1.554103877510794 
2.857098782299616 
1.93700595422187 
3.477888424859609 
1.345035642569478 
-0.9475239957565139 
0.8802314982978118 
-1.52606646232172 
-2.524640479981912 
0.6297878572416158 
-0.8591422203435245 
-0.3812227751314755 
-1.572441328752416 
0.5644191385743116 
1.817274024088168 
1.975343607230776 
1.990289593976323 
-1.96998599831405 
-2.088794148165237 
-1.209646806921206 
0.469792019018854 
-3.060582921200558 
0.8976953494725867 
1.387658076021968 
1.390135675648451 
-0.8425498353437209 
0.6239981644455612 
0.6022645395494108 
-2.054678747783991 
-1.1230170092098 
-1.460903194602909 
-0.1496936555862275 
3.104134740948465 
-2.215865327076815 
-1.035122579946705 
1.432272452000606 
0.959028514208112 
-2.231425995320072 
1.197468423886484 
1.803469481473954 
0.3381597572410173 
0.5688479744082596 
-2.06799121629204 
1.506145694122497 
0.7841804231921261 
0.6651815314165054 
1.057751156687913 
0.8658831783111732 
3.056948058325957 
-0.8740359536491519 
1.776343623249945 
-1.719614449970877 
1.526000214645007 
-1.77398942391283 
0.6352521317526547 
0.9451300591946957 
0.517036053439458 
0.8138235267703282 
-0.8315627998173637 
2.861950024357112 
2.084801193358234 
4.186631884222586 
0.4165868330025414 
0.1323892219356869 
2.110143368946622 
1.852205156079258 
-1.297762913087634 
-2.832480685643207 
-4.084682907924948 
2.47371717127072 
0.3872850520246413 
-1.485621558469787 
-0.4289359655880982 
1.019247519487253 
0.4771840372011815 
0.2746376477634976 
-2.472817337497973 
0.8932334651745477 
-0.02032812326180585 
1.318829821455194 
1.636170460244886 
-0.7548703921995408 
-1.833622856945513 
-1.914417555825972 
1.279117183952824 
2.476470732810458 
-1.13946811252681 
1.305856361676039 
0.6482055011359238 
-1.214813586926033 
-2.602077384287569 
0.6504707507858809 
4.275900370537383 
0.7107429530565024 
2.923350583532249 
4.819250127127285 
1.301756921760607 
2.519837573886158 
-2.004302334809184 
0.4752446122930968 
3.775028868870564 
0.7906341762766301 
1.1187519717618 
-2.936607544885153 
0.2542611058142855 
2.485726827064517 
-4.693962796648566 
0.7381237243111104 
1.339874044349934 
0.6539452196228691 
1.440342842860911 
0.7055892381189122 
-2.251704694138248 
1.864668757986878 
0.8122086442528833 
-1.598681300867284 
3.285540990937597 
0.1507507746911244 
0.2342118236935436 
1.286892240886348 
0.6546779714628913 
1.725302828252008 
1.240784693665865 
2.960819096449658 
-1.742054971137649 
-4.31006429893786 
2.533798871520087 
-0.07899206953379215 
0.9607468331465231 
-2.444404555358454 
1.09856683519556 
-6.351469431158646 
1.310187704242704 
1.781391759927002 
1.919961193928763 
1.6656666028508 
1.944626492559595 
1.848365979451118 
1.152821817575965 
-1.263274041042269 
-0.9900766609025384 
1.651980066047159 
3.775493188443504 
-0.30078748788865 
0.9000345335461564 
-0.09701863740562143 
1.206148291348536 
-1.620832152800724 
0.5781716016535947 
-1.148356662407144 
-1.141126187736676 
-0.09886615284349567 
0.4693490415611831 
2.283599656541657 
1.125845148052123 
-1.474151414877649 
1.045212482360067 
0.8405559264954648 
1.035433147673568 
-1.964512966261269 
0.7083800647719657 
-2.900749750693166 
0.7085888339226559 
1.195594266232915 
-3.165963613537335 
-0.5100581466444477 
1.128436616348869 
-1.835450559705321 
-0.5172388355006935 
-2.155045703729446 
-2.888785722094223 
0.6605049080151136 
0.7458917986502046 
1.734406896079416 
-1.198747925248675 
1.639301852057571 
-2.166156871960212 
1.605739770927779 
0.8408724445854645 
1.796792657885333 
-0.3791406142056412 
0.2843824084697062 
-1.883295846962693 
-0.797195256056922 
0.6761649139052072 
1.533029114608866 
1.755922006447936 
0.7900623579928522 
-1.288334150228518 
0.293854585318692 
1.348981034855166 
2.168623490684908 
0.5989046536688835 
1.227827555028058 
0.8257416053892687 
-3.032165006275842 
1.242592719566232 
1.689677452518604 
-2.374188170101951 
-1.85827498737999 
1.49218870952326 
-2.716113614229081 
0.9584462530887641 
-2.349625810377688 
2.819019229510278 
-0.5184946818218259 
2.286136800792792 
0.3180855908687906 
-2.416290268597559 
0.6367182686040619 
-2.393447228377029 
1.613202147517604 
0.9747197876312464 
-0.8264654783571388 
-1.091899624839717 
-2.044931753297087 
1.786912342014952 
1.241343002559672 
-1.658634135313778 
1.363378575643198 
1.35579312254128 
0.1938877332095843 
1.653782938706912 
0.6900742850439282 
-2.125827002648808 
1.989450573605375 
-0.4206351177421762 
1.500790125609817 
-0.5040211260054133 
-0.4178971292013312 
-0.06747482887791625 
3.296465948355304 
2.813349532520991 
4.679003213362981 
-1.045699375639674 
-0.7799406168970234 
-0.624852228571894 
1.61682521150412 
0.7690936688200797 
-0.5406656843050826 
2.636925865920978 
2.62894624438619 
0.8961103915059387 
0.8619393523710464 
-1.543837299058141 
-2.123652575827875 
-0.8667494702303515 
1.936387231486534 
0.9697828264945152 
2.503834564435766 
0.4323408541350141 
1.043667558971792 
0.9090427055390377 
-0.9975661083786672 
1.213147900883433 
1.289718134591555 
0.4246806848641019 
0.2308122980798215 
-1.201406730595978 
-3.406977310907887 
1.483609933874685 
2.569354049541406 
1.381320766385796 
3.270273283214067 
-2.248425725510053 
0.898966717904468 
0.182720210875513 
0.2957807006943749 
1.508765032647286 
0.08817128837779933 
0.03621102939959359 
0.6209561569962931 
0.981324207952989 
1.109472799972004 
1.12222998530961 
-5.059672362513088 
1.124256226496999 
-3.538661170105585 
-2.469914484111408 
-1.062878757045197 
-0.4468798585152108 
0.5532062395103832 
1.860503579845684 
-3.788064359591037 
2.23403674329115 
4.419667026418542 
0.4806952021882981 
-0.07092056483933185 
-0.04573424918511243 
-1.039007200407295 
0.5828960175599336 
2.111639963128135 
2.264241774562351 
-1.773125366894177 
0.9394009201651901 
1.002231702713469 
-1.512641457206196 
-0.8047294095571417 
-1.217185806146668 
-3.014134683401228 
1.839227043257076 
-1.198735466749223 
1.425914885829354 
-0.7521139152718419 
1.07879952889995 
-0.5675689544039728 
2.197185040203783 
-0.6489900740065436 
0.6561417210685832 
-1.761214153274396 
1.623453192332061 
-2.142145496433019 
6.035761426527768 
1.103377508422832 
0.594491424592385 
-0.8977966893609363 
1.7923036531581 
1.505333753134775 
0.8699874760615594 
0.452194615258192 
-1.394045506745126 
2.144225914449346 
1.540184518843096 
-0.5014112817649288 
1.489396354846692 
2.73387756516571 
-0.2923759281666891 
-1.43596921522787 
0.7686317237662896 
-0.2280247026293818 
2.191022793117627 
1.940735873422574 
1.220033918043605 
0.8123181779624407 
1.228106797059708 
-1.497454021699407 
2.30839003740367 
1.549442671821563 
0.5458466779469119 
1.155647148128711 
0.620228182136471 
-1.784542086957832 
2.282952419314253 
-4.834942546100037 
-2.702399080428246 
0.758971020489316 
-0.2399532041438287 
-2.153313668552314 
1.304777333446586 
0.3742296361562245 
1.237129975465465 
0.709901610365787 
1.11655706321295 
0.5775175726774761 
1.853229636009193 
0.7147246987081968 
-1.025393043215584 
-0.2275804014695652 
0.5882815391150213 
-3.322268954151008 
-0.9127879284988818 
-0.830927007456874 
1.076807284012606 
-0.3909301241759906 
0.3989681095673944 
1.224707910469179 
3.770337481878039 
-2.275634453534128 
-2.062585578526975 
2.681348632352613 
2.451134442244693 
0.4817380334151186 
-1.228689028893763 
1.686414929368161 
0.6697818036136178 
0.9313862484170499 
-2.997576636470559 
-3.427917371011855 
-1.409178072096015 
2.528062699563866 
0.819635120688322 
2.024199038785006 
0.3516062097372002 
0.2998055857188025 
-1.473609521596999 
0.6254262370342909 
0.6684934211276642 
0.6982615888669932 
-2.529608016417036 
1.149279757521095 
-0.8101181686601358 
0.4890399374189607 
-1.279564326550836 
3.12922518159655 
1.596841534693372 
-1.397268233869801 
0.9841018005457043 
2.979532821880768 
2.153481506432239 
3.517653419285845 
0.6082697337740822 
-2.871880600486612 
1.553649422291989 
0.6018266385580189 
1.588403603855299 
2.757235072746184 
-1.503871959019737 
0.5636778001322463 
-0.352500285814582 
2.343157997800354 
-2.472704554592421 
3.537692132182795 
-1.668927313113509 
0.752551583057846 
0.04337702195529365 
0.4382758978271907 
0.5205449221735233 
-1.075666706076415 
1.019230118799649 
1.124207372816519 
5.044015851348312 
-1.472761904178001 
-1.180471176486084 
5.814590737995131 
0.5598536395454413 
1.267157687373573 
-0.650865936349096 
0.4298168007728295 
-2.550942007356348 
1.128547506063876 
-0.5343654195165066 
-1.372184881928412 
0.03808064080838969 
1.292526700252031 
1.229425301551149 
-0.9226620630566126 
2.574370022701723 
-0.7032222902462908 
0.5740780930110143 
0.4724069951017714 
1.944817973073453 
1.977454336207753 
1.77155808410213 
-1.075313565656136 
0.5558947518430626 
-2.851544951465358 
-3.43517848306332 
-0.445918983930005 
1.418817617256724 
-4.296529872445411 
1.724059876429527 
1.067884619974698 
-1.00195858083986 
-0.02799982669697212 
-2.481569507579611 
-1.079522052227696 
0.07843561639412994 
2.32916488937735 
0.5554170601346162 
-1.341535137230454 
3.998848714599016 
0.5825604444892299 
1.406891085923421 
1.850482000549899 
0.6891292551145697 
0.1122737226763763 
-1.748297955573928 
1.485152294896414 
1.756890567006312 
-1.696971750248779 
1.191692206289972 
0.4744416365317746 
1.269775946615042 
0.7904046072049281 
-0.6051429545893009 
-1.301763878917987 
1.021884639929927 
0.8580788550000215 
0.7162152854989781 
0.6380233179718635 
1.136417475239343 
0.508480999167164 
-0.764744163023115 
-4.749439527640821 
1.103275238340353 
1.589801492147843 
0.3017936009389625 
2.278257660216814 
-2.756174133734898 
-1.037839086119448 
2.476736213124779 
2.238396970492236 
0.9351016382701212 
0.5644694720558755 
-0.5052975541534911 
1.331962935108399 
0.3268707757786398 
-1.383743888780108 
1.158499630624098 
3.152756541925957 
1.709011985054193 
0.4296649248130871 
-0.4228501735985717 
-1.76625897416518 
-1.213521475204592 
2.577819323484688 
1.097793192482296 
0.7807200646815776 
2.408327479400572 
0.9694345444837994 
0.6039848558511169 
1.346712790368632 
-0.4612805570215856 
0.8672212481841104 
-1.773125109107593 
1.693623554306714 
2.22863082892241 
1.473489768287347 
0.9902847768892233 
0.3521362443785674 
0.5619378354755836 
4.413279605477383 
1.143799346893402 
1.810640594293271 
0.2618257140678874 
0.7911430622258296 
-0.7360780079372936 
0.4256138123236846 
0.6194979636221121 
1.824834291607965 
2.418986139102998 
0.5772193772844794 
-1.649342660221548 
-3.205285688154079 
0.5410314671308549 
-0.8493116088615235 
0.7278472550988868 
1.126340377132061 
-0.9382172863828253 
1.088138310880561 
3.852850953237966 
0.6015510103551615 
1.491313016976373 
2.215566904024244 
0.05290865079964643 
0.69938549317067 
0.7564468539474354 
0.3806604999393809 
-4.475979459542133 
0.3724484304560946 
-3.943125655080074 
-1.441498546764984 
0.2636752991515871 
-0.7528510084996761 
-1.648545173838403 
1.185182222498293 
1.370890899674951 
0.9507349897320088 
2.012442796193556 
-0.2758142793046779 
-1.330563829859191 
2.172766552074692 
-0.004984172906836698 
0.4802700198455598 
0.7325019385545443 
1.754613552917999 
-1.769251288696803 
1.454738578721533 
1.259227457148514 
3.544766852357001 
0.5170851204957592 
-2.187593011083361 
1.387588756774275 
0.9889824747205872 
0.3576559509291354 
1.827744724959274 
-1.947824403125301 
0.9504735122537474 
1.632830119353611 
0.7092478837287113 
-1.662786171420333 
0.9187157186115262 
-0.8033342726905758 
0.6377425413743584 
0.09573733424869074 
1.713029776933835 
-1.078040606922273 
-1.534085620725087 
0.5606729936763458 
1.985385135031773 
1.150642540944603 
2.933220965411073 
1.092560465174558 
1.439197019615174 
-2.291235893097007 
1.060744138754215 
0.9372180952405313 
0.9594812615205623 
-1.555905703682247 
0.246575139019617 
1.022793495938634 
2.443098938506911 
2.048023959662601 
0.5431328381227107 
2.437292975057332 
1.394055466587681 
1.238738388582857 
-1.217460633103668 
-3.609652423779633 
1.750666541505736 
1.750380188708106 
-0.7083520079484958 
0.8309630661039653 
-2.287023764744829 
1.766274309795944 
-2.213869844638751 
1.948432987934067 
2.634709454627278 
0.814443356835997 
1.726761771905718 
1.400406642372687 
-2.853251781123391 
-1.176001256112562 
1.003692494858162 
-0.5390175995968187 
1.483914516106799 
-0.101883183426308 
1.945447623393131 
1.492484037214551 
1.54920800732511 
0.2447112539742514 
0.7080690914211254 
1.659817203676467 
1.471852516848403 
1.04243117650988 
-0.2038037100563494 
1.69729181533698 
-1.547710574967636 
0.3516609706917428 
-1.214370102912876 
1.004511512823607 
3.114208592323944 
0.617716777124352 
0.7704655708111885 
-0.02029940479479521 
0.6277778760858844 
1.611304469938039 
1.211048122483331 
0.3771787754369051 
1.715231279015143 
-6.013531422558425 
1.7595635766201 
1.216174821402428 
1.265724657480208 
0.6372556352622213 
0.8879990509928564 
0.7494840507046291 
0.2986115975331579 
1.187928785321759 
-2.058936255695123 
-1.822452944760782 
1.738988137593136 
0.5947117823191067 
-1.106223622039419 
-1.188372873574206 
-0.8241332302236029 
1.011350010157203 
0.6167245155682625 
-1.938633199525512 
0.640906892823929 
-1.372055576602614 
2.946065662087948 
2.416837132349767 
-6.369889813715007 
2.008660536751101 
1.564056566336669 
0.8250053164545993 
2.04634812897723 
0.9044455291166313 
1.075414658364716 
-2.195725291612187 
-1.627157457984397 
2.975976505346535 
0.2805463158177769 
0.9299646895988254 
0.2273715698608223 
0.9428980875680869 
1.913766558610349 
-0.8101841544766519 
3.534761357926977 
1.087840833401852 
1.276053856068184 
1.313796851244568 
-1.471246004720836 
1.126098416569584 
1.14679755653 
0.4709038646564426 
0.7683587767501339 
-0.18061395986436 
0.2312719617465549 
-3.006666507441845 
1.030027846947144 
-0.9547390882416776 
-1.103130556984961 
-1.603526772825278 
-1.693704703699814 
0.5379152821310406 
0.9200220599147575 
1.510921856661086 
0.3159417820819588 
1.779056769398205 
0.3234860093725602 
-1.751761034144893 
0.9052678861980502 
0.2444231201241698 
-0.8946113840206401 
3.536266879525324 
1.049842419144102 
0.5823231179251253 
1.545814238192347 
0.3424166228349044 
1.735984345160936 
-2.952759796100109 
1.850599942299842 
0.1896528796061693 
-1.605975356658822 
0.5153402703484641 
1.957278526803995 
-0.1693663661888687 
0.8506420671990538 
1.046606245318275 
0.3644548360814724 
-0.7978734212269317 
1.067072839237295 
1.048717572469523 
-1.911820414305554 
0.7003097285752158 
1.20606765285203 
1.750254348833698 
1.291087798256132 
2.795610493886672 
-0.909510871568415 
0.3371704015524717 
-1.252650521372358 
-1.679461794506122 
2.123639014769993 
-0.4515713623431846 
-1.062204044463753 
-0.6901392044826495 
0.6944542745545358 
-1.566882492239279 
-1.061013334554543 
0.8251166206443058 
-2.165935901021149 
-0.5702624604159002 
-1.514205281013905 
1.805467711816151 
1.171331049696101 
0.6946331314375472 
0.4959576637597874 
-1.051953900846826 
0.6026467648511667 
2.00607251753943 
-1.013275606616389 
-2.039716927762787 
-0.5534524972537413 
1.303335072538794 
1.263748627647366 
3.270134719440622 
-2.33373451011886 
-3.317044259802623 
-2.842657973688889 
0.7632229856132562 
-0.8069454945250247 
1.954424070240531 
1.222268604560242 
3.893273125058965 
2.788821576246303 
4.516904286072025 
-1.257494297065216 
1.778435793654018 
1.645498508233139 
0.4654110541952899 
-2.295366325901574 
0.5412272870030358 
-2.122909616054677 
-1.570930881792513 
-2.002302168275086 
0.9376571297349225 
1.068403430876829 
-2.26097662131802 
-0.1239842687181836 
2.658774388204901 
0.1969642535676624 
0.9185550994714654 
1.427371065772109 
0.3480266911269366 
-2.574867408995062 
-1.631457774508723 
1.265328820853086 
-0.5977322647365884 
0.4395580607868855 
-6.850852217198721 
0.4262710121678919 
2.035754947590603 
-0.559962507414717 
-1.066324590045804 
3.121496715624914 
1.843838322886062 
-0.125636567319767 
1.604242955081756 
-1.141032772360913 
0.9622326251019929 
2.267916180279391 
-1.070535686412204 
-0.8056947315737061 
0.8623128231463469 
1.462599941056455 
1.649687392057798 
1.73913255289861 
-0.01870252191929384 
1.489762122541586 
1.392390131489247 
1.060573346971542 
-0.3639378041437925 
-0.6100766250407579 
0.5680739014281688 
-0.3899810032055397 
2.013367732611241 
1.656533166875717 
2.412709333664167 
0.4837062301392856 
-1.253267424753193 
2.407827713021067 
0.5327166318707941 
1.26785319257639 
2.748817047248068 
3.963812194657622 
-1.100218333082607 
0.7622200318338495 
0.003123437801665484 
-1.74473264652733 
0.9159344393104022 
1.387000730511713 
0.4616799586043822 
0.8518437532899276 
-3.406877934266764 
-0.6323226451713583 
-0.5059595059913183 
0.5842955982610603 
-2.818047061495279 
-1.624424406588755 
1.703926353278394 
1.561871063262386 
-2.821215354891762 
0.2913052279027487 
-0.786655082009649 
1.482034847629554 
0.5586679294288571 
1.033602495909173 
-0.629547286562923 
1.720509429704765 
-0.9369109252466934 
2.278102772358446 
2.60133943530203 
-3.011704404333584 
2.07295258750698 
1.4137107818472 
-1.51967030979631 
-0.6756249338266267 
-2.553169948877233 
1.804660422663916 
-0.2652917361411075 
-1.374492617770301 
1.045541482597754 
1.322456776353497 
0.6868539888731903 
2.801499300652397 
1.131160633719042 
-1.950248518645392 
0.0002638350734694428 
-2.072503953392518 
0.7488394398266948 
-6.720857077383188 
1.745184063905671 
0.514765243702513 
0.4020994428471638 
-0.8996562826492878 
1.031707397869322 
0.7191812081306935 
-1.32494103085792 
-2.618052003152027 
0.8447213018053681 
-1.948332652954007 
1.404781750013738 
1.099982179981386 
1.311908381891468 
0.7269452502841063 
3.301788726467223 
-0.7746307708058235 
0.7192127386187535 
1.807908633030634 
1.110058802406829 
0.7337079207909485 
-0.587886107510012 
-0.04117816446884284 
-0.2654128327475688 
-0.2072655820797571 
2.269277945511753 
2.574910265736357 
-1.588785431336144 
-1.706861503354699 
-2.779403961732907 
1.172441433990107 
0.9421493926981979 
0.6640385404469265 
0.1640027943654194 
0.8287712653284226 
0.6803279237672547 
0.4632423972965376 
1.150396249152328 
-0.3035590078787316 
0.7862656544481522 
-1.253527271107181 
1.604599086743897 
-1.332412647678136 
0.5093459195606811 
0.07506169967330191 
0.3042200995767459 
-7.494070986245306 
1.13407152614199 
0.5259081589926057 
1.031274829881245 
0.5723718616274299 
-0.4642476654086096 
3.495288800077294 
-2.048286602307062 
1.004633077482676 
-2.901049445784714 
0.4085101262343357 
0.6795180575001374 
1.692067653820661 
1.786272208268319 
1.182737839668028 
3.072037235042018 
-2.197471949555978 
1.737150586536314 
-1.927877225837053 
-0.8208114494477989 
-1.363628487684216 
2.612440541199818 
-2.811557736800233 
-3.339908482732063 
0.6411784913999126 
1.857042895605441 
2.750363915326228 
0.7694207902550011 
0.8046561422150943 
0.5295048092218415 
0.4487570198930801 
-2.218639368680979 
0.7854735557486541 
-2.416890951302787 
-2.731251637298791 
0.5187744769024185 
-1.179064053469158 
0.6448230429264874 
0.1256103809185282 
-3.040088566519829 
1.549038203654279 
1.554477007793909 
1.530626681220397 
1.669237000693832 
1.762595198714959 
0.911091613134325 
2.37175542564668 
-0.9098035621581796 
1.104399520658049 
1.105233141655515 
1.772012145463291 
2.464366813776896 
1.051240014262322 
1.893741496315208 
-2.215431012638494 
1.077767668896137 
-2.439696695554505 
1.580506748324523 
-2.09832173383387 
0.173766794634132 
0.3731544673163869 
-0.4376544931838611 
-1.134000316107558 
3.459884453781576 
0.6162799019277224 
-1.665520661682843 
1.235983934034289 
1.563595195614466 
-0.8411263717604163 
-1.363194122590664 
-0.07048127756582223 
1.069030094177251 
2.590356027856175 
-1.109755031925456 
1.909857776280703 
0.9157269758476403 
-0.7929406804721231 
1.570404614076207 
0.5637252721796537 
0.6688832468337046 
-2.375341612152077 
-1.16094629233368 
1.580537596875527 
0.2285721123559802 
-1.606453943459634 
1.452704544882234 
-1.628060765026849 
-0.3689846392547876 
2.851120153029164 
0.7152488194430785 
1.329418236770429 
0.7323454065257912 
-0.5386605045381248 
2.083296876551448 
1.035787705926977 
-2.174072053873798 
1.532732629692352 
-1.250024255177029 
0.3623701069117029 
-3.014577359939417 
0.7714461246983014 
0.8534110527139905 
1.120567776849355 
1.651683996528663 
0.8663506661686742 
-0.3997015304617947 
-0.5530889260425027 
0.6437033945617852 
1.783986853706142 
0.4918313412094583 
0.8642665810815374 
-0.9288641376432303 
0.608876472605509 
-2.84546305565892 
-3.600525266320017 
-0.5728791741475271 
-0.02008450019270805 
0.2319937593015975 
-1.198293535198568 
-1.771632298084355 
-0.362994905376314 
-0.389946733774615 
-0.6378240083245394 
1.223761215540788 
-2.426642126994921 
1.760944834220777 
1.038208714106938 
0.7592843930613605 
4.454864121157469 
1.438700822868938 
-0.8479785299208839 
6.668841849486883 
0.8261349041715221 
-5.755718370598063 
0.7288231080634877 
-1.884100661345236 
0.7368867444514141 
0.5048851888298893 
-2.993879468844877 
1.723820570258206 
1.637329886077647 
0.7365388897857089 
1.089731409885914 
-1.16974487724596 
0.2683911119652252 
1.425221618542209 
-1.53436009357049 
-0.6895312849409283 
-0.2782431920841625 
-2.504101192184773 
0.5068553807303847 
-1.105616444738183 
-0.9595777309553418 
0.5531790107599648 
0.2268432282034392 
-1.862125968768892 
1.081170826774731 
0.4302527280791532 
0.67404423999931 
1.133206734566805 
-0.03643458072590033 
1.17885242172312 
0.4275297039393973 
-2.23818978061805 
-0.1702819457846204 
1.845176899357232 
0.4793073847120399 
-0.4808318832703214 
-3.903789445131078 
0.03204164085947145 
-0.7203223173908682 
0.8831749263767072 
-2.503695077231817 
0.8980661929168903 
-3.114126744106049 
2.034553544977178 
1.521442735201611 
-1.996102222017951 
0.3971831261320773 
0.5688039311039675 
1.547384336765747 
0.4332519379099145 
1.318909407426945 
-1.118606302169722 
0.4064832957249627 
1.476801715461252 
1.820464135523837 
1.503106794581771 
0.4241890012519848 
-0.6069475088735582 
1.026519934709706 
1.481541898826149 
0.8138764442455675 
-1.847831588141529 
1.03410962785306 
0.438736498347348 
-1.426214405695487 
-1.175350129016338 
1.606410041281215 
-1.36946184148639 
-2.752259729656936 
1.065926659019062 
4.969743905951741 
-0.1292955720317021 
-3.559804295950757 
1.491151733493038 
-1.87551479523988 
-1.072049366585272 
0.8764047442420979 
0.0355902591512961 
0.8193101700283619 
-0.47735488382479 
1.019280581498293 
0.9621815370947198 
-1.059256404208754 
0.09492410202160059 
-1.51592783153727 
0.8527458479619067 
0.484287091544924 
-2.53065429906895 
-1.254373406857779 
1.395452291908597 
-2.51570661886029 
1.134054247329231 
-0.6909939873280082 
-2.753240037157516 
-1.348434556263683 
-0.7681844568692363 
1.104833592455975 
-1.661855714949023 
-0.6801404918411936 
0.9477417893023672 
3.071451165201364 
1.135315250365528 
0.6036315758410127 
0.5765101041779412 
3.902562927851948 
-2.532369123774226 
-3.055483644690632 
-1.254562201092043 
3.73763047841441 
-2.937793125764077 
-1.385301341821977 
-5.498546380107771 
0.08943618666665558 
0.4178027410183279 
0.956412678752056 
1.083447235724116 
0.8391742723513793 
-1.165375166680555 
-1.425134070820822 
-2.688498746451701 
0.9268929149169244 
0.2684405026314658 
-0.7222402125701423 
1.70778021837983 
-1.602726693059404 
0.7120646542971896 
1.304722089427155 
-0.6016251926634791 
-2.868179685077675 
-3.605193139865448 
-2.087747125351793 
2.112719983932109 
-1.409092062437378 
-0.6424405807529614 
0.8061123297664819 
-3.092545111169388 
-3.963005460435784 
-1.297329441379079 
0.7279566625439761 
1.348955592588555 
0.9081309571682964 
-0.7416468209818837 
1.38083013710969 
1.111686200368512 
0.7909143242029952 
3.725817089062755 
1.422415658139289 
-5.514726683932561 
1.090305205116689 
-1.609851432294911 
0.256982139936494 
-0.3001828889467155 
0.7834422534459957 
2.225153414421868 
3.013197676805565 
1.585664378907123 
2.290568854533757 
1.03883857683851 
1.496821657100878 
1.625007354928282 
1.715989419049391 
-0.7496346481988736 
0.8474181793026079 
0.9692606780971607 
-0.6286789906915778 
0.7406167339843174 
1.606479418493592 
-0.4311372015751646 
-1.03129144534824 
3.122484133297486 
0.5967612694639169 
3.017183181852823 
1.105046254248312 
3.003777535142969 
1.337506828667901 
1.858579728640955 
-2.745858668913076 
0.1339288695253502 
1.812423712394166 
1.169059467684307 
0.7377874682074428 
-3.589882869714452 
-2.010068919836523 
3.169660270900893 
0.1503926541999508 
1.129658341298721 
2.558855804923601 
0.7546591658890868 
0.6232995027064705 
2.144183560110229 
0.6523632853517692 
0.8864235831435517 
1.314377362742639 
1.284427537824062 
1.649334335323676 
-0.7886776802066111 
-2.942905155245577 
1.012713875306692 
0.4757174765384198 
-0.6534269188000992 
-2.991105950406165 
1.108773139777875 
0.1534212260883661 
0.9667315803710581 
0.09793532332125413 
0.6277625904158242 
0.299623496251943 
2.254121700144904 
-0.3292791463405015 
1.334652778897999 
-0.4229204998004768 
-1.44213494254128 
0.5525048268456002 
0.6038513845452528 
-1.232985654020937 
-0.7079484909477011 
-0.02860650569995546 
1.352170822541867 
1.276484491097023 
-0.7097572907801497 
0.881638340603408 
1.265266626798785 
-2.487628881288835 
1.25935946704225 
0.555403219214597 
1.474121377399048 
-1.751046566965447 
0.3959144780940975 
-0.3521158908242553 
-0.4279865810727382 
2.117920541795228 
-1.461565774777311 
1.423732629084991 
-0.5583659941737843 
0.6928440327767378 
1.355485196368678 
3.075818987158967 
1.539631684939559 
-1.001657757416242 
0.5521129811125242 
-1.601757840330391 
0.8836654109715295 
3.026342252945246 
-0.9042183027921791 
0.56930732837969 
-1.541266650400628 
1.051759699467991 
1.423923870356562 
-1.893124302961445 
0.8441552733200326 
-1.422718864464237 
0.693916058105989 
1.513172475078158 
-1.091704942208411 
-5.667021801245011 
1.343795115543288 
-2.035546542092369 
-2.195895291299931 
-0.351226442347236 
-1.621767475876859 
2.300484669156085 
0.7295545311549957 
0.2247563911776428 
0.4743530037175669 
0.6841773967041942 
-1.696741357984231 
2.105579741261347 
1.728798697033761 
-0.6099562226456607 
0.6151622348154508 
2.303192164462675 
3.460571192562182 
-2.082676062741998 
0.5705904342649494 
-3.260309356210204 
-0.1835484455667443 
1.270759190489016 
-1.433778146550604 
0.8817603546105209 
1.24951493813745 
-4.214118076160842 
-0.4864863389817737 
0.4803022109090418 
0.4184898439620984 
-0.7983359978557691 
1.280947286505124 
1.02270705863944 
0.7567379539991277 
-0.8270407610448702 
1.786010881263496 
0.7016702049240516 
1.928283518303068 
-0.6788904295480191 
2.050414680803478 
0.1687135745829674 
0.9183246441433587 
-1.20926482070122 
-2.827999421973608 
1.233284605982937 
1.53408003515966 
1.966360817727655 
0.8409120597837274 
-2.040178905053386 
-0.4413410066958633 
0.2810973114988885 
-4.585876662412879 
-1.610485060702707 
0.9569587860411649 
2.95077542344879 
0.684733666484447 
1.250092785823947 
0.8611489294891401 
1.046438935504281 
1.729959338471758 
1.852548331422941 
0.6980421357961162 
-0.9956811370872904 
1.938629385541609 
-1.909739989010651 
0.803945804410878 
0.9026343903062741 
2.494286905814792 
0.4149226979024715 
-1.006225188948104 
-2.084788191417137 
-2.737039334707364 
0.4347468499034984 
-0.9363369829855621 
-2.180923286377919 
1.006084922866792 
0.4746535618296662 
0.1977988403801691 
0.5246584605186186 
1.992110319865807 
1.147784589963015 
1.067079147823002 
0.4073098110726913 
-4.230325976602919 
0.7485842387525423 
0.318140158831385 
1.213653570417057 
0.7835860335237861 
-1.362726985944149 
1.110615950864335 
2.681107795752066 
-2.114799847429439 
-1.328571258951815 
1.846909562899804 
1.514669586598691 
3.620568374787387 
-0.4787900177103642 
-3.343202431318601 
0.2325051302271771 
1.052387725471056 
-4.662451114064342 
2.986730674903088 
1.43476840303991 
-0.5345788540683972 
-3.717729044560069 
-0.9844920956443952 
0.8860162225094741 
0.03857621599959243 
1.69642828275776 
0.4121992109097817 
-1.365649038608262 
1.719498495644475 
2.524204507501033 
1.796239570591722 
0.8646529058629279 
1.715625484087608 
-5.841347890356133 
0.536477927255408 
-2.162813592827521 
-2.344624217852295 
-2.681730688506684 
-0.6996150748324662 
-4.036861067992282 
-3.520948358206175 
-0.7829161309154534 
-3.344581476917967 
-0.4100295959986409 
-0.2314305660733968 
1.975546131094462 
-0.8788542062962242 
-0.0725598604680262 
-3.689657381690372 
0.9774614102127631 
-2.217019512398329 
-3.474558423668357 
-2.65069884610403 
-1.091264831559027 
0.3427104492708565 
0.5415445511207856 
2.040682101613251 
0.9510530150128658 
-0.657422960107011 
0.5952017550710087 
5.304162765160962 
-1.697941672948766 
1.278260496571719 
-1.876798539486433 
0.7037326232299433 
0.9044575314039042 
0.6035545240744864 
-1.681519867699219 
-0.1475194040558784 
-1.133300951542596 
-4.125668621328325 
-3.630926256967453 
0.982385937257741 
1.370147435288964 
-1.390828033211302 
0.31924602818006 
0.7505622621296977 
1.623670437052183 
1.736262126812246 
-0.2293994945171495 
-0.736628763213109 
2.634398280012051 
-0.3882429609197049 
-1.366328032641837 
1.565912097179635 
-3.340158344283368 
1.153631669063772 
0.5487693645473547 
1.936146532273766 
0.9508127893220557 
-1.130969633200944 
1.143988864634238 
1.010981841889258 
-0.1030931349577398 
0.4637249581933938 
0.7757031488785555 
1.203918681489679 
2.487823615492001 
1.269373965887612 
-1.868508730633233 
-2.536108390409793 
-0.2021965733967561 
-1.446008979873108 
1.231528325765139 
0.8529782248538784 
2.522077661754374 
0.4544352042434271 
-0.1111204338951562 
2.67558337942684 
1.508723439086419 
-5.13556443338559 
0.549014061409262 
1.462865734825893 
0.5063496973711208 
0.7610621696285504 
1.47728953282465 
-2.425627283241838 
-0.7374717050376969 
1.041085785310443 
1.015284987090427 
0.9582917808245472 
-0.4508135679861462 
0.4455820351133105 
0.6574140846339469 
-3.268231292095448 
1.198019531939792 
-0.9898452762655355 
1.679696846115495 
-1.76002019661841 
-1.015922442266117 
-1.406246469216957 
1.31804838336599 
1.296682216133026 
0.5087989194777371 
-0.02415319646993106 
1.112824667465786 
1.229429112025818 
-1.705931364339388 
-2.052237826112028 
-3.876657998174112 
2.619135988886649 
-3.048525837325236 
-2.093674182705044 
0.9925616080616962 
-1.068288324120399 
-5.127112762911031 
0.9576509240507828 
1.281915320583618 
0.4575324350020064 
0.433936441564873 
2.947790730314961 
-1.146262780963636 
-2.069804779751022 
2.630864596271503 
1.133768554540616 
0.5898016717359311 
-2.090704882423911 
3.379916741000899 
-0.8708684003348638 
0.4493324470552955 
1.329052937848253 
0.5870967461039888 
-0.9602172030347033 
0.7716453713771998 
0.03419142831637817 
0.472486397758427 
-1.766262611548778 
3.282410739853854 
-2.927219486108185 
4.163933546938215 
-1.827395075089279 
1.053501516656908 
-1.715792525183275 
-0.5266750800717225 
-2.418396153110463 
0.347905290564495 
-2.936953381849911 
0.60554304560663 
0.9083571000273615 
-0.1011679232532028 
5.05830540335264 
0.1593063746986332 
1.444078537919401 
-0.4710206917329013 
0.2980450171525617 
-1.409956640701577 
1.449399408520297 
1.373709880971069 
0.5296777223542799 
1.169522706905996 
-1.362659662978087 
-0.8703768080488326 
1.431623679446902 
-0.9221266469412805 
0.6618019912496486 
-3.329111643682812 
-2.011376309896065 
1.219861984596424 
-0.6110553084512911 
3.645788195480216 
-1.169945569207317 
-1.714352976681138 
0.6233458269929714 
2.786071994902996 
1.988182312047737 
-2.112259739939045 
-1.493215046340218 
-1.211709283835643 
-1.232413347927453 
1.892536793290304 
4.541875599650813 
-2.520922157291061 
0.0002205764383978494 
-0.4638109016920666 
0.5468095362634694 
-2.424049733149816 
0.3148886129794627 
-2.711191552992314 
-3.171586383855661 
0.2507714985742993 
2.417648315480613 
0.005731645426084397 
-0.8374291997840789 
-0.1306703645847832 
-0.8138467107121409 
-1.568125151926131 
0.7509654629976821 
0.6725997369144526 
-1.760522176897438 
0.3816651039563067 
1.091185730937823 
2.597945460472909 
0.04391149186935202 
4.085416691720211 
3.067323176809946 
2.675358900698944 
-3.860794455909838 
-1.174652860412788 
-2.359256712422711 
0.975994537874823 
1.406617295035442 
1.87431139682 
1.192069919553245 
-0.6887238906079154 
1.342439108574734 
-1.886882942957703 
1.611043792871817 
1.149116421072775 
-2.691121736566828 
0.5161717679504669 
-1.771385871001665 
0.6221656998394922 
-2.21442843587451 
-3.45515574740156 
1.715743797883587 
-0.2152693914644129 
-3.714438761982221 
-2.276855549489997 
0.3285358799524939 
-1.166969970175803 
0.8165422923387184 
-1.1112968653881 
-1.663676623718666 
0.6231539560702584 
0.7152176618250741 
1.836633312804918 
0.7420475393475203 
-2.253749799812387 
-1.491491132552313 
-0.1203730569662177 
-0.4532896710438785 
0.5072027848910247 
1.197358051336933 
-2.862372713618198 
0.6577669320893303 
1.018050660844491 
0.9442001594778903 
1.43205160095571 
-1.49280809621554 
-0.5759206161525017 
-2.157747760950563 
1.36803618737803 
1.570160347564271 
-2.454857016758812 
0.5413940572596598 
0.7978069682523057 
-2.012988882254833 
-0.9342888819411184 
-1.21598677443137 
-2.950704547201101 
1.622455177604234 
1.168972833841277 
1.177634609617961 
0.7530259504466171 
0.9888205650782635 
1.848147551876901 
-0.9779651825148613 
-0.899457423122469 
-1.375065579267071 
-2.175275182312328 
0.4304248159121515 
2.186082634153435 
-0.1776573102914726 
0.09777140931900086 
0.7609172505705961 
-0.08672118752875499 
-0.6571900308265742 
0.02578865187962627 
0.2651388474596834 
-1.289645430597934 
-1.25600510433973 
-1.593402256488244 
-1.515809297376273 
0.9920377360027921 
0.2683210364131841 
-0.8716276941481047 
1.186341147780906 
-1.500068832449445 
-0.7882225467953432 
0.2188650801250952 
0.6533692406441256 
1.706184337931589 
-0.7557977405031414 
-0.290389675607062 
1.148638208795868 
1.145008831465945 
1.000339736997117 
-0.6001040567808241 
0.7281972970344023 
0.307904190969555 
-0.9608522765778545 
-0.09655111344564438 
-0.8085151533439741 
-1.029027042116882 
-1.185734163523064 
-2.896555061701998 
0.3147409511532893 
-2.74094080790383 
1.732961763514394 
1.063010371461802 
1.801170656239683 
1.705866224511687 
-0.03748032741680057 
3.04030804562115 
-0.8702744642318277 
-1.685245199549001 
1.74612366578881 
1.251827428024871 
-1.698351478502271 
0.1144284133070685 
-1.704969458575372 
0.9325804462850029 
0.6135760157359348 
-2.752725097811084 
-4.468426711392548 
0.8131665492928795 
0.04912762803519546 
0.5928550130895532 
0.5383167142385283 
-0.5863032299971225 
-0.6082929605250101 
2.826383442581898 
0.5319550966680519 
-1.466276662211442 
0.6416573369432398 
-1.465598105978675 
-0.3247073465285796 
-0.5915852024209184 
0.2826967704365039 
-3.400384382527153 
-0.7079218135472414 
-1.535302729905124 
-0.6120617202327888 
0.01192109510306736 
1.537645596173203 
-1.860360590388049 
2.535912151394156 
1.536542802038488 
-2.657760809749501 
-4.073921674939314 
0.9315603184985531 
1.110308834093239 
-0.4352182476310252 
1.477413888095047 
-1.309470598120817 
1.92919800676716 
-0.5981837184322316 
-3.032302684654901 
0.8428652522547457 
-0.859564804424729 
-2.721821961378078 
-3.469078372977953 
-7.116523285820818 
0.6630128166051831 
1.47521594379268 
-0.08623253318355287 
-1.549224154613087 
1.843348423436549 
0.8163365020183692 
-0.7633347667260224 
1.456188079450854 
2.031687472637156 
-5.444894889008154 
1.663161843168622 
-0.7698289876775373 
-0.5617574398070806 
-1.428749687565484 
1.944791984535903 
2.478945901004206 
-1.469220476601788 
-1.1796123671007 
-2.165711122503909 
0.3359955987681422 
-2.710383405443844 
-0.4658048337995014 
1.847798706844692 
0.7073982726506252 
0.5927292556067972 
-2.260320953842416 
1.076049774237056 
-0.7579644036566021 
-4.514770756441589 
2.065307181404922 
0.5044061483032727 
0.8127656562454224 
0.6519567109823394 
1.698612127290881 
-0.3971012059828079 
-0.6402195431051384 
-4.570021177994122 
0.7017225652547737 
1.992726715432394 
-1.356156590340786 
1.475756311540775 
1.859333258036356 
-0.3582425640818946 
0.9661534880561682 
0.8625682539322678 
-1.36130169938599 
1.238644307517034 
-0.4583806807109484 
0.5953406728311877 
-1.882899185522517 
-0.6918688537450024 
1.35388344868041 
0.6207807791522831 
-2.309470461458935 
-1.636231758950131 
4.283798374226466 
-0.7752992920208652 
-0.530308271651708 
-1.318262364820943 
1.309763252001357 
-1.608494630955427 
0.6675789496022849 
-2.450806674374935 
1.671650651532955 
-1.302222099333283 
-1.571514930795353 
0.8984359739191353 
-4.885899870838425 
0.9105119026117672 
1.098425674493726 
1.053153386043317 
-2.292396391806439 
0.01044763379610233 
1.433947879715122 
0.6748101779934017 
1.435180756850624 
-2.103473104222839 
-1.465016883265688 
-1.680564698820489 
-0.8270262701270824 
4.443405044605415 
-1.067741495894478 
-0.8678987953452916 
-1.802024209985041 
-0.7408593192265884 
0.8550533688065611 
-1.144630136918248 
1.11557329607153 
-1.734081102591627 
1.437707342958072 
-2.473003273939685 
-0.7501822808696292 
0.3255013115890787 
2.00741976952587 
-2.74134188639483 
1.692399889972926 
2.676386568273408 
0.8349112682793259 
1.405463322265393 
0.7603344634475327 
1.372778187248277 
-0.3673836722801379 
0.1116012042520365 
-2.287575190259458 
-6.525391694895545 
-0.8510791701798602 
1.60659176474156 
0.768571446335681 
0.6915363348151311 
0.9156695750026226 
1.194439798995234 
0.4154470437668881 
-2.054560758650908 
-3.008586011189423 
0.7379948814738865 
4.890718452744623 
-1.326482896376225 
1.188324072450619 
-0.3090443990415431 
1.491599007432304 
2.210758266712353 
1.391357313930386 
-3.734447096974428 
-1.631215502114324 
1.414558610196656 
1.446592154165328 
-0.7403835611800551 
0.4647727817862675 
-0.2890370228186445 
-1.449710538325999 
-0.5218028570163806 
2.488155989003138 
1.152221392638733 
0.5696151890517401 
-2.946743718238829 
-1.111281631045608 
-0.7756990420189445 
0.295677483017828 
-2.762320432054757 
1.368671664865709 
0.5762067448673055 
2.174319091687457 
-2.251174862256262 
2.638609280820137 
-2.62431960451621 
0.5260217661350789 
-1.450401305435006 
-1.834485057830187 
1.291911614060948 
-2.293807453415028 
0.01232989280528222 
-1.707992625833142 
-0.4872336329700416 
0.8851967692049934 
0.03123917601462514 
-1.803605407835058 
0.2456216290276729 
1.145921651416036 
0.749193760060627 
-0.5371999325415562 
2.834444456651501 
1.401126059351539 
-1.284248886589272 
-0.4194528181998615 
0.6402853437796023 
-1.036708573901568 
-1.300001633472493 
-1.360467982797022 
-1.951255961340622 
-2.07193029986339 
1.464689539885254 
1.197809056666342 
-0.4453963651840019 
1.686080674075411 
0.4203751376850155 
0.64594878646473 
2.004358074139794 
0.2192652457764954 
-1.766656471431429 
0.2790868482383189 
0.6854573814387425 
-0.4879220648517604 
-1.402824846421314 
1.221110871298293 
1.356472113047041 
1.44820355263823 
-1.637192635314882 
1.042073667431456 
1.340206793626824 
1.039345434755387 
-1.364150889658949 
1.344434552685221 
-1.26239326373407 
0.6500615792834348 
0.6382590131986459 
0.5702072292141975 
-1.081454810109221 
-3.48458240829879 
0.9795295302227573 
0.3142365108582206 
0.7787338966128433 
0.11219624493483 
-2.023816843854515 
1.04571200335183 
-0.6429678191586163 
-0.9930309837952384 
0.2605168995392331 
-0.6440145546617777 
1.062950132501225 
-0.4961219644552027 
1.228934995868716 
-1.309527163752075 
-1.468447899917829 
-1.867604916940361 
1.232813444457132 
3.174510790351408 
1.698860486092586 
1.136682670968801 
1.07734205998954 
0.8846957758100127 
-1.092797209372711 
1.0251014063441 
0.229383891739455 
-1.763929600923235 
2.318282039125969 
-3.613091923639689 
-1.598842503652451 
-2.859852414871406 
-0.9149667189833244 
0.4802107238757505 
-4.093629709567352 
-2.557268900171218 
-1.157217925042103 
0.761860204692706 
-0.3594631489701516 
-1.774688638456401 
-1.147086659257828 
1.515963160973271 
0.3871629678122096 
2.636260566848174 
-1.789836393292989 
-2.163492272538741 
-3.079360043567875 
-1.961153486712959 
1.08821014378868 
-3.777049099232193 
0.9236330031054505 
0.7646321275861382 
-1.875651937864881 
-1.074503116389334 
-1.504539437251865 
1.068265706933972 
-2.12594900326564 
2.504287536233978 
2.131352682221925 
1.719669756555098 
-0.1326581918612125 
1.311150780145408 
1.223641256866757 
-0.6811409829076758 
-1.643617306847656 
-0.05822050107700399 
0.6354278482728412 
-0.6978993601735312 
0.5160200220489285 
0.533196220861586 
1.219468264035713 
-0.6398804967107995 
1.772481277938822 
-1.307392156472132 
-0.6122795004058611 
1.727454813942212 
0.5556967332996341 
-0.6182659495124696 
0.9692247028920905 
1.510440119856796 
-2.66853905487373 
-0.05430915528915065 
-0.6632462696338831 
-5.09266452729008 
-2.344156563660122 
0.9029280683522269 
3.852576403237169 
-1.749102671253176 
-0.8075728183265363 
3.371537418757109 
-2.817477157422944 
0.4133236640591929 
2.340579491538332 
-1.223158238999067 
0.8614841166343614 
1.453256433301724 
0.321190813197622 
-0.409825742966176 
-0.8133466849446354 
1.143553843545156 
1.572578214330114 
0.8976573817610096 
-1.110516169076804 
0.3615881768175311 
-0.5585447597388662 
-0.01891493089837185 
1.715411280351528 
-1.255730607478326 
-0.8546588813817295 
1.53000863338011 
-2.995760946498634 
-1.762363241972148 
5.636221134783673 
0.8431155044389517 
-0.2420957986984945 
1.378043691138168 
-3.361894238353175 
0.7031711229778249 
-1.778445716643052 
-0.3759386483580365 
-0.1062070030165461 
1.575658418212471 
-1.325280204267202 
-1.54905121155308 
-0.4451631387775971 
1.013793401020962 
-0.450257507216322 
2.620572320884248 
0.9155389237598122 
0.903568427027679 
-0.2931670924506294 
1.052894524117206 
1.164504493179081 
-0.133182483662457 
0.6865300340783986 
1.552105692200621 
-1.687471704654806 
0.6774408548453584 
0.475781222180796 
-0.08936448255877265 
-3.061685866798003 
-2.047189969361985 
-2.034350018813691 
-0.01808604758657156 
3.172462694847173 
0.702851076026128 
-0.2819204943816853 
-2.206720889993798 
1.706698692017306 
2.338608430738743 
0.4611007494150847 
-0.1531853493346923 
0.5443765385281398 
0.6895624375275355 
0.6983600741443862 
-0.7933914705565177 
-0.6170469684551287 
0.6688994084681167 
-1.151250740237981 
-1.735197173628321 
-1.899197014778531 
1.086818476465575 
-1.435028337095005 
0.8879375135685191 
2.509402201216817 
2.526725793327092 
1.581595492128375 
0.3721606821941055 
-1.812920492575047 
-0.3265022675040238 
1.298181717908855 
-1.064965160012289 
0.8304051537040326 
0.6850910174370325 
-3.622080992166724 
-1.153587355865707 
0.2509698949693561 
1.388054476950578 
-0.9605449746471192 
0.3807990144021453 
-1.356538958945638 
0.4325585038892373 
0.6461122964098047 
-0.9237398275364912 
1.890905838581095 
1.100397786313547 
2.58670905659101 
0.9459837807669176 
1.486472158024605 
2.179814323650576 
-1.157760692389695 
0.7894552440061202 
1.666225263738903 
-1.729438532147971 
0.634529375706391 
-1.576823815232855 
-0.6526667193170972 
1.655397111897256 
-6.64172196623189 
1.465750119874278 
-1.340042499066457 
0.1845589249517985 
0.7430482941933767 
0.6970552555391087 
-0.5570759454177783 
1.173453391757636 
-0.222532246543028 
1.304633215724065 
-1.460390825289615 
-1.637707083902179 
-1.556742158353225 
-2.791667202843265 
1.4293779380587 
1.482729328609254 
-0.4620401485122754 
1.755091645178969 
-2.774707383722128 
2.344924047632802 
1.306914562722191 
-2.249616686058709 
-1.412197364374692 
-2.386095979174588 
-1.979421417504358 
1.189102551595475 
-2.745469056820004 
-2.049282060723165 
-0.6338367669393478 
-2.517750301709403 
1.126217382395494 
1.450759744895476 
1.240303029127965 
-1.05685356549028 
-1.392997454203482 
-1.694699148137326 
0.2898915690485177 
-0.9725261503618479 
-0.3802950417539639 
0.3079773066525199 
0.898616417747065 
-5.095247434458297 
0.9993198574556816 
-2.422647291279146 
-2.933678818001134 
1.885054765682795 
-1.67292284557825 
0.7472650559675329 
-1.892380998219207 
-1.234362101999738 
-2.11553272271486 
0.8145561266832891 
-1.384841294530907 
0.4407372271773593 
0.985369239621371 
0.5724788276508068 
1.02504727779981 
-2.951823948911318 
1.93062873028086 
-1.396489717728092 
3.059795782188874 
1.950249210305321 
0.8652669323728219 
0.1891873368397615 
-2.047358245825774 
0.6341765867945252 
-2.389440275544039 
-0.621517960421928 
0.05935747187593636 
0.5883160088056242 
-1.863261508270761 
-0.611350152360443 
-0.9803476294365815 
0.5382089111872231 
-1.066729612778228 
-1.956010463472461 
-0.4460198240861655 
