solver_type L2R_LR
nr_class 2
label 1 -1
nr_feature 165927
bias -1
w
3.902585556701321 
4.380640107942636 
3.136132858401493 
2.571131289832554 
2.796616076034883 
3.571424868129927 
5.98505404082626 
0.5022644770858845 
0.901803290711356 
3.564971047245038 
1.379772892380205 
0.8695094300183507 
2.968918905228512 
-2.736178266000393 
2.789413826439266 
0.7549480724921924 
-1.414391546027445 
3.270155630134226 
1.498740524703202 
3.397164162392072 
2.396644844307045 
-1.85980115110741 
2.460083365919189 
0.4714208385924525 
2.527061159263124 
3.414576942806885 
4.696175282681401 
-0.5914212308533675 
1.822481990049541 
2.994420131877859 
2.797879768656199 
2.962075589269821 
2.881595399929223 
2.832289089944682 
4.100066535662807 
-5.233710586257983 
2.192021774333456 
-0.5711803663401372 
-1.996659911492454 
2.31474387228495 
3.381387048915014 
3.812920074908301 
1.227065633004409 
-3.109534578155353 
1.060775923291692 
1.128750780233973 
2.29931897181457 
3.721433307279059 
2.525388197769429 
0.7685735537591624 
3.623390928422923 
1.857283333140106 
5.153741798630016 
0.7781972468618392 
0.5803945288001914 
2.703817939424258 
-0.2310887604246646 
-4.736414722436608 
0.8878035541888555 
3.171192734248088 
0.840047780880315 
-0.1867826450147599 
2.295816141548717 
3.048668058119313 
1.834111660411556 
4.296807992614383 
1.633046060519238 
2.700912189542278 
0.1952812542121312 
3.99965187451915 
5.121889277277609 
5.09181482546093 
1.496737390300594 
0.9955171179187458 
-0.07616084587315698 
1.363472918634482 
2.549257278082666 
1.360171887473484 
3.209283924844988 
2.399028030263413 
2.137035256389589 
1.164568879472156 
3.486254623579144 
1.646077956149049 
-0.9624226929739629 
1.407773421044038 
3.368285702834648 
-0.5050840589960714 
1.387349364386021 
1.499645291836752 
0.3838067769709766 
2.576964257344776 
1.166140904675058 
2.258844283526008 
-0.7926990633976022 
2.25752348883445 
-2.147972664091651 
1.483457849873349 
3.852252270340421 
0.3784132360056922 
-0.07544168302143657 
0.7104249926194395 
0.6758279823800434 
1.627028149224687 
-0.05212845117870164 
4.304482604212107 
1.72872171988314 
1.410961040608602 
3.86545826094384 
-1.860081776663375 
2.122356040652357 
4.536920935003029 
2.418222512131645 
0.4886926459367785 
-0.03169075297040002 
-1.802691622788472 
6.275060855110432 
0.4734716206865712 
2.913493655079551 
1.319770684294724 
5.34701888091882 
-0.6862453316803756 
-1.195478776039068 
1.488092610642373 
-0.2741809063191588 
0.8629362384281659 
1.134277958855599 
0.9033279896986067 
3.973700088179335 
2.004043878892264 
0.5622155458293431 
1.77658763120221 
0.5060960301253522 
-0.8306161571621778 
-0.6259949037620379 
1.234507351097488 
1.291302343092932 
2.657627177149174 
0.0473386356179465 
1.614207373463556 
0.2177605664425347 
-0.03196009605304354 
-0.7974696952599168 
-1.031015015944888 
-1.102762165747434 
1.854318835907125 
3.439801315830693 
-2.437976535797596 
1.711122771060676 
0.4117220416250612 
1.692060817863868 
2.327110598693506 
0.8288176159748393 
1.055981230350424 
0.3546599361731837 
2.819569193175612 
-0.1276869403034175 
1.079187951367903 
-1.189768966357094 
2.329704231700312 
2.053034004834122 
1.362944411775814 
0.5305617967451982 
5.367681199028257 
-1.071553957964345 
4.243000310397987 
-0.5652050024616708 
0.3263985690498523 
-0.983465392304521 
3.249301979460431 
3.022724282888835 
0.6661654941417874 
-1.437425700369187 
-1.073680380808848 
-0.2191982750244515 
1.758956768320638 
0.5577835195148302 
-11.75854575815018 
2.763912970339155 
1.418676049372373 
1.557258684741641 
2.045757682384295 
3.153865664865303 
-0.4851720612015993 
2.289660803548279 
2.433453005958732 
-1.10707880440444 
2.415239935385646 
1.079549512022156 
0.5208705601084267 
2.203182142384676 
3.45060563049362 
1.344508623616863 
2.772668203032093 
-1.012770307811523 
0.9044384514427094 
1.100778088197101 
0.4889583950192045 
3.261991314628958 
1.244190843429138 
0.2377564157724091 
1.743516709000754 
1.090232121588005 
5.775921855000815 
1.821302158238571 
1.689154830078154 
-0.4530748050183184 
1.440525649727873 
-1.779672482154598 
3.439355923388891 
1.587704987084433 
-6.786016967409107 
1.126715281135178 
1.008309636265449 
-0.09781848989041464 
2.710265677746473 
0.9139354467247612 
1.261079260773875 
1.215666018853452 
2.112018419570375 
2.43763892040528 
1.664777286732507 
-0.1649314382597336 
2.792154989481245 
-3.079637367784366 
2.389984365720085 
2.86793938758093 
2.42817969168522 
2.050395806814564 
2.13616028856225 
-0.9636854116607774 
3.778162011690578 
0.4577990359585734 
1.474509251190922 
-0.2239466554523804 
2.631907678768162 
-0.1274759444733205 
2.305041236130391 
1.794500262999077 
-2.14023376588795 
1.350621814811457 
0.4853739676457144 
2.500745874645581 
3.318658128346021 
0.2336720785539744 
1.602015376303401 
2.807393434799961 
0.7287537428113443 
2.048565946893071 
0.6164801530838963 
1.329964217360589 
0.4678224849697557 
-0.9132256520794477 
0.5927509079487188 
1.507553309606109 
-0.6865944638445584 
-0.45536310996974 
-0.6898844108197741 
0.2333879699296963 
1.16099158331838 
0.6030622196295036 
1.166103343546383 
0.8379433598069653 
1.118680078988612 
-1.032002084309022 
0.8117471411148925 
0.8606414284802046 
2.301345577702919 
3.994346035136147 
-1.394970329483726 
0.8415657224293569 
0.9453560539817543 
2.706831498529253 
1.886521505713783 
0.4625070783744725 
-3.855239443902478 
2.379777606705669 
0.9015842489727486 
-0.2416314019325503 
2.566397068164905 
-0.525609412954139 
1.689560057148976 
-0.01201652458781429 
1.2297992059766 
1.612187522648127 
1.207182666431776 
0.2919429090579123 
-0.9371781972591081 
1.249307847535327 
1.957488376913186 
1.774534547568243 
1.061412933440076 
0.6318097013258381 
0.4278160199451919 
0.3727646806096207 
1.792811008315396 
-2.491421255814337 
1.886285806072848 
1.985756663181342 
3.257313706340157 
0.9519669390595102 
-0.1811297449629781 
1.850579266398258 
0.5554603979497774 
1.112316847057869 
2.036700266581497 
-3.296309192889832 
2.732739986228958 
4.763313398568248 
0.2367769200706569 
0.598583989770526 
2.262245368590493 
2.330837093868758 
-0.5817026731830632 
0.61929776010107 
-0.1399802098377826 
0.6065987362981329 
0.2668586291500564 
-0.6581331286137573 
-0.4003488638930842 
0.0480889481321947 
1.369195357924208 
4.297157274453589 
-0.1412391766227338 
0.8500917183754195 
-7.392830090859769 
1.647047361285199 
0.3461266789451252 
7.707333121670727 
1.042974295016424 
0.8210215021170818 
1.566605527419582 
2.08160803304382 
3.100813225060049 
1.013002120828622 
0.9927644273577146 
0.5785335589435747 
-1.403982475429228 
2.908244524842503 
1.408879314025861 
0.5120110124238865 
1.358109157027285 
0.0210216234954899 
-0.1068006108142509 
3.510115193129469 
1.269895328202736 
-0.8335602717405094 
0.7542099862643588 
-0.2895697728393893 
1.875390309889521 
-2.633896602695933 
-0.8798351970862045 
-1.241623215769439 
0.4930402360830834 
-0.3230726954719818 
0.6962046828503426 
-0.8313872981255923 
0.3264429274116974 
0.9445537432086476 
0.51759204043537 
0.3319442343300979 
1.022413327861593 
1.024293505641759 
1.824154116349493 
2.11491909337246 
-1.82821650878471 
1.227159317519339 
-0.1532729583596187 
0.1639328870319596 
0 
-0.816852139872115 
0.1968628474446169 
0.8966685439439799 
1.267172938549664 
1.544044549633483 
0.1821653254405759 
-6.449721423130117 
0.8514369916585499 
0.5242756016970062 
0.4926300659273498 
0.90905875255303 
0.8389401921858917 
1.319016441110564 
1.200871339119342 
3.640443835847561 
0.8245430367845411 
1.000244906619972 
1.957931444848206 
4.188410667836003 
0.5613163215073258 
1.321475595849619 
4.268340736757955 
3.737289048301014 
1.051376258765186 
0.7369741143147042 
-0.9918826760580091 
0.2752258967640562 
1.121624682312347 
0.5295805855419952 
-0.9286090372314161 
-0.07192046190400733 
3.78099413383341 
2.323971903176306 
1.41749554370644 
0.8736475266017938 
1.276294331825581 
3.111738231650791 
2.113965932600705 
-1.233725127321498 
1.551024286452024 
1.314976250006935 
1.29920659589448 
4.570073571824957 
1.841363930035523 
1.044685322462193 
0.6205457478057563 
-0.05146955164257898 
0.4635418351849117 
0.5878209173167643 
0.9721012230806153 
0.4253391313340459 
0.6805135792639662 
-1.361596681592871 
2.014596568897471 
-0.3357855758862297 
1.571125768415404 
1.113120923235254 
0.4824245757903505 
0.2684741829347329 
0.4866044708036716 
-0.2181699954243482 
0.8695647263900138 
-1.633624038697212 
-0.3674901057289174 
1.485206732515141 
0.5955778474399909 
1.200322373171824 
-0.08318715765185812 
0.740009296904883 
0.5793038680625638 
-0.7851719368661757 
1.783470990014103 
1.431592681707442 
-0.1299378459374042 
0.9701713538808114 
-0.4850655477833265 
-1.681554514205256 
-1.479048354480732 
0.5243265372927334 
-4.171750250085025 
1.215803948684373 
-1.744379966829344 
4.636610190213555 
1.031564658969481 
-0.04047452617530037 
0.6683477764335013 
1.232384645331732 
-0.1623822422823598 
0.4707116091791977 
0.6001481570850936 
1.772352651022817 
1.474426474289944 
0.2562053526930921 
3.310639313595246 
-1.60958463286541 
0.9414846038121976 
0.05954316080596428 
1.726240281819105 
0.1204631527119463 
2.720533734368996 
2.998749615750155 
0.5054364336527757 
1.796262311631616 
0.6047655228443841 
2.291921021626355 
2.622293342034951 
-1.241110656063011 
1.845737189517866 
1.763701169864312 
-1.802747757703492 
2.612714498729253 
3.24958019653066 
1.934750550933875 
-2.619150527841716 
1.72949366190194 
2.191294316114546 
0.08646326444484258 
0.8485668823851917 
-0.1313863969086184 
0.4071252431529295 
1.422233120270531 
0.8442659840813069 
0.8019212380753344 
-2.35046482622268 
1.290224319843489 
0.4886737307952377 
-0.5029527819880922 
4.483788172222105 
1.920448688746069 
0.4588934212459814 
0.589411250279081 
1.950843457261672 
1.039674475153503 
0.2488458736270287 
0.5345712978920236 
-1.306947768432077 
2.75543930242735 
2.177540714630948 
0.3937437091903908 
0.585233209238321 
0.3288484438615091 
0.2575130436285625 
0.7709984146721736 
1.781859177045886 
0.6230290260863041 
2.579232678011401 
0.2319930343466739 
1.270068272128576 
2.699679131752327 
5.104972335117985 
-1.495115003895967 
0.1155455049415359 
-1.821311953453333 
3.739930490947802 
1.121735102858325 
0.1663237420582048 
-0.2162729867652158 
1.459772290385475 
-2.877877105833853 
0.9191016411020696 
3.211883982163537 
0.7390918593594737 
-3.28142338822277 
1.007136518589162 
0.5595388266105615 
1.160146457133173 
3.227806702186242 
1.516147012350366 
2.153137767970506 
0.2036833111450957 
2.627033052333066 
1.009483559890475 
1.738311871755245 
0.07865877722865613 
-0.5372293527363026 
0.8482134336387478 
0.6348327127721985 
0.740484642717103 
0.1495943519735384 
1.000267378791777 
0.06094008488488625 
0.7614864711523923 
1.559352192163278 
1.059428906175286 
1.476372445979684 
1.92839600109817 
1.581118153563921 
1.386568657029206 
3.738342479867029 
0.9136567680688392 
1.944445540951256 
-0.152060756808916 
0.7071551136166453 
0.7461567111580024 
0.4699314293216451 
0.3139958875002575 
1.143098400637993 
0.461137940113432 
-0.3716632299755712 
-0.9831413105634187 
0.938554287858016 
-0.5384258662686879 
0.0750079579898658 
0.4619853750074377 
4.109470120462531 
-0.3793603442830756 
1.068707930263562 
1.40644390203374 
1.01754438539357 
0.13466720623922 
-0.9865440614240949 
0.5223590705145794 
-0.2174300929660856 
0.7834703282304905 
1.78577145452456 
1.41137235598334 
0.5632369316239569 
-1.610665500849597 
1.439418286721566 
1.536527983450575 
0.7477147614509329 
3.275652801875482 
1.070081323587429 
-0.1988176926967674 
-0.09561595960026063 
0.4242636711399079 
0.6306710045994826 
0.925335610988405 
-0.9239869641777894 
-2.800448561222221 
-0.3490149161889541 
1.020511412980389 
-1.348272538580227 
0.5858047337288171 
-2.470619200798541 
1.036482280537478 
0.5379157785821923 
2.95025513322225 
0.2889525107555415 
0.9882960212804797 
-0.3629519338719129 
0.1224922932346673 
-4.53250248419119 
-0.03409387828626897 
2.685787003612494 
1.698608107306243 
0.6019973445408413 
2.05983270876246 
1.177978726365223 
-0.190716563870098 
1.080060129872606 
0.3302839029081704 
1.448025291767125 
-0.9644739456824608 
1.873665018168287 
1.506672915039435 
1.089584224748867 
-0.3004390473972029 
0.2951143788234972 
3.24658012202575 
1.309232854819543 
0.7792099279303516 
0.8409362057215447 
1.467704837066541 
0.3734896049127088 
1.942190559005621 
0.9308209531960002 
0.1430065441440977 
1.072694662378592 
0.9032981424979949 
1.813935204374315 
-0.4375182102774223 
2.389389122574179 
1.01569156591332 
1.030570777111086 
0.2881718144194279 
3.552130843402762 
1.667166241673197 
0.6474977691875179 
1.29581906397317 
1.179989728404693 
0.9101130847986488 
0.759481529080832 
2.772246492732119 
3.045886584492925 
0.7912774167893235 
5.687094880967931 
0.8105780024001601 
-1.66848587564131 
1.593634667815385 
1.373055664580591 
2.053290464566826 
2.408178374382242 
4.039921080548271 
1.734497950946583 
1.354540152648708 
0.9516318994620799 
2.275727610781202 
0.2329266273315039 
-0.05724769663417799 
0.8719181745740003 
-0.342508921043252 
0.6701521993090084 
-0.1564767130265161 
-1.50866801755884 
0.354301807495636 
2.54536710966789 
0.6345960599108302 
-0.3870062381041903 
1.493197959308125 
2.232691565938944 
1.118503664388216 
-0.1417400129197502 
1.862419703729904 
0.900708829594928 
-0.1935919452162514 
0.2302020975397761 
1.624701785964806 
1.381076902669069 
0.938081348795714 
1.091836396386909 
1.032179761968574 
0.608469538887213 
0.9877360722151716 
-0.780422302042205 
0.4825472043235579 
0.1312223156596695 
-1.24947181145413 
0.4766814502027268 
0.9425375540287516 
-0.9455373019268555 
0.9542242307031539 
-0.2651608285919217 
0.3565593161116695 
0.9044324816431557 
1.068787625054814 
1.104256048549514 
-2.341947875274327 
1.432653451053754 
1.032862297603595 
1.076312126956481 
1.570852018273373 
3.006041506438151 
0.8407031143061336 
0 
0.8542972005180481 
1.467366204940925 
1.336394033955509 
0.7781589145059791 
1.645681908444885 
1.845259099386056 
-0.2583342650813483 
-0.8438173139461101 
1.608391165993939 
0.6567917865974932 
0.7820222340090188 
2.356626507859041 
0.5840427659610585 
2.179382302095128 
-7.294026210207104 
0.7014247044740366 
3.141147434734183 
1.83938519903003 
-0.3236292186009938 
0.751939227550353 
-2.302139471209342 
0.05531022422848848 
1.744703505888127 
1.354643697179531 
0.5280602950579489 
-3.262264606860978 
3.231756368430724 
-0.3476866672847979 
0.6112249933251455 
2.009877213580063 
1.821310024253292 
0.3922627327704901 
1.050485145634779 
0.3769633116224525 
-0.7994893147850808 
0.5816661882402663 
0.6916614707726547 
-0.8425093665726116 
-2.164845912273405 
-0.9501908490043316 
0.6093263281031265 
0.8320087769498343 
-0.5120452372161874 
-1.980517686445361 
1.830018317275837 
1.13249024052272 
0.9203012294622999 
1.311800240497485 
1.888905716449179 
4.088072828793518 
1.061743054371733 
3.265763117507926 
0.9651417080242498 
0.7546780243037005 
1.138276325164762 
0.5879760323104851 
3.207027293507934 
2.991844001056279 
0.5362622526972126 
0.3048824757920983 
0.7876323372866678 
-0.8573634667072793 
2.180066622117641 
1.290023419157725 
0.5677849665111727 
0.823896628701249 
3.050084515357043 
0.7486926366942069 
2.978825817662849 
4.736685674833901 
2.134415483237203 
0.8656595040033243 
0.526513446952095 
-0.0473402354128856 
0.2617541551251201 
1.228644623182691 
0.6805594647183995 
1.299187459836253 
1.803913872232477 
0.4567014748520337 
1.348665481829282 
0.5139823516002568 
1.772755028256403 
-0.7870558229141268 
0.8389052207955736 
-0.4294618815056713 
-0.7651975168320001 
0.8902286778598016 
-1.117521807615914 
2.428358215334395 
0.7067300506842884 
1.500880352955595 
0.9915423513618888 
-0.1886111377756128 
-0.1029211550734059 
2.302437828455444 
0.720846692976733 
1.471124389000261 
0.5222097232486456 
0.2551812192963993 
-0.384293504451921 
0.6484812973237954 
0.3517196509778149 
1.095390270451801 
-0.4987689593931036 
0.3960073641500242 
-0.01071734907793832 
1.395650642825333 
-0.3455934257096657 
1.882899243082482 
1.11872823107211 
2.094359078785232 
-0.2436659135118243 
0.9202429945757974 
-0.2296931643604777 
-1.539511519813668 
0.5730119868358087 
1.288200170310622 
1.321580185389923 
0.5423339596150093 
0.5253826396581033 
0.7133835646000901 
3.674073938742872 
0.345578566299081 
-0.2658877796080255 
0.4118793749160825 
0.8141321346634627 
0 
-0.1294352050436955 
-0.4811574838080531 
0.376572854971053 
2.767505335935467 
0.8300271485526349 
0.4743841421175811 
-0.3640654613076966 
-0.2198957416814127 
-0.165362535844509 
0.6448894530554471 
-6.317967139668802 
-1.542883915378954 
0 
0.9205040853647182 
-2.565545506325086 
0.1637077208244711 
0.600983283521794 
0.7227060151545877 
1.818200300305116 
0.9385027785919592 
-4.194424739353289 
-0.7019674927509592 
2.198718890841906 
-2.060942662239822 
0.8926987560377319 
0.03203554198800701 
0.3043794370013521 
0.2873942395366866 
-0.941862661290616 
1.3005554245883 
1.63564940418283 
0.6577641647736924 
2.690778705520097 
0.7727935504768396 
0.3592008004407072 
-0.2475534526799887 
1.211843361957411 
-2.107278921536676 
-7.026958295343054 
0.537931780619014 
5.075418191043474 
0.7263414240725845 
3.183677930670839 
0.4074425914537527 
-2.397329200930026 
1.742975927720349 
2.688494050803247 
0.1032103847846766 
2.259729505197102 
-2.154606795730584 
0.9377770035109052 
1.269952417880013 
0.4705559312628512 
-2.020279117211348 
0.5037134831533405 
2.210711721012967 
3.016177763221489 
0.2666959551566874 
0.6285191235372735 
0.09048756958105181 
1.077330657952295 
1.421914057866962 
0.4414144686674095 
3.990372863249046 
-2.628534487384556 
-0.7064370091495402 
2.087136862966168 
0.2740651034922444 
1.481430571484721 
1.95375357904718 
0.5517753911192829 
1.419476682307411 
0.3006419981481088 
1.167008900405213 
0.9231106458315252 
-1.193253505234436 
1.623372153974653 
0.300238758238825 
0.8317151202866425 
2.057114497564862 
0.6135753928734161 
0.9332927710403049 
-1.237844451278931 
3.050686403866434 
0.5698391846966274 
0.3293819848047664 
0.6199419931249786 
0.9715526542851589 
-0.410093015266714 
3.44635079542033 
1.262693704766322 
1.264967490183189 
0 
2.112268426544285 
0.444799818617963 
1.545802513333525 
4.340585480805855 
0.8819239438784027 
-0.4980033038058205 
0.273108805042651 
1.505691751506704 
-0.4487522102994609 
0.9423243647674158 
0.6481581036198292 
0.8459205486118476 
1.6995656373282 
1.648566564410105 
0.09100069541921331 
0.6559659557209504 
0.8512340510796904 
0.2240678216594465 
0.4414031419136339 
0.5326501514366859 
2.655167574875245 
0.5422310302670127 
0.8018575837504132 
1.078613660337898 
0.4118222387833926 
2.139068808258367 
0.2302778501923361 
1.404631314363278 
1.47428334629987 
0.5473962402923076 
0.8884605430825466 
2.983466993433154 
0.3235107502936696 
0.5261248144457544 
1.258213477761941 
0.532385812746261 
3.355157966780906 
0.6390600663533808 
0.7694181292539661 
-0.4767179221253845 
0.6585987477520251 
0.4434173498313926 
0.9793002498279538 
-0.1164774294784631 
3.656642840796424 
0.2583652438536074 
1.032521349127788 
0.5501949734302367 
-0.0874127499855676 
0.2347378591757683 
-0.2728075323154097 
0.1192353436846963 
1.027086446866447 
1.245712785858342 
0.09585043964305667 
-0.8900241413139695 
0.7153315511684184 
-1.338688024263039 
0.04211780496495185 
0.4918237357715399 
1.118152104221761 
2.859172476100924 
-1.923446182400506 
0.9074982667475695 
-3.112967657736482 
1.807076875437235 
3.530852293013745 
0.1312990852471213 
1.427749886952375 
0.7760674964993548 
0.1723519911689986 
0.08820270501160365 
-0.5986368949376261 
0.4066046288713627 
-0.09664970970542314 
1.316691570103347 
2.342213079925109 
4.05268996453157 
-1.995282157090681 
2.308437347460487 
0.451919692108977 
1.122600257621591 
-0.2704830346462329 
-2.155419073148474 
0.6657917480366177 
0.9852924842509326 
0.4832877107334023 
1.030711122813203 
1.270583817157767 
1.223477708727621 
1.134273989773876 
0.9801813793417646 
-0.5886069574238729 
0.2765863138597053 
-0.0474858767814068 
0.2580172644622106 
-1.012013913889827 
0.722165949476014 
-0.9754081743158611 
-1.810126103609944 
0.9583482847456669 
3.240426006733319 
0.5678978322544243 
0.9926504751119262 
0.7975883990614794 
-0.215287787764261 
-3.545178394086206 
-0.3610619712443549 
-0.4336990625006056 
0.7072302164173162 
-0.5722141982773075 
0.2576288989748673 
-4.141580879802661 
2.098998433714368 
0.4326208283217352 
0.6731085233021573 
1.321665740105486 
1.108770016385346 
1.278458646347475 
0.149842266178121 
-1.322888004776066 
5.204976744755189 
0.6184312465808539 
-0.1052637014981491 
-0.7393485857675429 
0.4796086961592357 
0.4002598147090131 
1.141444846287208 
1.385133912813453 
-0.9091062331867813 
0.3906613221565425 
1.265142319860637 
1.944061571700172 
0.6825493103670529 
-0.570301627667205 
-0.1260831816855544 
0.6554351274380928 
0.7503473394043403 
-0.04981019562067297 
-0.3082017051662536 
-0.4108506767987718 
0.8323039620939575 
0.6248375995775326 
0.1302613667424587 
-0.3218662797520344 
0.1878322056808017 
1.251892956060939 
1.200614292874689 
1.923234352274754 
-0.6778983330467936 
3.014112753840758 
1.256255700868737 
0.1388952686693581 
1.146850477515585 
0.8743150034940308 
1.797019459895311 
-1.691218624289208 
0.7717470626180083 
1.272423958737157 
-0.1821333408265571 
0.6676569455211144 
0.1387270638076611 
0.810625418470436 
1.827491026089219 
0.4796854671142107 
0.4266489067232108 
0.9291774632975566 
0.5919379242011815 
0.5187633016437531 
-1.545158026007073 
1.226786029065596 
-2.03729062245428 
0.204709619316442 
1.421476128534293 
-0.8914184439686894 
0.7439752313504078 
0.5097539619359348 
1.340948984997413 
1.764356906398097 
0.3838754122451634 
0.4922250047351877 
1.18622951245849 
-1.568237148366145 
0.7025673166978714 
1.251486010614189 
0.2448228190686532 
2.784272298775717 
1.530934386143888 
1.686124348957029 
-0.08629251542704942 
1.63089746308567 
-0.01397965195590867 
1.283115883502325 
1.220654290813711 
2.35389507468444 
1.248999937522312 
0.3563826984091357 
1.06221448467761 
0.8824671641606165 
0.04328148353540523 
-0.06054846147400793 
0.21259824547395 
0.2777878251926321 
0.687300518582306 
-0.6973442743347222 
0.7500681196630974 
-1.943847042292065 
0.3972622494258434 
2.100287876738918 
0.9064917760919572 
0.6920838071636175 
1.534461178703777 
0.8256308854487162 
0.5614802020479536 
-0.3532203204420914 
5.269233248665212 
0.4331540505411965 
1.143765537304525 
1.375045801885832 
1.029923808983273 
-0.1915354318575472 
-0.4025978374166135 
2.461432894457954 
3.820234348044587 
0.8214628430503664 
-0.4367943496943188 
0.5769949523223077 
0.7000241336069677 
3.990940223232148 
-0.3376900831940392 
0.842106995722103 
1.280096699158935 
1.785742748265194 
1.209962833683518 
0.8331876122918341 
0.3476414272292851 
2.081647369155156 
1.255256233129172 
0.5185540659168768 
0.6648717861929473 
0.8142298382921579 
-0.0181810254031432 
1.177314598820373 
0.7941237992315167 
0.9289140744802026 
1.766055700711751 
-1.467997103808631 
0.3739180848579008 
0.1587425499835342 
0.7754604408515804 
2.883725777828551 
3.882784365348993 
1.444372976222275 
1.088440951558539 
0.9712176612354151 
0.9890817462804077 
1.988209158383157 
0.955070477293863 
-0.7294059789835503 
1.306634853567891 
0.3742228629481912 
1.051285889142442 
0.3778952256134148 
0.64205027654961 
-0.7450499087571758 
0.6442798481742865 
0.5764062567840808 
2.288885479111163 
0.3374546066895518 
1.48417172683912 
1.177821911920284 
0.6279173728071542 
0.4921060415974505 
-1.788913785616316 
-0.9080526735515542 
-1.699699663825122 
-0.09131644083299505 
0.4179759743388133 
1.104084443431171 
0.09795569804318729 
0.3027931029455112 
1.700305624805139 
0.8497526168541226 
1.147967369966364 
0.8677876883545128 
1.329751498642505 
0.5927442778819559 
0.8938865072466184 
1.044628617993145 
-2.677614552171199 
0.6139609286493767 
0.7401738213088604 
0.5259280274492254 
1.911902804515966 
0.7054186706618851 
0.7749314238620856 
1.584041777151687 
0.4784169092670585 
0.5780433998640359 
2.057905392575533 
0.6189120189729956 
0.874372624535662 
0 
3.096472562311525 
0.3203380315414734 
0.6276237281292274 
1.52362342560404 
2.915989824103966 
1.127552337294674 
0.4652456435553988 
0.122738069779724 
3.749738491615416 
0.3352885637156029 
-1.141730268757342 
0.4229031871819554 
3.069828716669029 
0.3973807400591399 
-0.4091867444031903 
-1.001044659878048 
-0.3976418083658426 
0.7206199441784976 
2.6470766496617 
1.425596383958106 
-2.566802345637612 
0.01024326865894765 
-0.4592019670028921 
1.132666430284362 
0.671307258449383 
0.6772880817423677 
0.22363553259608 
0.3012888216238196 
0.9764377927955026 
1.799144217739919 
0.222353534545727 
1.002921778884093 
0.8456203204998058 
0.5635999168168424 
0.6172477458484978 
-1.828950551494987 
0.6795840537885628 
0.3551333916676206 
-1.282532915970743 
0.4330037192469203 
0.8304827709597081 
0 
-0.8278592887095453 
0.06353433726345666 
-1.463883217771923 
0.2284302603755021 
-4.031899912894414 
0.6414286861390194 
0.6911988695668035 
-9.524515991088366 
1.061639792716548 
-0.1216287956750912 
0.6404970146745583 
0.6226910158173473 
0.3362699769173483 
0.3815338495055707 
0.5743746615290249 
1.276040279526001 
0.8051661054123408 
0.3494912051869798 
0.8272632651944442 
-0.3986036337493929 
0.2498795311142127 
0.1966735384040686 
0.5268281307315875 
-0.2511361796863627 
0.8377429427486506 
0.3532904602616309 
0.5119413724221858 
0.1546287524034549 
1.851644249819512 
0.4172394871515328 
0.7235231213979623 
0.633389205013797 
0.265792249690437 
1.180550257394201 
2.60135834408792 
0.5329703521776086 
-0.1991670401596857 
0.6673957664356912 
0.3292217300556878 
0.3907792209698428 
0.8047002874436057 
0.7601112835445668 
1.124255703960845 
0.650183433318962 
0.7164517820451923 
0.2700954698342797 
0.4430409315798908 
-0.3913545367752025 
1.081151950061023 
1.026822418464812 
1.945065426957209 
2.265249667727871 
0.4739107908621828 
-1.61217181256975 
-0.1295242155986669 
0.1436173720259685 
0.8861448205928946 
1.270341391187569 
-2.726413442418957 
0.3730916856512883 
0.3024738284033783 
0.5266488230815121 
0.5677824536547569 
0.5429711379936151 
0.07325048745217536 
0.502361619405486 
-0.5530346380087537 
0.2288952290666884 
0.2891567610376704 
0.1087237411527991 
-0.1275907660286708 
1.218550573868107 
0.1690036582181198 
0.5360969177477226 
-3.35230126093063 
-0.07101946964439815 
0.516614001708414 
0.1967571242776802 
1.146306852598735 
0.8313623755366709 
0.1274002815499738 
1.526244496495075 
0.1067842685952166 
0.3378213052875723 
2.193005497354646 
1.043824527448175 
0.05207248744085952 
0.4210725253470046 
0.6386848321229497 
1.67343613602677 
-1.094813088197027 
0.8949539144236294 
1.286538728095741 
-0.3505086703398617 
1.444739736114405 
0.4544037472361116 
0.5297004994738965 
-0.2299598571119046 
0.7417224187182416 
0.7488750965285648 
2.56331719059067 
-2.68426526103501 
2.547353258609847 
-1.171455048338701 
0.599527039760973 
0.7547333245653537 
0.8531134472021187 
0.665942526463129 
1.200648072679347 
2.055353781365619 
1.661222925942344 
-0.1819640835270303 
-0.5622603462257763 
0.2922417462113603 
0.293368231920618 
0.7273064144329865 
1.689498668686356 
0.5444729802759483 
0.07482552782980657 
0.3098619506009105 
0.5885796169963619 
-1.01478377507116 
-2.402922708812099 
0.02087680317870204 
0.4109164557103508 
0.7102770753542698 
0.1165934928822821 
0.4948040254866491 
0.3928154235068991 
0.3152865966272039 
1.266078524514243 
0.6109098731540131 
-0.02918895485259931 
2.170589948204685 
1.494653958669182 
0.27689886479695 
2.134241503604908 
1.444942926420129 
0.04871354747841773 
0.9081685031383037 
0.3075964871497637 
-0.2532516941391015 
1.871530905073742 
0.8300771363129553 
0.8825258438551493 
3.156042836409336 
-0.2666232188768224 
0.5555808547492169 
0.3653533393249427 
0.8381907300980035 
2.605544932929442 
2.347853117165963 
0.6057081623679892 
0.9940009086667425 
0.8152984565473487 
0.4593260522471618 
0.1688588268487255 
1.193101203405231 
-0.08413598614413614 
0.6453159957263157 
-0.4272411889551228 
0.2558854910459951 
-0.0644688415702246 
2.59041702836795 
0.7297868206116768 
1.016036731446426 
-0.1294622773104367 
0.1122199106107505 
0.4180882588116142 
-0.8974740714552449 
0.1218361200668079 
-2.617199355986977 
0.1873698725950625 
2.937233843612951 
0 
-0.2724860413946845 
-2.555105785433023 
1.499042359742888 
1.402496133664344 
-3.453042094431941 
0.6100811786216334 
0.3774633255774396 
-0.4032249561845899 
0 
0.8778447475145806 
-0.09982140833382402 
-0.7413278192947845 
0.4514014450556225 
0.801335008475582 
0.6826625620976483 
-1.859677035352703 
0.3017357034673239 
0.6041902015734768 
1.14760745027453 
2.213167086903629 
0.4787161266760451 
0.3491715100744684 
-0.1557360459090697 
0.7591250019243108 
0.4215146712707458 
0.7152421811803394 
0.1009837741280555 
0.9653547056256138 
0.4488434114520279 
0.4792262626815011 
1.429678604341683 
1.000240747059376 
1.454122384151734 
-0.03382483396600047 
0.6421661269285388 
0.2066695843066741 
-0.03576936019973943 
2.169854210908845 
1.209864140078404 
0.329476550395793 
2.330388603133564 
1.680999325984962 
0.4205560234770301 
-0.8614373228108015 
0.1826228810603646 
-1.83460536024933 
-0.1069792317598628 
0.5469091729785299 
0.355589032579712 
0.8199644436220415 
1.259821486386859 
0.7063262394396582 
-0.1639193084223199 
-1.621251355192939 
0.3583515503187999 
1.028207038782664 
1.303633361092594 
0.3163016751671709 
0 
1.256986083062783 
0.366582851233052 
-0.611402548817586 
0.4629612896389231 
-0.2885357494411692 
0.1376661206071303 
-0.6891811457240977 
1.241933964586572 
0 
-1.343893754813538 
0.7474547387330012 
0 
0.5224650754101863 
-0.07747660580927107 
0.3481080012056444 
0.09477803342431432 
0.155709402217923 
-0.6485721406602968 
-4.468638055591517 
-0.4837094695474026 
3.304982374264738 
1.064368916692283 
2.630893569797527 
0.3204405226304461 
0.4502115842851051 
2.033431506994037 
1.304745704153068 
-0.3550083166470885 
-0.3457152804954603 
1.544307368259593 
-0.1169006669990447 
1.112494025336917 
0.9277327893785581 
0.6696790887331893 
0.4741086547053327 
0.36678697249838 
-0.3079661605631857 
2.150737753885386 
0.2312164231236446 
2.080593959773275 
1.259451017206444 
0.4653575345516138 
1.292507945314168 
1.682907943979005 
0.9824448149321938 
0.3345787376493672 
2.458978045811796 
0.8767692763986386 
0.1475276781954693 
0.5577297348804745 
-3.107880173799775 
-1.448501833735984 
-0.8894992953614708 
-0.515479713688394 
-2.436682748478119 
0.6918788492575404 
-0.03597623927821069 
0.2177589906669238 
-1.909928178677394 
-1.184611918944719 
0.07882483204766386 
-0.2482852872415251 
0.7606772281091889 
0.6159549282475576 
-4.149904937222552 
0.1307114083800337 
-2.040633222353919 
2.282079121613871 
0.1136985239919048 
-0.532241298205465 
1.138777125858792 
2.825355178079563 
0.2390396814008517 
0.1865341558826948 
-0.5788705742380583 
0.2493740660012464 
1.296279955695211 
-0.1002820636104352 
-0.6894937667797502 
1.604375756583674 
0.5706208991904902 
0.009408824601337247 
1.527088074715476 
1.519982662705926 
-1.607047138832703 
0.9907492551063526 
0.1390198583535911 
-0.1627948409439693 
-0.14383019904027 
-5.318801821233993 
0.5964483591554326 
-2.617492621224448 
0.5699828245998682 
0.1675651290794625 
0.5520705318209168 
0.306400193302518 
-2.421058808353575 
0.645673241701807 
0.2991207062339791 
0.2165429246600094 
0.4470899499867196 
-0.03609870153798015 
2.422325608110961 
-0.4883380591454511 
0.4660611004336345 
-1.373015912054407 
-2.644850479320714 
0.5851499973075853 
-1.359905712827111 
1.291206132285129 
0.9798086040604467 
0.9701336191930744 
0.6789084802910291 
1.006469839223102 
0.5771041635418505 
-0.7905551150790233 
1.312134860134881 
0.4986344274194827 
0.4705626094899211 
0.9312217383214618 
1.16123794873852 
1.44782780071259 
-0.4486242908213428 
0.6366950556419346 
0.1455325729385369 
0.6164645611973645 
1.080986769147993 
-0.09384047714197623 
0.8524978396867635 
1.440560764331566 
0.4964039303364444 
0.205671457609599 
0.7593600521823621 
0.7550563247286409 
-0.2772600600344721 
0.04755336293569624 
-0.144009909471264 
-2.529795888045452 
0.6498732249058294 
3.081638186736594 
-3.184355644471754 
-5.104338116745944 
2.509521776554932 
0.6549056486059477 
0.06791644978282051 
2.021426717924269 
1.785555382106409 
1.035364297844538 
0.2100235126085124 
0.4290554978051435 
-0.0463621806178624 
1.085396447656418 
1.23743844371296 
3.202135954890526 
0.7802374103998824 
0 
0.7712998978617271 
-1.395055236705137 
0.9025687182291702 
3.410195535516563 
2.687997541779388 
0.8024345438105386 
1.014992343785294 
0.4447115681811 
0.5689378472010831 
-0.6876349351617496 
-1.284503499387643 
0.4307081146878992 
0.1300136083779521 
0 
0 
0.789540504851615 
0.1146178885710314 
-0.3204718436065842 
-2.924305287988866 
0.1838329363160293 
-0.421244056286857 
-0.213181471039753 
1.05284577796892 
-0.698507555403892 
0.5025043271099793 
0.3234281291375434 
-1.08686001508993 
-2.094947140808908 
-0.1046985906263896 
-2.067296835756292 
1.90790844246121 
1.490169885106496 
0.6648840213083447 
2.374974738445742 
1.338737876851834 
1.031265597591103 
-1.39934822760555 
0.5115494018817182 
3.394986349844116 
1.124547750497255 
0.4218474926544994 
1.211321693480002 
0.2241954555985632 
-1.103039757539175 
-2.955226359148275 
-0.1494429776645497 
0.5794731469390889 
0.5447547332467965 
0.04335606988132951 
0.2664239481949154 
0.5475653813497069 
0.221891692032564 
-0.3207524742146696 
0.752144068166966 
0.534818560941188 
0.1912137329802881 
0.1676080040863411 
0.3198436001490197 
0.2884115964764414 
0.5587147339858435 
-0.3830966900008603 
1.231705723170729 
-0.02731505399656885 
1.550978799800773 
0.3419850664077402 
-2.373205981866573 
0.7528692811381388 
2.269668463047985 
-0.862374750783319 
0.7616966532974228 
0 
0.3844184177463323 
2.662651047867519 
0.3253761839456078 
1.16807243739228 
0.2285015795919944 
0.2924828503055767 
-4.360077756856122 
0 
0.07494921504658469 
0.1481464552529139 
0.6307153987519493 
0.8703264312708174 
0.6366901626380604 
-1.917772288503427 
-0.8424794034222368 
0.9644138227675043 
0.5671115915358795 
2.108057746474953 
0.3935326044812398 
0.5387439585610303 
0.3109517543730371 
0.3466540921803362 
0.2881489718644714 
1.369325670421977 
-0.5893169576792502 
0.06383168331284596 
-0.1927432372535685 
0 
0.5952003168208628 
-1.759012518571554 
1.974320693530531 
-0.2899121220465747 
0.7114907765955095 
0.4487090310551219 
0.4757930598136731 
0.6001019151673244 
0.2722773502795464 
-0.9790695237110931 
-0.5661102234491996 
2.202309870277432 
0.2925174019522078 
-0.2699012353258319 
0.2968561681448087 
1.431458429233089 
-1.298870740774062 
-0.4288235438182701 
0.7993886915884988 
0.2470036436962854 
-0.7396537777675843 
0.9518765902895464 
3.488189838307742 
0.1688242621830068 
0.5763011377005223 
-0.05955474279419962 
0.2534317150219493 
-1.495141357439323 
0.02644777137837012 
-0.2505173603990323 
1.16383236498475 
0.568818129195211 
0.04055377791150782 
0.7710945226617331 
0.0165932717156087 
1.258778014704728 
0.7113627784761658 
-3.642242606827884 
0.2347839789053715 
0.9909192368156128 
3.655038491384486 
3.226933270082922 
2.268751205759227 
0.04505280016982133 
0.2164751602798897 
0.7625596874784323 
0.4217237731025179 
0.8750567333039044 
0.9317832276092376 
0.5441125729909703 
1.423626446653992 
0.7439517789892282 
-2.284694796859206 
-0.5184015087754892 
0.3131687918821145 
0.2126989430249347 
-0.516787966575567 
1.893697761164107 
0.8248107709194209 
-0.09901511990388917 
0.08614828668305033 
0.3467086386493185 
0.4559197024839651 
8.576614807683539 
2.986380408408026 
1.515343477644036 
0.2920306945825354 
1.442952760803058 
0.4121009180415898 
0.3713496836080993 
1.306392749643285 
-2.747884587366907 
0.05367903574166266 
0.6593779325837833 
0 
-0.4436452867292429 
0.05699874216413844 
0.4871389198750934 
0.789237006984187 
2.454513215828716 
0.1535176251963353 
0.6272211286098638 
-1.487429415173283 
1.048599112013771 
0.5617249990925083 
1.331913293528195 
-0.2656153162029234 
1.16835538369627 
0.2693785486357133 
-1.522913952721772 
0.6778319187623613 
-1.595880331117364 
-2.835159559020743 
1.896284718301465 
0.07047753984852342 
0.7052738632346788 
0.3236746556733747 
0.8897324856987765 
0.8590617727226222 
0.6134751496365147 
-0.2765533694126812 
1.261793950433548 
0.266684425052276 
0.2905889322722268 
0.0413006580119667 
0.1599281091651631 
0.5117152016967571 
-2.742296477319015 
-1.213184218344573 
0.3622371965406582 
-1.218616730788585 
-0.4141341258122799 
0.3926794472173344 
1.234870412519381 
0.9136074990790136 
-2.225023272548253 
-0.00129613563873757 
2.714167584998458 
0.08789601357712441 
-0.398924465399193 
0.67665182671621 
-0.3759470909189446 
0.2459471142978716 
0.2714008557973538 
-0.1372286541439643 
-0.232284517767401 
0.4454624190882429 
0.7117355530057291 
0.5275459031884878 
1.224922512692041 
0.4111814225855782 
0.2386387468191062 
0.1476593793898956 
-0.4359053016926412 
0.4994447311882084 
0.5078509571585175 
2.225103365092608 
-0.1653626546690347 
1.319276932197506 
-0.6160800188932425 
0.3904288273740663 
-0.8505308004717439 
1.034477191518996 
0.7451949206109046 
1.328945846428014 
0.1292958857006136 
1.201309403046597 
0.5097642642961062 
0.2963948304703427 
0.7418800814457917 
0.8974179742966992 
0.3962567498748871 
0.1355029202322819 
0.422723625798527 
0.2348693018765322 
0 
-0.1633277671784166 
0.08027080738797533 
0.3205702948514305 
0.8649759944721294 
2.399491984029398 
-0.06778030358769047 
0.8192363601386153 
0.5200205381109065 
0.4385846570804208 
1.80213580584152 
-0.1536247534099975 
-3.303723538573947 
0.02640376266439989 
0.9874163541584834 
-1.017293505877578 
0.3892179914986982 
0.912893066035341 
-2.292153440331188 
1.014961584843762 
-1.965533851990483 
0.2165181519073862 
0.4151965182947112 
0 
-0.5919181786720807 
0.7432008717530389 
0.9809353218914543 
2.185209862999236 
0.8915834990927374 
0.7947212476518871 
0.2021679169118937 
0.6103411954211492 
0.3588477067228356 
0.5494943273385494 
0.3771920136862391 
0.3918705246616691 
-0.03119013662510181 
1.028618496411843 
-3.605116452071606 
0.2687135328941833 
-0.6140922443458698 
0.4116892836072841 
-0.7079617609596162 
1.252480640889082 
0.473249445480099 
-1.622856526112856 
0.07916848052455953 
0.0927714536231867 
0.3348181292035934 
1.931076705557477 
-0.1259275263429059 
-0.2418846033726678 
0.2571641473898139 
0.4430118408499996 
0.396076090200969 
1.651032764687091 
-3.163752062672148 
0.4260752483011303 
0.4040176010791007 
-0.1702667492997765 
1.03186899863152 
0.4536376261938268 
0.9965543394443737 
2.003120328452207 
0 
0.9291040336706836 
0.9135887924310273 
-1.734964973456291 
-0.9659913747685931 
0.1889079366785696 
2.803954156639692 
1.094241526676443 
0.1143894988680224 
-0.1369087760841689 
1.746386677028173 
-0.118978328478169 
-0.5890811111437554 
-0.4502085749855215 
1.722912822294862 
0 
0.6090482382682767 
1.899620919434052 
0.2904619942535938 
0.9134429239394681 
0.4618760404901908 
-2.550136050290814 
-1.660697143801241 
-0.09103927881733236 
-3.141585062373848 
-0.2680883127523338 
0.6842361511740344 
-2.145896290237534 
-0.1415627206126013 
0.6883141846894966 
0.4972595342076037 
-0.001778360209990522 
0.03143047605382177 
1.158034887230522 
0.2645680368633869 
0.3963161406980791 
0.5594947628770224 
-2.784569088995797 
0.6171249040855079 
-0.08463556588344731 
-0.1681755385171788 
-3.039295081974662 
0.4934294485481141 
0.2030707709014128 
0.1281760635105437 
0.1107107619293222 
0.07424994360260712 
2.088750420585725 
-0.6238232784498994 
0.7622060996503033 
1.321666015553654 
0.6710542592180111 
-0.5257958922080171 
-0.5809414354204564 
0.0247140657044494 
1.474395158577719 
0.3988443139249539 
-0.3251652050442325 
0.6237215715641525 
0.260101273583909 
0.4986971802974256 
1.288474763759163 
1.861965994047493 
0.1245132434764187 
1.200708074938563 
0.6439585449021294 
0.4142268807703532 
1.247285462068998 
0.4488632329035219 
0.9579703476865995 
3.877695240718515 
-0.02566803595080482 
1.908206111904118 
0.3616631807658177 
0.4125578964563891 
-0.901452982559678 
0.4022672923491778 
0 
0.2583692589418592 
0.5480144179835466 
0.1277711245778951 
0.06766827445480028 
0.3424983158758445 
0 
0.9016011684615864 
0.460867108454531 
0.9135580916598934 
-0.2216089725286336 
1.89203683735035 
0.2572028113042044 
0.1176441932041982 
-0.1842353501917664 
1.249548610148528 
0.7654729511330477 
0.6088486546688032 
1.221399687160686 
0.113763881145086 
-1.261947891062794 
-2.018046321527835 
0.1822053871689742 
1.090049755627983 
0.7214804313604561 
0.1852480482040572 
1.924073485383331 
0.2615149815913135 
-0.4807214263756858 
0.8624129826228121 
0.5860462646862729 
0.6154924227476148 
0.1878789870681077 
0.8151549939855811 
0.430817224920429 
1.319028754502146 
-1.080475470786068 
0.5195561146148773 
0.4540667204858794 
0.1627618361934805 
0.7602184866982161 
0.6031840867478335 
0.3571295305135065 
0.9894334876973225 
0.3219429284209295 
1.511343745851698 
0.1570490702574586 
-0.06445790265865312 
2.582476689385806 
0.9070314857824404 
-0.3249908214782773 
0.4899016021730264 
-0.06954328904571758 
0.4028880319632385 
0 
1.02260790909043 
1.356444835479934 
1.097295800883032 
1.543047052463302 
0.4387201214732688 
-3.741955111121747 
-0.6180445113488142 
-2.174731196433894 
0.393104857453841 
2.292526257480633 
0 
0.3405625571755019 
-0.24328307534266 
0.1870880172172341 
0.3069080165717986 
0.4817995559617536 
0.05342239387951923 
0.3397212120979883 
0.3476702055792893 
-1.23404096495738 
0.6713966456232404 
0.5058722898176456 
0.3999542832868239 
1.193676337956353 
0.3174548722038387 
0.3059437266793619 
0.1981328921218797 
0.7444787021947199 
-1.468202130129239 
0.1554881398211765 
0.9082974587393498 
3.431304405758862 
-0.2320502340283909 
0.9325745021683731 
0.3855151440237582 
1.76339398919747 
-0.7137996983707998 
-0.1548495733965914 
-1.224976479100129 
1.132447667665624 
4.097836143977832 
0 
0.3793311179162531 
-0.9954024347804192 
0.4410283233652533 
0.4964136850122781 
0.144860336124144 
0.4450338487115416 
-0.7493759517326188 
1.010570664348799 
0.6802892052461941 
0 
-0.493613926994117 
0.2809871552929189 
0 
0.1205708275439672 
-1.364688910620707 
0.1904465548211974 
0.6097603330437065 
0.8394708314423832 
0.4969087473682568 
1.361921746159994 
0.2188668734809081 
0.9332129693890749 
0.7925197078271097 
0.1866803323706231 
0.4701492999083184 
-1.71473590210319 
0.7089666766087426 
0.550318943804907 
0.3432578579063786 
0.2085986708898417 
0.5998903747316918 
0.4971851675341386 
0.9657887501025976 
0.4615832957471239 
-0.5401992364338121 
-0.6609059946127487 
0.5302672290443148 
0.68892718551843 
-0.6394887315372613 
0.3540617558110161 
-1.121048280875602 
-2.02942093885864 
-0.0104189469219134 
0.2132744632011287 
0.4144909243557281 
1.941667982757351 
0.8611275898987882 
-1.754358561626973 
1.319993459487439 
0.4583692248612272 
0.2353032446611263 
0 
1.373834076735069 
0.1145394351401653 
-3.200037369628143 
-0.5159057903089621 
-0.03611495931695418 
1.248365323942437 
0.2913419245330545 
0.3572247966453366 
0.3160238846072396 
-0.06626943126252346 
0.2598477674910635 
0.1868169796233903 
0.02807230880480419 
0.6453824344983223 
0.220103887982859 
-1.025373230591912 
0.5769709257169916 
0.4032024889585187 
0.1897558614643203 
0.1976720172051214 
2.023525794876565 
0.2140575834909728 
0.007598598929451366 
-0.08859640931770249 
0.2733995395184586 
0.4814809865828908 
0.5226753595812884 
1.314894708826445 
-0.2697994320647953 
0.1033849996189948 
1.31868334815274 
0.3887303340931037 
0.4532143382496424 
0.2800489095281642 
-4.152658231553632 
0.2749088167224453 
-0.04198854205304044 
-0.08339164039492364 
0.1738866986765153 
0.6827979107884347 
1.177136006011034 
-1.428136965216655 
-0.05774319041312528 
1.275667059926987 
0.7353486911607764 
0.2567612666980499 
0.184969439249119 
0.3679351924644017 
1.003600870906429 
0.5979311924253777 
0.6800706680363706 
-3.538138095209081 
2.021197627144053 
0.1985056193431509 
0.564201558136419 
-0.05607674577764928 
-0.01514701551620521 
0 
0.7634067380325156 
-1.79355452014839 
0.3733704712718027 
0.375239281773893 
-0.2646022238888132 
0.2717645038828232 
-0.8885941502991445 
0 
0.1547039385234218 
1.232827351043516 
0.360140655136541 
-0.3218284464794953 
1.079494977318301 
1.012974551204812 
0.242742292441416 
0.4477257080898844 
0.2454076959504485 
0.06106712418183319 
0.3117809905420648 
-0.8474430401732452 
1.090454836401201 
0.7018626229247451 
0.2383716790653746 
0.2277838768136317 
-0.6959815260445927 
-0.1060330336265338 
0.8511342655117817 
2.411002020195112 
0.3429359306943843 
0.6855439767703961 
0.1422518565111106 
-1.805521226451066 
0 
0.2004751399518167 
1.739615701476614 
0.5063672838078805 
-0.2569927189750904 
-0.2794678072839093 
0.8955725403314074 
1.027809173273276 
1.502899638957115 
0.8590050380833504 
-0.3207792842356145 
2.108789931795894 
0.4460815891509846 
0.3270231811623924 
0.2557703775654613 
0.2725362833760501 
0.8879250619508294 
0.8730019092593158 
-0.4146265699374062 
1.501558428648838 
1.110544619279354 
-0.002942121337236663 
0.09678419715421614 
0.6714039258694136 
-1.44579305773135 
-2.66747226140504 
-0.04921068246841163 
0.4110088511531283 
0.6617728553062592 
0.342481657723577 
0.109118306535938 
-0.06149876595975466 
-1.372467753918053 
-0.4076519485358695 
0.4232636696732185 
-0.2177720224527486 
0.4436632486263216 
0.1307447960372857 
-0.1508953359263353 
0.1302789283652067 
1.005244460746825 
0.03902855768937761 
-0.06884148557421409 
0.1558459904649836 
1.910884195504498 
2.526412798423115 
1.108322572779894 
0.2168178469870803 
-0.1370781148501946 
-0.8307237184564042 
0.3838102209788046 
0.4361909245715299 
6.164880025934141 
-0.03069235637440331 
0.1673644037958805 
-0.5193670211645893 
-9.45120060036392 
-1.128624464187989 
0.09799968643993597 
0 
0.4092996248932729 
1.137028188334401 
0.1814495597718407 
-0.9507229187045805 
-1.736465639812243 
0.6509497214095048 
0.7333541227078352 
0.1308076331847918 
0.8999014083356488 
1.294907369237807 
0.1694157557581222 
0.5377517779580706 
-0.0353294445938398 
0.6494984427023575 
0.5804172219796725 
0.1149080330414872 
0.4777389137620032 
-0.0155543536948588 
-1.485994769014478 
0.1114845297410079 
0.8062972043146972 
0.2365099914789226 
0.7237222346843935 
0.2800168278248275 
-1.211874001476668 
0.389426160016782 
0.9777633786404374 
2.734439002141068 
0.2331965915012923 
0.4013761726610477 
0.3742308617661107 
0.8163562438923995 
0.3059713058312593 
0 
0.5806241607959032 
-3.331293095594148 
0.1697060144176709 
-0.3233531649061578 
-0.4266979314928614 
1.183066406324158 
1.152280546202489 
-0.7047281453093976 
0.2761479868512794 
0.1461738480620449 
0.6406762141834776 
-0.2197213749372514 
-0.08663414883223644 
-2.026786830303633 
0.3288402886399978 
1.361197035265104 
1.172007900517646 
2.055008498692634 
0.7147462933317412 
0.4410011877682111 
0.5699424353565438 
0 
-0.02022302262659503 
0.07526634555033807 
-0.3381695932379499 
-0.03560318788178276 
-0.04457391419734781 
-1.468540399676621 
0 
0.4542457831345496 
0.3495673331794107 
0.9686490720171765 
1.155054535924892 
0.1303107975152317 
0.9227907434322422 
-1.7317049582236 
0.5813793490741903 
2.15703757696471 
-0.2465796857620314 
1.387903703564668 
-0.2394501872553013 
0.4489200757705122 
-1.79000992997196 
0.2766123521325404 
0.1097102048577082 
-0.9326727725972482 
0.2659205318813311 
0.263306273869065 
0.2509086034334287 
-4.049040785055622 
-0.2086960877041049 
0.7984758327834145 
0.5647941321491361 
0.4577307349884343 
-0.1167965224430685 
0.634183929708507 
-0.1067632422192295 
-0.9351721014994155 
0.3256462165901034 
0.4111988817194463 
0.3953543868801464 
1.53676178561877 
-1.587637955330512 
-2.430488821817268 
-0.1011187687681055 
0.9791067381352011 
0.07410993988449405 
0.5085284006139124 
-0.0665670151978229 
0.4339742554666292 
0.4737956448612971 
1.832417189558902 
0.3581952273828402 
0.2814572969944331 
0.2597296986868222 
0.8820302498253115 
0.2402532088919848 
-0.0655845850707357 
0.506528184099686 
0.8514882428354236 
0.4570137059708441 
-0.3566337126033645 
0.8031906147183843 
1.049482129487321 
-0.9438214931709124 
0.2770216530005429 
1.371064109121213 
0.4675576292349056 
0.01538800171533736 
2.573296251554999 
0.05886253659504913 
0.8735283784331425 
0.6285206603860857 
1.624758673896712 
0.5837334101341614 
0.3122514657433382 
0.6635984896149238 
0.2503398589929875 
0.5097976493387281 
0.1558546906023168 
0.372659695087775 
1.609320644444737 
0.136564682608462 
0.2718115755596142 
0.3857228804710655 
0.313881717591474 
0.4795843955827125 
1.331580203183073 
0.9894295366038706 
0.725317217435779 
-0.04442002335840921 
0.332447835996064 
0.6428026265400075 
-0.5513978289395928 
1.275077793413088 
-0.08926231474681345 
-0.638845303947836 
0.6484075525745191 
0.9108887736791689 
-1.150601161723235 
-0.01056231988697622 
-1.234665139143411 
-7.747910845084658 
0.0649648691467269 
0.05284003197129761 
-0.2797395129094052 
2.386028697428299 
0.33856825272403 
0.5572078803832212 
0.3708175381579017 
2.152938096150613 
0.3036177771609755 
0.8142148834136592 
0.3687046822350249 
0.6040626277568636 
0.04725427070963761 
0.3497184821338431 
0.2442200021599588 
1.185904006466483 
1.416202029387808 
0.439301801424423 
0.2105265637675025 
0.2005268043765888 
0.5494510392756965 
0.8190274136019898 
0.3138501878080739 
0.4507987005297056 
0.847060327585464 
0.1445664802101043 
-0.7298178249877173 
0.7281310930752886 
0.1678079043383395 
-1.627658952608363 
1.968154973449495 
0.5899858768502555 
0.8528842738438153 
-0.3174100383509814 
-0.3105738284179262 
-0.3882709300011191 
0.6978713384051078 
0 
-1.069285688877701 
0.334308853389906 
-2.532021845801469 
1.228005751135433 
0 
0.6001625129746606 
1.70406001305113 
0.08455713017335893 
1.898643161742021 
0.2821752712712777 
0.6937829557292544 
-0.7445721782899442 
0.4958876590075937 
1.161614612087866 
0.3015608242830971 
-1.207820875074804 
0.06480539409843412 
-0.9159179164573125 
1.463429593376634 
-0.89593401898043 
-1.039156171256489 
0.08266972216190957 
0.4656508276857825 
-0.7149919941161873 
-4.034252536661064 
-0.4875596294964435 
0.6075863433351302 
0.3582445406732069 
0.892386089436185 
-4.304506929193325 
0.4688546120116362 
0.1430378182761685 
0.7486419565693562 
1.406903673826612 
-0.7294824994305609 
0.1911628045890913 
0.3163876086714252 
0 
-0.3044785301030541 
0.851820914823449 
-0.05365465370227519 
0.3675877060255495 
0.7878425849825619 
1.850329943827838 
0.3729556482187399 
0 
0.2999528622420627 
0.1741760783052212 
0.2397450616388507 
-0.1279506576912283 
0.2534968589939244 
0.3872958182300457 
1.151664886370616 
1.391237916355023 
0.9007868486970282 
0.2012936408770954 
-0.09820746331742995 
0.1172286209594624 
0.872057787866604 
0.5919766277073448 
1.381671481128118 
0.7231158269475449 
0.3381183916778599 
-0.2756008713698294 
0.09370905213215125 
-0.7448279953314042 
0.04567893242406568 
1.58278648326425 
0.1168838458905719 
0.01985127024179302 
0.348430280590094 
0.5298890331955236 
0.6724726977930393 
-0.09297501698182711 
1.101557653596704 
0.6408463516178855 
0.2792191755178202 
-0.3406734384658688 
-0.02593519187049546 
1.334296082854702 
0.882340982496775 
0 
1.355793819563943 
0.2092038418798327 
0.3294319052560741 
0.567879836422595 
-3.257209446492094 
-0.03522125120750346 
0.5123433906620745 
1.733560203784454 
0.08705002636577557 
0.3987956001400777 
0.1819330216126595 
0.6126735002156444 
0.8654438948402398 
0.602373306666533 
-1.028848280033368 
-0.1501820965871219 
0.2337135414150826 
-1.374563616519806 
0.754521031756077 
-0.8578644445776261 
0.1580158055497541 
-0.5239089795903364 
0.3785226804158918 
1.658651183688692 
-3.040745142392052 
0.01448194444711784 
-1.628226318197446 
0.2314251512079421 
-0.03962427350532147 
0.7435484563762378 
0.2703892004126793 
-0.6463223195018946 
1.108730436201044 
1.578241901123399 
-0.2465341094980429 
0.6117188631758241 
-0.1414539861352551 
0.2200899005745711 
-0.2458845340227136 
0.515688924939769 
0.9056926109904421 
0.1511420430083781 
0.475305068401762 
-0.07432248322147796 
0.5790379705085763 
0.05002568310622223 
0.1638014006078426 
0.3405931574047269 
0.1449912970578263 
-1.790956869823914 
-0.3341941566794211 
-0.8994500214114738 
0.144863953318374 
1.49058983981143 
-0.5327963968821023 
0.2016799268850276 
0.5479339923192417 
-2.593272662115827 
1.588769520329303 
0.442073676854959 
0.01496668065869083 
0.6960306661859107 
-1.485975391751364 
-0.4276706876615287 
0.3103661360205005 
0.9994285342521168 
-2.457036117505881 
0.03074822323974465 
0 
0.9354103081489682 
-0.7128088304078757 
0.1226038674044676 
-0.1216506942991248 
2.76567335586142 
-1.23763066977344 
-0.4431397683626551 
0.1256826214643223 
0.2587188737877325 
0.1570566980106399 
0.935429646284893 
-0.3916062013149856 
-0.001665046569392672 
0.6991642175796255 
0.4435359384675797 
-0.216772656851852 
0.1456829365800297 
0.1617555656079215 
-0.1832147841786902 
1.246233495725425 
0 
0.30825644534969 
-2.068832753065304 
-0.1596455698139728 
-1.145756908419944 
-1.209189167073792 
-0.05823832199781462 
0.2953055924141126 
-0.7712124221447133 
0.2762268789198712 
2.897430987111876 
1.570619273605858 
-0.2706928975113452 
0.1390641382802029 
0.630368588165004 
0.5032101100146856 
0.3506335348554295 
-0.02555247860437501 
0.6985262223476297 
0.3586405492979144 
-0.2286957878956433 
1.208086306983242 
0.05001988974369584 
0.01708064874477014 
-0.198393018949891 
1.125073673696394 
0.1010997216245528 
0.4052477606012835 
1.263767402358588 
-0.01373089655214142 
0.2510111696579224 
0.1280476824893783 
0.3012943830310544 
0.007745780180969291 
0.696903337721424 
0.1815945926150219 
0.3215882824750728 
-3.373153698244475 
0.6701384337715044 
0.4666117384465648 
0.7924563259219725 
-0.5704832995700422 
-3.943950003454678 
-0.1995764046201647 
-1.264968758187937 
0.3796495109368518 
0.220713936794374 
-0.08312317995595911 
-0.1047806989563341 
0.8383376559478539 
0.352666026789522 
0.6049055212737626 
0.1767444765940154 
3.965866811769888 
1.608909997101693 
1.788964273872944 
0.03580542579724598 
0.2303995820214246 
1.056773455243769 
-0.08239122884204464 
0 
0.07945699389744157 
5.268440233667468 
0.6707158327397558 
-1.071675449960096 
0.576702081737711 
-0.1230296483373151 
2.074888966159492 
1.598001704357088 
-0.5361256320880875 
0.5519425479449031 
0.6091508474431098 
0.4175125707945316 
0.3479669727383485 
0.5167040500445742 
-0.9647469841256106 
0.1059347795045917 
1.927125481337937 
2.154681464698565 
0.1043806675499388 
0.8907352213829645 
0.05013014231464273 
-0.229781334194998 
0.2744814029094151 
0.06622827055811609 
0.5272915001207618 
0.5801226826876457 
0.9887440427466525 
-2.359841609598771 
0.3826134223392443 
-0.08681003990759209 
0.6423580173409555 
-0.06396457001472182 
1.12987730570138 
1.103117620608253 
2.118002631599815 
1.35431960885066 
-0.3000715740554725 
-0.003516344304285386 
1.209883878306503 
0 
-0.1025087448070071 
0.857026787887987 
0.3513729844017678 
0.1652206862507695 
-2.052891127185842 
0.5814966776218699 
-0.4413144479163549 
0.8509083512074611 
1.085641016947775 
0 
0.04243376468464036 
0.2155351398512508 
-0.1555485909027361 
0.7410691525660105 
-0.11915706984171 
0.2664017073791046 
3.995489444560282 
-1.084386532852164 
-0.08478796338370131 
0.1858947009174237 
-0.08495132405108499 
0.5279004194942617 
-1.894227472971884 
-5.626252939437083 
-0.1562063626440787 
1.151989056029433 
0.01090999331033502 
-0.1736527143417047 
0.5170870091598292 
-1.725428846608905 
0.2043131025925948 
0 
0.488058049054906 
0.3646955387452709 
0.6654849835096108 
-0.3657726317406827 
0.1474819026636872 
0.3845523579867718 
0.01332263996246779 
0.8767060618003313 
-0.09221563337206715 
0.7266698923725885 
0.6058010622556307 
0 
-0.3140068222611366 
0.7159078669703766 
-2.428991961377776 
0.002895405784114485 
-0.1507280838333483 
0.3529501817207982 
0.832766517749487 
0.1538934638564159 
0.4688497858479469 
0.1242661751873721 
0 
-0.2771850060601005 
0.204040232727405 
-0.4440009568307371 
-1.784557839393797 
-1.055033352797204 
-1.344259385847524 
0.2099940503734441 
0.008722767630222302 
-0.3521035715230728 
0.2432408250895758 
-0.1140870707087794 
-0.149794456488698 
-0.4427019237765693 
-1.505914708200826 
0.4709995336272382 
0.6710075396892254 
-0.009353982756039863 
0.5639987935532079 
0.7902461209787018 
-0.09110768164897486 
0 
0.3847731479264431 
0.122661122599955 
-1.6950437919807 
0.4082167159552434 
-0.02302162475458203 
0.1718688706407283 
0.4478673609120243 
-0.4887905069411282 
0.08446947984674491 
0.1831420333022845 
-0.3644068159133124 
-5.973068995008084 
0.4619112736850057 
-1.051329387367308 
0 
-0.9534822374287526 
0.4371061663962494 
0.2127240949378622 
0.7046948391169008 
-2.538684519422701 
0.4397090312442907 
0.1732399288553114 
1.99334864369342 
-0.09060049916521132 
-2.116563943509471 
0.2940001892675595 
0.2046949794559809 
0.5239173757817316 
0 
0.1312045062018654 
0.2867337080688579 
0.2766884619112411 
2.227840941299804 
1.42177015818694 
0.09723446605086608 
1.172269404349575 
0.6033555019858091 
0.3247396895802914 
1.214306118771315 
-0.9424181908551823 
-0.7489148359721891 
0.1216932389586115 
0.1837289403337128 
-1.00255991694223 
0.412050085462629 
-0.05988555993749563 
-0.7518656023172395 
0.5717301095557292 
1.205711150766656 
2.607476001009482 
1.165136070552911 
-0.06062860598953072 
0.2006408912731033 
-0.1590086829574727 
0.7147584242149718 
0.6962152358253082 
1.886376896714178 
0.3804399940540651 
-0.4084309977498062 
0.08069527681937662 
0.1884293517367912 
0.4845146423785023 
0.2829392999084585 
0.05530424184955226 
0.6450473807084078 
1.50262061089513 
0.1035078877202401 
0.3303829898193797 
0.4111426927949852 
0.9721800124509434 
0.2897989599535253 
-0.7589290670332864 
-0.824003095285422 
-4.609013591427861 
1.338753843614926 
0.8331091563671886 
0.2032294475961516 
-0.2527110334943449 
0.4204175321575002 
1.31042363111042 
0.9843441815114733 
-0.2842927023067222 
0.3544815825279919 
0 
0.1785155491822549 
0.4262179422796257 
-0.08930404411462071 
0.05741458251427734 
0.6441729083328974 
0.1721929250400577 
0.2075215376953101 
0.01624529557472453 
1.741088333750106 
0.5249028609571221 
0.2692893476877074 
0.269233741645921 
0.7508362075264203 
0.08356901115803043 
0.3887073544070677 
1.150622898182017 
-0.1753834538446252 
3.039070540881476 
-0.1404926375354553 
0.5236823353162574 
0.08818952385020976 
0.8487035036062731 
-1.91682905180113 
0.1929419847262606 
0 
-0.1407366169128274 
0.06713288781100771 
0.3467217816190067 
0.4461044968920117 
0.4708751600650615 
-2.641316078818054 
0.4732761186984892 
-0.06211589927541347 
0.4346885855891534 
-4.933968206183846 
0.6200494659540773 
0.2067971252105358 
0.4086306206637382 
0.9417391177232119 
-0.1432773624318945 
-0.0473006088224983 
0.1606580155369772 
0.3316384284565539 
2.437089857674011 
0.9403079890190472 
-1.469033394861618 
0.6763684840229957 
0.4039643955624485 
0.2239089659756497 
1.638363495731909 
1.296994885524196 
-0.1495625010112649 
-1.3869513461671 
-0.1409934721094689 
0.3173482755955064 
0.2552568703991288 
0.8630462139956416 
-1.285444705647035 
0.7937364098074684 
-1.00101078307001 
0.2150283768906684 
-4.244803715672955 
0.1609363456080195 
-0.03550410418129947 
1.484580866109581 
-0.005635501836485594 
-1.863669617154234 
-0.5771096534581746 
0.6164726389373236 
-2.122290328604377 
-0.03498739249027531 
0.5754814805983631 
1.606985047067776 
0.2465034342451052 
0.134027009556083 
4.081668143810968 
-0.5984964645299006 
0.4353145708626064 
0.1022874385493361 
-0.04248626414649079 
1.472361455512362 
1.30205784470731 
-4.230592563097725 
0.5242103240003153 
0.2549323621228373 
1.463679934583728 
0.09755087280876271 
1.247517924350042 
0.1752203845413146 
5.390323861062026 
-0.2556624506325931 
1.405156657207085 
-0.2942544998378077 
-0.01809900469342185 
-1.421757846288353 
0.8836025993051577 
0.468054807105402 
0.725309204818223 
-0.4954254373046066 
0.4717285263003742 
0.3935490079954198 
-0.2005772785411288 
-0.32847498649003 
-0.9885223593672666 
0.180435391966816 
-0.2663649959569062 
2.413906965109217 
1.190610767663622 
-0.601931785011814 
1.130076185781778 
-0.03320750705175417 
0.4955829555708671 
-3.475263917254674 
1.196797371828124 
0.07538385109245402 
-0.1121053159868529 
-0.07517533472011853 
0.4557017297583675 
0.5931328986307287 
-2.839716582528228 
-0.8484274430491963 
-0.2125861469708909 
1.116382290049945 
3.159450648273748 
0.07540983428955804 
1.739682152314147 
0.3810285512169296 
-0.5529631587145178 
0.5214052094346633 
-0.2000493537219876 
0 
0.3714229297250112 
0.7604757896237488 
0.2290429422534781 
-2.827262335367636 
1.6399469890943 
0.1428307530459098 
0.2262978896713576 
0.08342900631484441 
-0.6674661895183691 
0.1566972109373631 
0.2570401419660006 
0.5029695918740692 
0.3033259120020129 
-0.3954875180053274 
0.8683259797583532 
0.2181238547284055 
-0.6731287044365141 
-1.563235333515582 
1.436491589968049 
0.4707202853388693 
-0.5805175202119285 
-1.205596019993166 
-1.663219458538442 
2.065965427915812 
0.6011031984596947 
-0.1418583199575669 
0.05469967724603593 
-1.632520983309032 
0.2728679887748292 
-0.1800156670420416 
0.3991699002323618 
0.4747206623310186 
0.8090578997663872 
2.75494613226474 
0.1139645483671199 
-0.4267417043245884 
-0.6255869989066888 
0.3210673215288818 
-0.3515854412806357 
-0.1338732658061203 
0.3408050264943724 
0.4795418711053594 
0.04665309907521227 
0.1592474356339464 
-0.08402254203098883 
-0.1146298959602462 
0 
0 
0.06043727400373018 
0.8841857796015381 
0.2458164750588608 
0.381824297396194 
0.2530765914787967 
0.04873252584963356 
-4.081827103032451 
0.1892222844381349 
-0.3579789909773623 
0.654839301793422 
-2.800776964714181 
-0.2027198320025064 
1.026691608943382 
-0.6932404015021731 
-0.9230509732073189 
0.5664166379911879 
0 
0.5602954393124252 
0.4075188131834531 
0.9207156323412407 
1.423527270490428 
2.382280361716308 
-0.5392102832574224 
0.3680321403542162 
-1.925839464611968 
0 
0.1292108549759012 
-0.4551194842681512 
0.01794979619544222 
0.2228736415890232 
1.073956660931346 
0.4978312055377003 
0.2762094595325085 
-0.3873380293498361 
1.312201773035485 
-4.761111141519066 
0.1448483419959732 
0.7434749743421202 
0.5853235332201294 
0.409990322977921 
-0.4718310822461253 
-0.6794248406855572 
-0.7204453305572003 
0.6477762651800012 
0.9521143082259986 
0.5872837972795132 
0.2451018261278914 
0 
-1.264185428880823 
2.838802910561568 
-1.049465320993531 
-2.012400050804497 
0.134112900368101 
0.8583760928929252 
0.2528729299169251 
0.7033644458430728 
0.1796871143361116 
0.5247314777700958 
1.505652622632695 
0.02889562505210074 
-1.601990073313528 
0 
-0.3477874517826449 
3.81797728588631 
-2.221110451991147 
1.075444456001952 
0.4307579457603725 
0.1256599710404044 
-1.437510549816612 
0.1765547247831735 
0.09613039732621209 
0.05037218623670958 
-1.46072218763421 
-1.05507616527274 
0.3888228968665172 
0.7249337644122005 
0.4293571329485186 
0.2330849984589312 
-0.05473536871282877 
0.3157196835823479 
0.2698627022333627 
0.2121020411136912 
-1.325371767137691 
0.01003604682000387 
0.8960114429801792 
0.9090449168641074 
-0.003718601898752741 
-0.1247047043758191 
0.4017041870677368 
4.515060616721213 
-4.398487972585293 
0.3873907531229447 
0.4747640232031523 
0.7815841241870888 
1.595050702918532 
3.871517038148291 
0.2521159560315218 
0.1027069919011332 
0.4495234661955964 
-1.034189809918921 
0.02121954218099605 
0.8743801007415813 
-0.01845249022972464 
1.077648730321759 
0.1730936873306442 
1.411603106078895 
0.6643853515439769 
0.9420018425952497 
0.2145914076076512 
0.5861453060878647 
0.3199649028437863 
0 
-0.1563323692116819 
0.2439251579353294 
-0.1780453145675833 
0.2259415089113491 
-0.3224165901107516 
-1.55838313285593 
-0.6819043781422647 
0.3271293913980762 
0.8885419067389208 
-1.677122461758517 
-2.616736415627527 
0.002119629539315479 
0.5830054621397163 
-2.799013568493526 
1.108625462368106 
-0.4857320751874591 
-1.501705322042484 
0.3685134920145218 
0.3188593487276156 
1.357540750268958 
-0.9006534798903755 
-0.3889895433062571 
0.4476396240289874 
0.380371143041202 
-0.2341562714676358 
0.173851613181798 
0.5594522307978445 
0.1971979838211813 
-1.276385254540666 
0.4722728249089081 
-0.7777062174469737 
1.137701825582953 
-0.4173592012191787 
0.5427711155813448 
0.3475484363263524 
-2.176402942032985 
0.3591739481320448 
0.8604370438311331 
0.00399220010506645 
0.07992009346475239 
0.5526400147533175 
0.1035271412412569 
0.03779042965629942 
0.8697963466404067 
-0.3568258077016263 
1.399659242913956 
-0.2277647535252467 
0.5849524947508671 
0.2223245155154343 
-0.5682634911871635 
0.4848197395045061 
0.521758618046529 
0.3247671706045493 
0 
0.06648767687618436 
-0.9834221902919366 
-0.5506322044593475 
0.6997798689129066 
0.2063175948995359 
-0.4220641422792843 
-0.3106369188526266 
0.09584632481511796 
-0.3956179088847371 
-1.736601510786678 
0.0100498552429204 
0.6606018557850866 
0.9588916373996511 
0.1816633781798472 
1.440066742697329 
0.6166294885759562 
0.06320784915413064 
-1.645456167826724 
-2.536358961604491 
0.636536694316128 
0.8254673257041162 
-0.1205350812036416 
1.557957071877868 
0.8105095125802988 
-1.699908468784285 
0.9713401267145222 
0.6794261448302368 
-2.897663538081553 
0 
0.3044560338610376 
0 
-1.01127645562843 
0.09291969248321949 
-0.6637489780728026 
0.7281443509326568 
-2.883778322217015 
-2.873507805581932 
0.144321558293059 
0.06590261089780129 
-0.9479467481726599 
0.28655421929647 
0.09606637770059909 
0.4305557828304242 
-0.1611770846625632 
-2.346447195809314 
0.247986895033342 
-0.1617453236654679 
0.3608559804935602 
0.3633845157497483 
-0.6138226915935043 
0.6417201159205641 
1.3523987864734 
0.300445607326606 
1.280079093495662 
1.871416486134429 
-3.306653874784575 
-0.1698880890749888 
2.195075793188655 
-3.21398619653933 
0.2996055717949238 
0.2008769283493334 
0.2364971107486222 
0 
-0.09721676736022597 
-1.310265455547052 
0.3061952365190099 
-0.2027999948348819 
-0.1651853521461603 
0.1644345112904887 
0.6895204154443425 
1.375763376047831 
0.338577154779353 
1.726771496958412 
0.6390715952608075 
-0.9475839735303522 
0.7449130171431527 
0.02392252248753068 
-1.334730494990539 
-0.04251048515359071 
-2.069334212821534 
0.07765946411862928 
0.4225342090326732 
0.03958759742397457 
-0.6257923907165653 
-0.5055768970010375 
-0.4758060167065241 
0.2876723804093464 
0.122659506433906 
0.5643171240601793 
0.8240502165460591 
0.6715348930145074 
0 
-1.711983999944224 
0.1599635427935116 
0.1880833401338097 
-0.1000388896751885 
-1.389800747788335 
-0.4954107450841249 
0.3385614671276448 
0 
-1.110889266278118 
0.4199411761987008 
0.9232280062844769 
0.8013216185876396 
-0.7659252315760604 
0.2580378053182504 
0.4636675987009288 
-1.994622561085701 
-0.9412212726170096 
-0.7251548622342969 
0.1030446621001856 
-0.4804532416725751 
1.877643092213155 
0.1487577613380854 
-0.1060734722633314 
-1.520200989544062 
-0.8466452788022333 
0.063887034639761 
0.4620628879530962 
0.3876794025594247 
-1.366712125073988 
0.4042247793033999 
0.8282271764134695 
-0.02219678877953327 
0 
0.1970551375029773 
0.2210469911649943 
0.6748339352211901 
-1.531928560402111 
0.638860852375585 
0.4099713331587358 
0.2236610744252703 
0.8272613652128463 
0.4706474332159164 
1.19374294158787 
0.1473495263988434 
-0.857202567554001 
0.9898755205033036 
0.1143830978538411 
0 
-1.836636091770896 
-0.05542988059808638 
0.07081415552285451 
1.442731169223078 
-2.338622070132097 
0.05527041728023729 
0.3760076150228353 
-0.1086606931555519 
0.5136424303329634 
0.2848171214519553 
-0.06916180300118149 
0.2712528461214766 
-1.018552622235574 
1.669496978566708 
0.5765948454658392 
0.1388539057239296 
0.08916630468827215 
2.784737522832866 
0.276533119211856 
0.3525170094359429 
0.9013852843737035 
0.7276622720035172 
-0.3808109558303769 
-2.935295368792048 
-2.975381940320326 
-0.02891660108742301 
0.04180691932404158 
1.618616727513179 
-0.1705407677929384 
0.2199131997707113 
-1.236057929350481 
0.08484370831955979 
-0.6540308723404253 
0.31097845198598 
0.08224905991034079 
0.6823058676683265 
0.2628396240432466 
-2.465959304507374 
0.4751080403247084 
-0.679498577527082 
0.530864328442987 
1.130348176333313 
-0.2611171251662543 
-1.227428478364922 
0.02610338440333047 
-1.361676855536696 
0 
-0.1891106676920759 
0.8154139136820016 
0.8390298218915009 
-0.8830718419673433 
0.6475131514829802 
0.2488946612795367 
-1.403836537617871 
-2.268679045464292 
0.4048516536703776 
2.130892904606151 
0.2076665735555281 
-0.1688726278669572 
1.8545687672356 
2.791070560271289 
0.1683223825130843 
0.8984984127312294 
0 
0 
1.640739357374483 
-1.464804081377623 
0.4983961624000384 
2.600148216811264 
0.2441871939666164 
0.8751641677174629 
-2.271877517716037 
0.538430752027804 
2.341514003241766 
0.1970552388883916 
-2.453965698565001 
0.4135059067230488 
0.9195137252854778 
0.3885211034778044 
0.7825017580824949 
0.04320818441797156 
0.3242102827765896 
-1.316448783694534 
-0.02215621838348543 
0.03424661561567222 
0.158247038293565 
0.006389589779711962 
1.306362810673915 
0.4496324494068772 
-1.272901132448183 
2.056332751316851 
-0.3272703543739338 
0.2970638304888896 
0.6900021616873402 
0.5563857605429127 
1.015025468782941 
0.6787251889224315 
-0.07552381881663023 
1.77474484052075 
-1.902030561916512 
-3.319102469620701 
1.361259515812661 
-0.2553463571168347 
0.4830395100701159 
-0.03852128493434868 
-1.556598305989402 
0.6793850897689411 
-5.146389829743192 
0.02257901696484626 
0.6595097687137388 
-0.1591664405952773 
0.7615694675999515 
0 
1.658529430666599 
0.972016705471777 
0.4758854049004925 
0.8267165112833424 
0.1957172463490805 
0.4176886586105047 
0.056355745245114 
-1.832272090218556 
-0.2344300592524521 
0.6470151038741451 
0.1881750315146494 
2.175941805350236 
0 
-0.224476204020057 
0.267252433328348 
-0.3857327227320816 
-0.01909248598831272 
0.1570301660956162 
0.4683197212269345 
0.01667213661646836 
-1.925011775888024 
0.680763611308137 
-0.1129708732372171 
0.07029226948648731 
-1.140966133491989 
-0.9881155687601999 
-0.3048599267733504 
0.1683436224401672 
0.6739313605360826 
1.357055980263428 
0.1874773133993492 
0.0004881215794262442 
0.8506712376909744 
-1.050527944956247 
0.4165752741494942 
0.2815616636774383 
0.3740541947500328 
-1.598358718961574 
0 
0.325634279099174 
0.07851700703770551 
-0.9435778827342767 
0.4635718129514438 
0.8802120082119657 
-1.885466664728253 
0 
-0.279472725385329 
0.1561090005166459 
0.5712523022403923 
-0.4417252526561841 
-0.9160387679581204 
-1.718926713206925 
-2.244238758823907 
0.275823740397976 
0.2261678679548599 
1.099078010506584 
-0.1747316178320428 
-0.318303574185555 
-0.09191836266389194 
-0.1039266240447795 
1.223767795488506 
-0.1412001464079638 
-1.835977244898055 
0.7365712595635456 
0.3267402283816349 
0.8732163283426179 
-0.4579445334577809 
0.8311374899092824 
-1.109907176019378 
-1.20926716996417 
0.2068049264857726 
0.6556247851070115 
0.1935795787351421 
1.200898822136144 
-0.02640956985701585 
0.2989183107767571 
-0.774337046749257 
0.3061909573771735 
0.4553866628387115 
1.31797428140282 
0.2485968361689753 
0.3267359785667143 
0.7609361597414798 
-2.673237826684615 
0.2309239917833981 
0.4688843820433722 
-2.128610280699089 
-1.341540068833203 
0.8148251562130864 
0.08747338756518352 
-2.059202852998716 
0.5629168304224942 
0 
-2.231010429700973 
0.01109416197397164 
2.200821511698483 
-0.5195534637392422 
1.189935887783552 
0.1618006174105837 
0.1073736075070703 
0.1903341610948465 
0.3362029773613066 
-1.697641949574252 
0.1508800268059874 
0.651048666261848 
-1.341744861325727 
1.602378804404345 
0.55812068368328 
-0.3518633196703154 
-0.08871966058870293 
-0.8824347990566318 
-1.495001151683082 
0.9155923296209697 
0.7025444881604158 
0.02401925035989634 
-1.532839652198768 
0.1897932508104442 
0.5304313895870902 
0.6264432270695297 
0.2633423821790692 
1.405393251263076 
0 
0.2317242294643548 
-0.9608822660164574 
0.7826997579009611 
-0.2215765696089145 
1.084830769055714 
-0.7670927139135679 
-0.2261190960597397 
0.3370477635266566 
0.7510227992737992 
1.758102381119868 
0 
1.444250616022294 
-0.4508488751517883 
-1.010514994395072 
-0.2985332344702288 
0 
0.9172335058276346 
0.4317049389625848 
-0.4460390600847455 
1.288146253896822 
0.1509890022595735 
-0.03801543839509824 
1.667194230306495 
0.3255755327809017 
0.4903286508693721 
-1.125273554202334 
-2.011285942956619 
-0.1010259389398467 
-0.2930925045502676 
-0.09285970135719265 
1.238428382637482 
1.044202925556542 
0.1408940650160648 
2.676682508584197 
0.2213086685839302 
0.622640720158933 
0.4077928385621967 
-0.3175560521805743 
0.8122640503642872 
0.670731864386271 
0.009498378744355766 
0.2563386303519323 
-0.2174521007223519 
-0.3347231650173056 
-3.332803003162996 
0.1114246767973816 
0.9085749316588196 
0.1411670087188546 
1.754175672828058 
0.8021444098271467 
0.1731031713886464 
2.339853559951444 
-1.3973282416427 
0 
0.1959525622367877 
0.3804856833414658 
0.2042901659451921 
0.2878432041723525 
0.8281260240056838 
-0.01282874034248801 
0.06813995379556917 
0.2939357163185651 
0.2777665096103104 
0.1109463942878169 
0.4730987931752012 
0.4475173516162617 
0.7875416759811668 
-0.0826667508838269 
0.1860662560369178 
0.3242799143852396 
-3.575267519476438 
0.5827745032989606 
0.06412686394713306 
-2.827457322427112 
-1.818856538897482 
-1.135685386159022 
-0.6004646207163338 
0.4042811372088905 
0.7449826705038348 
-3.167126996396571 
1.417208249055464 
2.410871913503822 
-0.05702226092743347 
0.1759904961963425 
0.3968258033455532 
-0.2349454895067121 
-0.05799463312824905 
0.01488317387811867 
-0.1797297152635087 
-0.4516625483923158 
-0.3259791524530731 
0.1312349848423892 
0.5556462580464233 
0.1646365842613101 
1.260485158455299 
1.291955761391926 
-0.03540932235418723 
0.1510620217042633 
-0.7921726132041232 
0.3021211113207598 
0.4494990326802085 
-0.7582714440106924 
-0.4975792356515586 
0.01525280717911584 
-0.4685677763077143 
-2.018386559185291 
0.8006615853042204 
0.02062118730675519 
-0.2799905504386903 
0.5850261433947573 
-0.6222763223523818 
0.3664925621781864 
-0.9322320020409242 
-0.01744648765069187 
0.1082873311227608 
1.064391294696312 
-0.6133043564657721 
0.3455277208607047 
-1.538909174683298 
1.08983051037367 
-1.824255028462064 
0.1103184317361192 
6.132451811711787 
0 
0.4610442930733044 
0.503660126504655 
-0.2515006550998414 
0 
0.8631950038016004 
0.6472462784313769 
0.2735867028335963 
0.4179548142293538 
-0.1261476731088883 
-0.8006207666836177 
1.466006460703968 
0.9537843485388461 
-0.568443723573094 
0.5376407177278774 
1.517379205997649 
-0.6072036193218734 
-0.3782167106863454 
0 
0.2792949842866204 
0.245256042131174 
0.9243989922476755 
0 
1.037315924030067 
0.736143260794119 
0.2396905239458539 
0.3106983841250879 
-0.9247712687391193 
0.9512485413045287 
1.710278986291472 
0.3435016990958147 
0.4942584922751094 
0.4489349548824318 
0.1903551476092487 
-1.349659582510238 
1.322234742315354 
-4.625798168447709 
-1.167261765983851 
0.02269753621469011 
0.1211812170989844 
0 
0.241930104854429 
-0.2789233190293188 
-2.181213015512173 
0.4136540431826805 
-0.4377809532936875 
0.4163214763385835 
0.4890223378518687 
0.2315782351198791 
0.5127314567163715 
0.5827220926728217 
-0.06916388978039219 
0.2930077073826025 
-0.4485359559061468 
-0.3295563952270277 
0 
0.9111723226949611 
0 
-2.407879862528991 
-0.3623787523843344 
0.1362333111066363 
-0.6539453029344604 
0.4821444205248847 
0.1013538261166819 
-0.3675759150129841 
0.375148886439884 
0.6593829257403546 
0.1283882941251362 
2.873858027976452 
-1.459262606235871 
-0.3992446727177962 
2.137990599732742 
1.362740820148937 
0.2856030823646827 
0.04808613159638139 
-1.074298652336006 
1.056324507946322 
0.3124802167865978 
0.3542785694838012 
-0.119822050296207 
-2.173776565612847 
-3.366868935559784 
0.1267608073921273 
-0.8997189624548646 
0.151116598127965 
-0.007359344336872884 
0.7185006245826463 
0.3230991415444037 
-0.09646065113980413 
2.228418328267966 
-0.1361769569724373 
0.3135729333544598 
0.2463722493096678 
-1.083464114809894 
-0.08917355012347875 
0.4868350544992669 
0.01566622189413952 
0.2515344852284468 
0.2285901285995703 
-1.722369847747842 
0.4181461268716834 
-1.394268128202942 
0.3778262003653409 
-0.9849301733934468 
0.124730798800905 
1.803371567603971 
0.9243624956544084 
-0.2011405594602698 
0.5814033968975784 
1.593890448241703 
2.387023746936384 
1.416138266475981 
0.3286445472888199 
0.167103315057132 
0.1726223441515274 
0.05924723644400799 
-2.348583121690589 
0.01538967854859325 
0.1438920358667656 
0 
0 
0.9856920489977876 
0.02183646296441499 
0 
-0.134556993972348 
0 
0.05417414176883361 
0.3739538989279034 
0.9079051967551925 
0.135954267096046 
0.1150600230638142 
0.127696074308127 
0.8766469253050414 
-0.5737397725217506 
0.2388868676085608 
-0.2808287703745962 
0.7826743240504369 
0.03745893480036808 
-1.706828258131777 
2.394306117410771 
-1.47606629752318 
0.2420856657499431 
-0.6413424213495186 
-0.06507405190428306 
0.5814143756170412 
0.4653780977019603 
-0.4664854177700514 
0.4984226925495427 
0.6784960367561872 
4.110973122426622 
0.1077076209292088 
-1.581929280310811 
-0.7570880102750529 
0.1218381301130896 
5.892353745797919 
0.09251538948889487 
0.3687877518559379 
0.08373614189723518 
0.1738810352794718 
0.07298838589336155 
1.284616333735138 
-0.3789155528909553 
-0.23345645554349 
-2.31866480845333 
0.3721393157768 
-0.03968879519819965 
-0.3753673275250182 
-0.2636404047704055 
-0.1634336400970522 
0.3284098011438724 
0.6499997112898492 
-0.0894806928816058 
0 
-0.1202710882216816 
0.5036078744325786 
-0.6344596500425698 
0 
0.07426488816353501 
0.1843933860412212 
0.1255330747326712 
0.7114850040765048 
-0.6426306685055324 
0.3452732977234437 
0.2858875497097451 
0 
0.7794980883564566 
0.6361861274345173 
0.1136347783463015 
0.6568860776886163 
-0.2091149898376951 
0.3715648232381019 
0 
-2.211530179427711 
-1.24499211983591 
-0.2238638755340153 
0.7015199828658764 
-3.279135220326884 
0.238510133132052 
0.8906946584454137 
-0.7792514370573987 
-0.2395916801535404 
-2.348285461892533 
-0.3437823067750863 
0.2321987430460982 
1.005616764436345 
0.5301395255604628 
-0.9578218755962572 
0.1367445305031363 
1.712659473561492 
0.5319507148981409 
0.6387184702873823 
0.3603393278151846 
0.2404326863140197 
0.04715098309080402 
-0.01347433396977199 
-0.03184407798079529 
-0.2235466523685638 
-1.027108722988801 
0.9578541031618184 
0.5424803246046761 
-0.3373103269984498 
0.06333206413505489 
0.6989019849426896 
0.4052481446488685 
0.3858119843315762 
0.4675666612286941 
-0.1843714307726685 
-0.8233257878322575 
-0.7628800731116517 
0.3403420175303251 
0.2571700540269399 
0.4767736475951808 
0.5975232322920531 
0 
0 
0.5778558689798297 
0.2315166306715354 
-0.05771387622824474 
-0.337184644510975 
-0.04283448713697754 
-4.116428475152158 
0.08157017881522718 
1.332331652846903 
1.652887611335258 
-0.1639512658373189 
0.2209697653024987 
1.343455617001372 
-0.1755028015713469 
-1.976527929166564 
-1.177584384602567 
1.382809382811299 
1.026929521883099 
0.2717021804383302 
0.2457740924060887 
-0.5113484703227944 
0.6475935852641875 
0 
0.2374506395313632 
0.04624205600162883 
-1.313312586704676 
0.5018059727187266 
0.05702656348363129 
1.546450096580617 
0.3994268340994286 
0.2799293124985436 
-0.3909000459702057 
-1.57876085331566 
-0.6618752101714765 
1.329709930858457 
0.5356719065224849 
-0.1098031743235544 
0.3582443050104375 
1.406037160018135 
0.6744943096116149 
0.0710918268152777 
0.0880074808502761 
0.06912487428525736 
0.3946442007020145 
0.9967995553413582 
-0.2591359410627257 
0.3821493981059673 
-0.08029072446800913 
-1.765043267761677 
-0.03184336488968106 
0.6756550573541312 
0.8155481014813247 
1.031254246798154 
0.2681885777441427 
0.2866574140297977 
0.2407446192958811 
1.721752606631301 
0.1592835711177225 
0.1802183823963334 
-0.1533866783890618 
0.7680515389356235 
0.09211293703729552 
0 
1.752260072876245 
0.1246342332409597 
0.1783583067611848 
0.3918056829837259 
0.000399813546166361 
0.2200379063264885 
-0.3974445920284653 
0.1493058377790598 
0.4408322914909816 
0.1852624646768571 
0.3262481016607435 
1.037316811241506 
-0.03099934588247923 
2.1628338354267 
0.3838613686986404 
-1.015808656832768 
-1.670416873029381 
0.2657507828058352 
-0.8790243968818394 
0.6036656931674653 
0.4064784915803855 
-1.139900072995011 
0.1465551046485699 
0.01911695886457263 
0.5964084481857993 
1.659101412849651 
0 
-0.05376135692904466 
0 
0.4685862255641335 
0.3785384104212124 
1.854556830689639 
0.3311714867684131 
0.1323315448343447 
0.2393572688287319 
0.4298631780648747 
0.2220407453493397 
-2.380657433221828 
0.4078869478775603 
0.04221299851473341 
-3.451238105777422 
-1.069492512272436 
0.3316124127788657 
-0.5276751524062809 
-0.08872687806937928 
-1.910641691851709 
0 
0.2074599226393743 
0.4258982726639286 
0.1301178689554945 
0.4211112849663956 
0.3689295910775235 
-0.08742094056255739 
-0.3550696181656002 
-0.7533360921752343 
1.123965801298292 
0.3085056000344453 
0.4090065520449687 
0.4088151701245421 
0.01216096975953868 
1.047821981213548 
-1.791588778740683 
0.9716733274851818 
0.09808331795029307 
0.5058026934233608 
-0.16189427344818 
2.431628913913613 
0.2055846424111358 
-1.869382664109464 
0.4218577122174473 
0.3244471641610602 
0.1707705058202576 
0.04853450474257986 
-0.01830692480020932 
0 
0.006843894912035811 
0.2446634449108424 
1.055334796564709 
-0.3274921118295539 
-0.1705641294676988 
0.319476600957154 
0.7306402457554187 
0.3563883969514954 
-0.2934087270078732 
0.4521420888210765 
0 
-0.95332180014007 
0.44083596520684 
0.2005791728376615 
0.1621708938810773 
-0.1039560935412484 
0.896820770367625 
-0.0793595762329912 
-0.798890414188313 
-0.5720476080788415 
0.3137780846487945 
1.486902518500974 
0.4189718898045906 
3.481137778132197 
0.9339719665341715 
0.5437293269284303 
-2.00314094355112 
0.2860241348417092 
-0.08814098931171831 
0.4257321752173265 
0.2658380039094438 
0.1064235743576164 
-1.243601266488412 
0.2447944343419689 
0.0578435493267376 
0.292354144980559 
0.9760601760012145 
1.054867788856188 
0.2551907774190538 
1.074188925048501 
0 
0.7354670689876853 
0.3633148975771911 
-0.3514862674891626 
-2.926485092227993 
0.7773787977733515 
0.1294820535040332 
0.1577965026365505 
0.8712523065615697 
-0.3162566677972561 
0.2941882055028283 
-1.403573448350904 
1.176279481678884 
-0.1697207652789223 
-0.09605846989360346 
-2.369630342169368 
0.8252422928798412 
1.363794945993982 
0.348948706442377 
-0.1097503733252237 
1.275815819301841 
0.6666415375564122 
-2.06392043850823 
0.03252067297704103 
0 
0.09671880488361374 
-0.2240177327675045 
-0.1051116646748683 
0.1762489742985962 
-0.1117797772381967 
-0.02361403707070681 
0.4079085956250372 
0.0932474276256869 
-0.7194429150699611 
0.8809326161412746 
0 
-0.06695686030077641 
-0.04296085482929543 
-0.4804399435790596 
0.9515206306699966 
0.7828315375053744 
0.7630081233531575 
0.06431230789440098 
0.2027646802005768 
0.4421713182469101 
0.6508246888268668 
0.7427267082927002 
0.8550939939514854 
-0.2126615655215399 
0.4161201933809734 
-0.601656814943141 
0.3811814996006308 
-0.4079053642343941 
0.4048797189624212 
1.142875022094316 
0.2341446364521297 
0.6883235948170614 
0.4572375315845247 
0.4044870639847413 
-0.02162752754372414 
0.2489188191999555 
-0.09868449443435785 
0.5916216491560352 
0.2694235239102499 
0.06215812439236128 
0.6806937544261077 
0.08143619629361497 
-0.1077373945976074 
-4.109564351173147 
1.158822112220491 
0.502258434805799 
0.4831983961204436 
0.3494933303816115 
0.3777802182525289 
0.2721726277307606 
0.2246084857654866 
0.2899001214852929 
0.09628418780692707 
0 
-0.1097616952870878 
-1.772386247886705 
0.05605888327701485 
-0.7409123912919721 
-0.1433235776656919 
1.395757047388189 
0.3666546259685782 
-0.4414639052148484 
-0.7738100441276916 
0 
-0.03047911584782555 
-0.3214614083146106 
0.3563484388946052 
0.09200358124435654 
0.04147175598498336 
0.2296651167815955 
-1.076831707598277 
0.5981451632366781 
-0.8783941262549863 
1.572092349455323 
0.550086736057714 
-3.034891394003035 
0.9951253203786249 
0.08228947143722887 
0.3406755067082989 
0.7674244348615403 
0.5391201348673726 
0.1474084565431097 
-0.04691801335467891 
0.138907370048804 
0.7409614037073906 
0.2251691385650234 
-2.304861881366229 
-1.898581553393167 
1.891961368688926 
0.3907335777395378 
0.4652479124478174 
0.2169549540615442 
0.5774778898486831 
0.1221108546907466 
1.366857022128464 
-0.1931590720025585 
0.1987638740534851 
-0.2895589844832783 
0.1131696737295873 
2.448887119190133 
0.4572356430907525 
0.4826751099052852 
0.5591919354043989 
-0.0444704469691671 
-0.8360791069253432 
1.374736477371845 
0.4730361130833058 
0 
-0.1389017655521062 
0.240299678876546 
0.05617788155300314 
0 
0.2123956394484037 
0 
-0.0405187143841424 
0.09221501120027836 
-0.5205360897880406 
0.3659335920498729 
0 
-1.148764950351033 
0.6355043234062346 
-0.5158333336654236 
-0.9171976252535643 
-0.03768646201886945 
-0.5262693033339956 
-0.07785344242245437 
-1.513596478008513 
0.2525584074851512 
0.1495570553869157 
1.03914878474874 
0.3321002560995915 
0 
0.3067285159875914 
0.09143345528046758 
1.478817755159385 
0.2263839796292658 
-1.089501840689409 
0.2406208862093921 
-0.02941797507408206 
-0.02196601029191258 
0.2297305107978714 
-0.3270281164436156 
0 
1.92796648091627 
0.1755869572603603 
0.5366772633720132 
0.1062677436086777 
0.4797462574681254 
0.62065726917093 
0.3686450752880788 
0.5666307049038078 
-1.110503742248654 
0.9223928532052271 
0.2243522590913943 
-0.905937236222785 
0.3705034138680616 
1.094306691632519 
0.2525853895439077 
0.1180582010401051 
-0.07746522220737254 
0.1841083707496324 
0.7124994289945785 
0.983239127692707 
0.3421751499711796 
-0.6198758283799251 
-0.160407695493043 
0.3979820469543518 
0.8108007967684578 
0.1519646497957669 
-0.8506213419492286 
0.4211374493480563 
0.6117784047617886 
-0.02761958307108841 
0.8434183280029434 
0.4666328636229135 
0.08114648407013966 
-0.1270154014173471 
1.292804996374163 
0.02831678690801042 
-0.06299560959901952 
-0.1763531250689899 
-0.7470788713897637 
-0.01073972155624326 
0.3900463519050518 
-0.5133544853241069 
-0.6663141773228466 
-0.1404726782692549 
0.1174486900859765 
0.8589455637329342 
-0.4755528126878434 
-0.2472891627467892 
-0.1041744779459892 
-0.3620998912041149 
0.2991129967552066 
-0.9856176487146751 
-0.3325339820221574 
0.3733663512253474 
-1.762468614082182 
0.04020677605227838 
-1.005270857654651 
-1.061561260650293 
1.507171386175108 
0.7400581554215424 
0.3394083562004215 
0.2475167500650873 
-0.7157588898296449 
0.2096818381621953 
0.197263907911635 
0.9981348470399717 
-1.076374764758543 
-0.6743098703887938 
-1.041724408836904 
1.043915670225731 
0.001943998340139131 
-0.04199998615565881 
0.5769237837004431 
1.576243997823014 
-1.462952732837321 
-2.242080004788352 
-1.881512856509486 
0.04933301922515713 
-0.1142754893415039 
0.4460036171806611 
-0.6433226583101147 
1.070288637621223 
0.6868268165175975 
2.571552865240542 
1.23340266957942 
3.209404684630457 
-1.139080613104883 
1.046296746092087 
0.7171202281847291 
0.4265794866482647 
0.09255311434640333 
0 
0 
-2.644130681069981 
0 
0.6630556778178501 
0.1619174310248592 
-0.03946280509924188 
-1.915965767876309 
-1.186680411128942 
-1.237754959361198 
-0.1240908498825724 
0.05389403439165596 
0.3070615065412264 
0.06104995953676831 
-0.1502587139527354 
0 
0.6821012695621252 
-1.898233482672765 
-0.3627977610045878 
0.06307871531568031 
2.924066109023123 
0.4624260444659874 
0.1585761132686012 
0.06506212070073834 
0.1174231530375965 
0.4241043181405581 
0 
0.1476723364547084 
0.3947991935663891 
0 
-0.1026922577579106 
0.6955456553665866 
0 
-1.502737409388019 
-0.02049122526158595 
0.1395132977308426 
-1.200551267988505 
0.7669234522562537 
-0.06741261401830606 
-0.2168738594814713 
0.2964780631283014 
-3.664874374016963 
0.2092734363323387 
0.7042472912110973 
-0.4673794869500968 
-0.4177232873927238 
0.01103114560148391 
0.8403899842774814 
0.7672206666090093 
0.2508440890763549 
-0.07281921581740015 
1.532640470061359 
0.1485646697290348 
-0.5359499871481146 
0.4087161445444452 
0 
0 
0 
1.061581413820746 
-0.7543390667666336 
-1.069025455837288 
0.1351264849281128 
0.3552401306284155 
0.718521120324728 
0.6013154804164418 
1.207831687872087 
-0.2995472852676971 
0.02008217544069016 
0.9586631121072464 
0.3967416054173551 
0.2717029598100222 
0 
-0.3962054510079475 
-0.5241252182594203 
0.2715410200518852 
-0.346474178874476 
0.1445454519353968 
1.147772874864655 
0.9382974269078874 
1.64575331952088 
0.4741707002137319 
-0.9255052146135729 
0 
0.0708537121291552 
-0.03674088093119077 
1.173605281320032 
0.2282739410380142 
0.450438304355511 
2.998138962306746 
0.1003695358892804 
-0.06289243995549824 
1.477246033744389 
-0.406943522039195 
0.09265259020208781 
0.1137873094703332 
0.2707831426845135 
0.2815856981395822 
0 
0.1989040041059134 
-1.316590561707969 
-0.03617513235394997 
0.02522699124537103 
0.1354641388662947 
0.4580393625630153 
0.06227822086218077 
0.0278016613062575 
-0.02381093542104747 
0 
1.057988001157805 
0.2214392421010175 
0.5028099717672527 
-2.700579048703417 
-0.5147673462015163 
-0.3476192463614034 
-0.1638277388957621 
0.03509956533443091 
0.223296478182434 
-0.01252555940166641 
0.09428620537524326 
0.08586704895799392 
-2.15016802554985 
-0.04274746590406125 
-1.783664412388693 
-0.009506858831860046 
0.6173784834364071 
0.7072677117625372 
0.06779372621448156 
0.03301661354716295 
-0.02950233968784317 
-1.722744072595943 
-0.00756833771439918 
0.4504485935267902 
-0.6713400935428973 
0.6892814663551664 
0.2062346418858389 
0.3550031229654321 
-0.7262643622623017 
1.220383418971483 
-0.7296155833417048 
0 
1.383820126322189 
0.1009451224471522 
1.449362897282451 
-2.00918898244208 
0.7715026836908088 
0.1725169978477613 
-0.0236807544091219 
0 
0.5575122891421626 
0.006425802903556696 
-1.18979006097101 
-0.3466514651024842 
-2.58612785113567 
1.16706500324578 
0.2115117381698134 
0.007975271036787725 
-1.068501081492525 
0.1322578520289324 
0.5808942372196984 
0.03378075364734491 
-0.01205983116256675 
0 
0.4577163856419822 
0.1103964485034462 
0.03424934684383631 
0.2640290479675439 
0.8285026501075596 
0.1516484395696674 
0.3888705739249773 
-1.144073357722542 
-0.3330148257749174 
0.06258279153711757 
0.1679503524782812 
-1.536428177168978 
0.2639749823016625 
-6.078228220565049 
0 
1.447361029826709 
0.522261627824893 
0.2447274655656244 
-0.2055582774916964 
0.1114334609142707 
-0.1438673260080484 
0.469765243022557 
-0.03413446548573834 
0.3502812554790904 
-0.8804083055737157 
-0.295792791428967 
0.1860506443023648 
0.0581545696091263 
0.3518118154597226 
-1.218118250590126 
0 
0 
0.5887499632014757 
0.5801796461377275 
0.4628048848523543 
0.2412047666984041 
2.89933083207959 
0.1511707809392674 
-1.121407044594515 
0.3335187409086594 
0.001376431391249204 
0.6385935567373376 
0.118689867941726 
0.5223206878360708 
-0.1513267281992083 
0.1366227202352549 
0.307112465735464 
0.1731949044606322 
-0.4098967648006087 
0.2295666971286383 
-0.6274390684574357 
0 
-0.4695630670771751 
0.8878342766226782 
0.6045475988873965 
0.1662900061263202 
-0.627859621448393 
0 
0 
0.1164306133653711 
-0.05036823957286019 
-0.8072907262177962 
-2.241398011026237 
0.611338019609548 
0.2453498856407594 
0.119957443718503 
0.2927547939329822 
0.2045704972838631 
-0.1586065706682749 
0.2741608367361306 
0 
0 
0.2671112187336119 
0.1555558066963499 
0.264836351924812 
0.9280077197724581 
-0.2304229598174876 
0.3356927054277384 
-0.3247867732236722 
0.5615061580208695 
-0.3617506942557507 
-0.1252652304956712 
0.3335918518787185 
0.5437296606748065 
0.3145495826699992 
-4.083193313137315 
0.1462514614635435 
0.5209085970348892 
-0.09956724930926508 
0.2589372991993729 
0.6033567403946912 
-0.1404399358512483 
0.4603677648520872 
-0.5916395637410752 
0.1671649115371292 
2.721895536085429 
0.05562218665201028 
-1.495349013365586 
0.2204874759936921 
0.01880029494135544 
0.01899983056637899 
0.1558071494809914 
-2.164245218031399 
-0.2119762976073438 
0.3101763898789449 
0.03057808372789558 
1.093520618405923 
0.7994211468934618 
0.3494753105699271 
0.01953391828752685 
1.305379967533275 
-1.498493807667225 
0.1895572660294476 
0.59730029020371 
0.1978817264705356 
-1.789723867550099 
-0.02902689315798791 
-0.9967792270584703 
-0.5751439857852609 
1.153336701915519 
-1.612054579100362 
-2.951674902502388 
0.2073747316690217 
0.7201445299908432 
2.136223800562767 
-0.03447331001670654 
0.2808736550546335 
0.1629558231833668 
0.5309490971528379 
-0.1554444800114029 
0.1349362073421261 
0.2957455165890878 
0.1718775054044609 
0.3001541894254404 
-1.536174851254959 
0.3581646938490476 
-2.305717556362536 
-3.316638440381016 
0.7148808563146387 
-0.3428237290625111 
0.4844561685703985 
0.1295729771427357 
0.2099672648558729 
0.1286116277360566 
-2.170402525387465 
0.6178096455190423 
0.8680056802532666 
0.001244118517608986 
0.1373528892235447 
1.060050307497705 
0.07391483023084953 
0.1516905149085659 
1.211470867710526 
0.7959772020147341 
0.03445388809315394 
0.9859344895660233 
0.8108680116840079 
-0.8113261075971736 
-0.1132855319730289 
0.1205445780890545 
0.4061023330644988 
0.7654648260137078 
-0.08423114102571461 
0.6503973035758051 
-0.009601544025799501 
1.153737148837356 
0.626642351081299 
0.6995005397637267 
-2.703105192353715 
0.03958855116842722 
0.2194504770592548 
-1.224580255081881 
0.1838475992229552 
0.6097116303972566 
-1.754762375696751 
0.2173372307456692 
0.2116188194393939 
-0.2136120231834732 
0.0592832289580593 
-0.7177210971597829 
1.443737778743677 
0.35440983284189 
0.1590568887924682 
-0.6165382758134158 
0.6579341673328982 
0.07040412940114392 
0.8613955174336928 
-0.5462115880398856 
0 
-0.3264783021957935 
0.3118008451154668 
0.896318094069193 
1.767137891977092 
-0.6406508768402108 
1.08035826212878 
0.2732697185062152 
0.1737518085456689 
-0.2685985185925048 
1.721716298008899 
0.6714959203515949 
0.2389495311407633 
-0.6112730254758414 
-0.6683286510946829 
0.7245298086808306 
0.2243050706067768 
-0.02639710807702438 
-1.517235097838548 
0.01933605003595631 
-0.1264203800267826 
0.8566664197367955 
-0.5074409354628192 
0.1464391201643758 
-0.07027856596788708 
-0.3213895419083861 
1.85507945169679 
0 
0.05526377894299821 
-0.1851715989679526 
0.247521379463414 
0.2684826894549709 
0.4154621894522674 
0.163630899048009 
-0.4471975788944473 
0.5374100494987795 
0.363891989029676 
-1.833514657160514 
0.199283028139728 
0.6123660322230806 
-1.298403165218094 
0.1845904477443015 
0.2097372989066488 
-2.424279188168679 
0.002349591954767192 
0.3355390380824868 
0.1520829625343507 
0.1187797750655505 
0.5494752120960881 
0.006068802648128547 
0.1312398257663533 
0.8377315745582472 
-0.07971170380703733 
1.03836020921073 
-0.1007010560702866 
0.3069505708886319 
-0.2968009511484188 
-0.2815953170585602 
0.8273640356412768 
0.8912451364134969 
0.5586253301115149 
0.3335623903065617 
-0.2576599890501087 
0.2312412308293088 
0.1110344133268339 
-1.983708905788597 
-2.261502020839784 
-0.8441516637927073 
-0.3499839387706524 
0.2576264908489479 
-0.2074859560526927 
-1.519204419696261 
-0.2475007456748766 
0 
0.05067991333449349 
-0.4573914449133435 
-0.7233558007617538 
0.178844699670009 
0.9259050292887732 
-0.004722934873391994 
-2.067114581113045 
0.6862550727239703 
0.3761647284139084 
-0.03030983325883957 
0 
-0.181834756844918 
-0.1864685623463756 
0.5075292813831883 
3.385115316624907 
0.5102337872565912 
0.06953888156723313 
0.05960913773313081 
-1.019761014389411 
6.08052270892364 
0.3338077034872994 
0 
-3.56891039532923 
0.7946029513297542 
-0.9567976556708812 
0.5115870356295208 
0.1813988195066835 
0.2636459259851645 
-2.27576689139493 
0.5969524959444538 
0.7505772810811873 
0.2913666613502219 
0.3835989537977909 
-1.141818954607252 
0.2283072656560815 
0.1544105951571154 
0.1183806851153284 
0 
0.1388024334132479 
0.1064991627903149 
0.006536908702987149 
-0.006649749962961173 
0.2771800574778569 
-1.024919281191083 
-0.2880004108039813 
-0.2883122896438589 
-1.937092398983855 
0.09400776814156211 
0.09601035273270474 
0.216920517168789 
-0.0366794132944476 
0.05070036662830707 
-0.2612649728733535 
0 
-0.6001628746157354 
0.5746529412565309 
0.2012045909746178 
-1.6570708050228 
0 
-0.03773191871269341 
0.5088672761222774 
0.2441382069983692 
0.3927070194561272 
0.4430345724485857 
0.0190436395976962 
-0.5496686747587127 
0.6149251747067128 
0.2243646593759726 
-1.505540653559131 
-0.7756329844148692 
-0.070889521343298 
0.07306446618368158 
0.7063932400108072 
0.2765573186792328 
-0.4214939718845027 
-2.746421034485818 
-0.2000580758526936 
-0.6545267172068897 
0.366453892336488 
-0.1819207648185774 
-3.060462801659702 
0.7307571541927579 
0.1245835654515532 
-1.277976142070256 
0.8810347697428658 
0.4865946991223375 
0.1098908778890408 
-1.941271612008254 
0.356599985411538 
0.2040414643465863 
1.508480739585505 
-0.01169303150601448 
-0.5055032187972048 
-0.07749071135994497 
0.4007192613190197 
-0.5691295684536926 
-0.06620024974198506 
0.1466296267013945 
0.2416716150052144 
0.5654697266873884 
0.4898514854422329 
0.6011950554096983 
0.2701667767813714 
0.3542049089752042 
0.8112759833878886 
0.5340749077970669 
0.2645189719937741 
0.01549587892965166 
0.1459003470552154 
0 
-0.610324821056674 
0.5048732689900961 
0.2415499153010216 
0.03664268830769618 
0.1120821362456441 
0.1236663036292873 
-0.5210508584984372 
-0.773960560005614 
-0.09756588179484713 
0.5819610114950416 
0.01926762202856165 
-1.022430257019861 
-2.517465572249964 
0.4346186852250973 
0.0381720648317213 
0.08257236820859658 
2.948637067125642 
0 
0.08388509488822536 
0.1777852228925467 
-0.2811710014477032 
0.1671472947057143 
0.1226353520915704 
-0.1759911409432727 
-2.847015167112608 
0.6349667951895072 
-0.04568599030076619 
-0.5166884828551579 
-0.5298681245366135 
0.1236472111980998 
0.4020376732302187 
0.3966753726963266 
0.4939863914257762 
0.1461523396127361 
-0.5217604032274371 
-0.1924976990915814 
0.2724028347271433 
0.7976306684022695 
0.1463319384092892 
-0.6497712058194917 
0.3365343166212572 
0.1407889070714419 
0 
-1.499272362648369 
0.0353360999521774 
0.4916778714003343 
0.1548454718300264 
0.249550695227756 
0.1902572241436175 
-1.736738748903156 
0.136835001631364 
-0.6006948898957967 
-0.1354691906071896 
0.8130633847853204 
-2.356954238290372 
0 
-0.07729262589798461 
0 
0 
0.5139023253529528 
-0.3441317380972799 
-0.1751041283094093 
-2.423106212552422 
-0.219540954017425 
-0.1645910152734609 
-0.5238928655620089 
0.4497742281653782 
-1.390010417730868 
0 
-0.4426832771866657 
0.5706411087118201 
0.9745296247927333 
0.447723456775697 
0.2633110102550825 
0.4101084687862694 
2.407871749998748 
0 
-1.738939567970009 
-1.282128138509067 
-0.4045044380416863 
1.010166775225591 
-0.03072117611380684 
-2.742767533401445 
-1.335450312843511 
-3.975892904665648 
0.2677830915886913 
0.09864972880831861 
0.2555905495552435 
0.8589587980095534 
0.4879724841118863 
0.3072503840700671 
-0.7585478671884045 
0.1499072838002894 
-0.3156612487980299 
0 
0.05990731883966907 
0.1936675389125649 
-2.504116456396797 
0.3621822564539543 
